%YAML:1.0
---
opencv_ml_svm:
   format: 3
   svmType: C_SVC
   kernel:
      type: RBF
      gamma: 5.0000000000000000e-01
   C: 1.
   term_criteria: { epsilon:1.1920928955078125e-07, iterations:1000 }
   var_count: 64
   class_count: 31
   class_labels: !!opencv-matrix
      rows: 31
      cols: 1
      dt: i
      data: [ 1001, 1003, 1005, 1007, 1009, 1011, 1013, 1015, 1017, 1019,
          1021, 1023, 1025, 1027, 1029, 1031, 1033, 1035, 1037, 1039,
          1041, 1043, 1045, 1047, 1049, 1051, 1053, 1055, 1057, 1059,
          1061 ]
   sv_total: 2894
   support_vectors:
      - [ 1.93255380e-01, 1.58107027e-01, 1.40521288e-01, 5.38311377e-02,
          8.04215390e-03, 5.49517907e-02, 1.14236161e-01, 1.62346736e-01,
          1.06311023e-01, 5.23830159e-03, 9.27283987e-02, 4.17100787e-02,
          6.22942531e-03, 1.95851624e-01, 1.31805435e-01, 1.94226444e-01,
          2.23246858e-01, 1.68559566e-01, 6.63638636e-02, 8.71059522e-02,
          1.07896812e-02, 9.99460146e-02, 9.60335657e-02, 1.70335293e-01,
          1.62922680e-01, 1.17429778e-01, 8.53493065e-02, 0.,
          7.66080394e-02, 0., 1.45296797e-01, 2.83206701e-01,
          7.62097538e-02, 5.66615872e-02, 7.35927969e-02, 5.09382188e-02,
          1.33284330e-01, 1.82322606e-01, 2.10588932e-01, 1.20153867e-01,
          1.46286815e-01, 8.50007683e-02, 1.43038124e-01, 1.04413703e-01,
          1.20282724e-01, 9.95597020e-02, 4.63959277e-02, 0.,
          1.90094724e-01, 8.04215390e-03, 3.53852510e-02, 0., 0.,
          3.93579267e-02, 1.92859739e-01, 1.62938789e-01, 2.77700514e-01,
          1.41866058e-01, 9.81810838e-02, 9.26370919e-02, 1.86625887e-02,
          5.96264265e-02, 7.13612735e-02, 1.53045863e-01 ]
      - [ 8.11294764e-02, 7.77664185e-02, 1.86862424e-01, 1.07399397e-01,
          5.09882681e-02, 0., 3.73187661e-02, 1.98627084e-01,
          2.18630895e-01, 7.12020695e-02, 1.30155543e-02, 3.21320668e-02,
          1.93167597e-01, 1.09405279e-01, 4.57243733e-02, 7.74724409e-02,
          8.27564299e-02, 7.70372972e-02, 1.17570005e-01, 0.,
          8.49702060e-02, 7.73176327e-02, 9.74300131e-02, 1.87709600e-01,
          1.74700513e-01, 8.21044147e-02, 6.11357652e-02, 0.,
          7.27569610e-02, 7.99407661e-02, 8.15292224e-02, 9.68672410e-02,
          8.25393125e-02, 1.65969729e-01, 1.69809207e-01, 1.94633365e-01,
          1.91108599e-01, 1.27471998e-01, 1.24044523e-01, 1.35305762e-01,
          1.09968096e-01, 1.44217908e-01, 1.35264888e-01, 1.00457303e-01,
          1.91802099e-01, 1.55030519e-01, 1.26245648e-01, 1.10174656e-01,
          1.05301082e-01, 1.53050244e-01, 2.06885040e-01, 1.98128581e-01,
          1.55856237e-01, 1.57781050e-01, 1.73582479e-01, 5.59125952e-02,
          6.28226846e-02, 7.39050284e-02, 1.01702042e-01, 1.29541904e-01,
          1.80468172e-01, 1.41566619e-01, 4.86180373e-02, 6.73853457e-02 ]
      - [ 1.62141621e-01, 1.58689395e-01, 1.57692239e-01, 1.47754639e-01,
          1.64007038e-01, 9.15129930e-02, 8.16947669e-02, 0.,
          8.70668665e-02, 1.06939636e-01, 1.29379958e-01, 1.12623632e-01,
          1.31275892e-01, 2.60288060e-01, 1.72375321e-01, 8.05632249e-02,
          1.85814440e-01, 2.24278182e-01, 1.58151582e-01, 1.08898640e-01,
          1.04384851e-02, 4.64773364e-02, 3.31765274e-03, 1.10555872e-01,
          2.08818063e-01, 1.71876505e-01, 7.19162896e-02, 4.96104825e-03,
          1.49409100e-01, 1.64173782e-01, 1.48190260e-01, 1.96734980e-01,
          5.81190214e-02, 5.42380586e-02, 0., 0., 8.20761174e-02,
          1.12528101e-01, 1.73285186e-01, 1.57147124e-01, 1.73127666e-01,
          1.07245229e-01, 1.17630102e-01, 1.26352400e-01, 8.05562884e-02,
          8.60335603e-02, 7.02658668e-02, 0., 9.83191058e-02, 0., 0.,
          4.81675863e-02, 0., 1.45139307e-01, 1.25547230e-01,
          1.43726081e-01, 2.05157086e-01, 1.62382379e-01, 1.57527864e-01,
          6.85511976e-02, 5.57960477e-03, 0., 0., 1.66580662e-01 ]
      - [ 3.18658262e-01, 1.47621259e-01, 1.06124640e-01, 1.19899511e-02,
          1.51132450e-01, 9.09484699e-02, 1.35908514e-01, 1.27066493e-01,
          1.17432155e-01, 1.49392322e-01, 3.80451307e-02, 7.42230099e-03,
          7.20526204e-02, 5.62670603e-02, 1.17633000e-01, 1.88506246e-01,
          2.29236439e-01, 1.16633467e-01, 7.79036731e-02, 7.68877268e-02,
          1.44586982e-02, 0., 4.96359169e-03, 0., 2.06758916e-01,
          1.71224222e-01, 1.31368712e-01, 9.44982395e-02, 7.37180635e-02,
          1.07890703e-01, 1.54104501e-01, 2.57064402e-01, 1.49195075e-01,
          3.50978947e-03, 0., 0., 7.33484998e-02, 5.57934456e-02,
          2.45667905e-01, 1.74808428e-01, 1.45005345e-01, 9.53711495e-02,
          1.47745207e-01, 1.16528258e-01, 0., 6.24138629e-03,
          8.22365880e-02, 8.35649148e-02, 1.44171879e-01, 0., 0., 0., 0.,
          7.12677883e-03, 1.79468170e-01, 8.86337459e-02, 2.48315349e-01,
          2.23306730e-01, 1.70435384e-02, 9.12411213e-02, 6.20689206e-02,
          0., 7.17988536e-02, 1.72108084e-01 ]
      - [ 1.15216143e-01, 4.03757766e-02, 1.55343637e-01, 1.64648622e-01,
          1.14230320e-01, 7.13803098e-02, 5.90774789e-02, 8.10126737e-02,
          7.20300302e-02, 9.52470824e-02, 1.45771071e-01, 5.61579913e-02,
          1.91206113e-01, 2.71782577e-01, 2.86993403e-02, 0.,
          1.56137750e-01, 1.64125919e-01, 1.66990802e-01, 2.56570369e-01,
          8.91781375e-02, 0., 0., 0., 5.30404374e-02, 0., 0., 0.,
          2.27278024e-01, 1.99942514e-01, 1.43473312e-01, 8.36015940e-02,
          1.65039659e-01, 1.00893132e-01, 5.18432967e-02, 1.37195915e-01,
          2.10596234e-01, 8.35138261e-02, 9.77174267e-02, 2.30196994e-02,
          9.69597250e-02, 4.80075665e-02, 1.10042587e-01, 1.91915870e-01,
          2.38339633e-01, 1.07971758e-01, 1.40210152e-01, 9.31567550e-02,
          9.21759829e-02, 0., 1.14665981e-02, 4.40535396e-02,
          2.76329309e-01, 1.76269785e-01, 1.64951771e-01, 7.45678395e-02,
          1.04673415e-01, 6.83464482e-02, 7.95433372e-02, 8.07650983e-02,
          1.15786567e-01, 5.84575161e-02, 7.13867247e-02, 4.23971564e-02 ]
      - [ 1.73987255e-01, 1.30425319e-01, 1.77777380e-01, 1.04505420e-01,
          1.16338879e-01, 1.36498392e-01, 9.08749774e-02, 1.59668233e-02,
          1.18398882e-01, 7.16790631e-02, 6.87109381e-02, 1.29747257e-01,
          7.06484988e-02, 2.20339090e-01, 2.05964863e-01, 1.48779690e-01,
          2.44989738e-01, 2.18848944e-01, 1.17490038e-01, 1.33239716e-01,
          9.80449189e-03, 2.42870729e-02, 7.03658443e-03, 1.50914937e-01,
          1.74773574e-01, 1.83109775e-01, 1.03181474e-01, 7.78890252e-02,
          8.03705156e-02, 1.80736437e-01, 1.60167098e-01, 1.83113471e-01,
          5.87760583e-02, 4.80584465e-02, 0., 7.26352930e-02,
          7.07483739e-02, 1.04586512e-01, 1.18816204e-01, 2.34295875e-01,
          1.21073276e-01, 1.87037289e-01, 5.21590598e-02, 1.00714602e-01,
          0., 1.07684359e-01, 6.94215149e-02, 0., 7.49819353e-02,
          4.57124971e-02, 0., 0., 0., 3.96625139e-02, 2.19078466e-01,
          1.08133582e-02, 2.10972890e-01, 1.68324605e-01, 1.68544784e-01,
          9.24691558e-02, 3.70574975e-03, 9.37717594e-03, 3.11615155e-03,
          1.62470967e-01 ]
      - [ 6.93449900e-02, 9.30774212e-02, 1.32885501e-01, 1.92098409e-01,
          0., 0., 0., 0., 0., 0., 0., 0., 1.93518206e-01, 1.29964784e-01,
          8.88483152e-02, 6.99197203e-02, 1.22040875e-01, 9.38398466e-02,
          1.30905107e-01, 3.10242735e-02, 0., 0., 0., 0., 0., 0., 0., 0.,
          7.92899281e-02, 1.09597549e-01, 1.01695150e-01, 1.91720594e-02,
          0., 7.83846900e-02, 1.86605439e-01, 2.43953317e-01,
          2.42321804e-01, 2.03730479e-01, 3.64071899e-03, 0., 0., 0.,
          1.80158809e-01, 2.76127279e-01, 1.93456575e-01, 1.71781123e-01,
          1.15664177e-01, 0., 1.65733501e-01, 1.50064453e-01,
          1.50894538e-01, 2.60950238e-01, 1.89070284e-01, 1.71163172e-01,
          1.64037645e-01, 0., 1.55456722e-01, 1.11452505e-01,
          8.05547237e-02, 1.30045891e-01, 2.41715699e-01, 1.53961048e-01,
          1.16345510e-01, 1.25871703e-01 ]
      - [ 1.40476197e-01, 1.58024058e-01, 2.37930298e-01, 6.76631406e-02,
          1.47499964e-01, 8.16275552e-02, 1.76544532e-01, 6.83999201e-03,
          1.01984285e-01, 4.03033867e-02, 1.26629710e-01, 1.12728603e-01,
          1.87602282e-01, 1.72701597e-01, 1.42687127e-01, 1.25938520e-01,
          2.57255614e-01, 2.58474350e-01, 1.17303142e-02, 6.14163419e-03,
          7.70829767e-02, 0., 5.60220145e-03, 1.04735330e-01,
          2.44655684e-01, 1.63106859e-01, 4.88625392e-02, 0.,
          9.37663615e-02, 7.57788271e-02, 9.63289663e-02, 2.13774711e-01,
          7.75030181e-02, 1.03387535e-01, 0., 8.18453636e-03,
          1.29892886e-01, 1.40728608e-01, 1.51113912e-01, 1.28525078e-01,
          1.44626826e-01, 1.04787469e-01, 1.50656283e-01, 1.21262051e-01,
          4.83660493e-03, 1.25718996e-01, 0., 0., 1.25960350e-01,
          5.75172482e-03, 0., 0., 1.14304714e-01, 9.95933861e-02,
          1.47288933e-01, 1.57306343e-01, 2.46760741e-01, 1.02297992e-01,
          7.88374841e-02, 1.36613309e-01, 5.43964561e-03, 0.,
          5.53006120e-02, 1.46383256e-01 ]
      - [ 9.26463753e-02, 1.44623578e-01, 1.97648659e-01, 2.07096636e-01,
          1.09043129e-01, 1.22931600e-01, 1.15683496e-01, 0.,
          4.81813811e-02, 6.49998784e-02, 7.87534863e-02, 0.,
          1.54814973e-01, 1.44263685e-01, 1.09283373e-01, 9.70585197e-02,
          1.72037318e-01, 1.26819015e-01, 1.58551127e-01, 2.20848918e-01,
          1.36401337e-02, 0., 0., 0., 0., 1.09499380e-01, 6.85179830e-02,
          8.71393457e-02, 2.07730979e-01, 1.40614361e-01, 1.43579304e-01,
          1.37571499e-01, 1.26093209e-01, 1.19131178e-01, 1.59442395e-01,
          1.67156085e-01, 2.32012540e-01, 1.44613251e-01, 1.38974994e-01,
          3.59172262e-02, 3.70570272e-02, 6.46972954e-02, 9.06385556e-02,
          1.40858069e-01, 1.81806445e-01, 6.40598312e-02, 1.05781749e-01,
          3.92969213e-02, 6.41438663e-02, 0., 5.18584214e-02,
          6.31094798e-02, 2.63564616e-01, 2.05763638e-01, 1.59344554e-01,
          1.03412107e-01, 1.12297460e-01, 6.07663766e-02, 1.14028320e-01,
          1.33960113e-01, 1.70510039e-01, 8.76480192e-02, 9.23798904e-02,
          9.60315987e-02 ]
      - [ 1.17636554e-01, 1.70042679e-01, 2.40782887e-01, 1.45679295e-01,
          2.04603851e-01, 1.79307655e-01, 4.67815213e-02, 0.,
          7.23331124e-02, 0., 1.65751353e-01, 7.98489749e-02,
          1.40672281e-01, 2.12588042e-01, 1.46687731e-01, 1.18951254e-01,
          2.88261145e-01, 1.22195415e-01, 1.44029081e-01, 1.09732851e-01,
          1.24751423e-02, 5.86096849e-03, 6.15778826e-02, 8.64427760e-02,
          1.91246212e-01, 1.56309798e-01, 5.76047637e-02, 1.12514168e-01,
          3.33192274e-02, 1.66951165e-01, 1.84007421e-01, 2.35130206e-01,
          4.85618152e-02, 2.09191069e-02, 4.29508239e-02, 9.34029296e-02,
          6.88722879e-02, 1.84085846e-01, 1.43141493e-01, 1.31970719e-01,
          8.42075199e-02, 1.86478570e-01, 9.32465345e-02, 1.31571814e-01,
          4.33944985e-02, 4.72506508e-02, 1.11208763e-02, 3.72902155e-02,
          3.46811488e-02, 0., 8.28866102e-03, 7.36977719e-03,
          1.28468918e-02, 7.94156641e-02, 1.57286078e-01, 1.82275489e-01,
          2.51843542e-01, 1.57434523e-01, 5.84278703e-02, 6.25828328e-03,
          1.24946013e-02, 4.12085764e-02, 8.28866102e-03, 4.45563011e-02 ]
      - [ 1.03308439e-01, 2.06137970e-01, 2.01668307e-01, 1.70154870e-01,
          1.19093381e-01, 6.20003603e-02, 0., 0., 0., 0., 1.48956515e-02,
          3.87081280e-02, 1.20982610e-01, 1.23600483e-01, 8.75382125e-02,
          9.51882824e-02, 1.44311950e-01, 8.66964087e-02, 1.23116054e-01,
          2.26220578e-01, 0., 0., 0., 0., 0., 0., 0., 1.09528810e-01,
          1.78350180e-01, 1.35882124e-01, 1.72125056e-01, 1.10653765e-01,
          0., 1.77717656e-01, 1.74208283e-01, 1.69983491e-01,
          2.46772751e-01, 1.68233350e-01, 1.60359353e-01, 4.68805172e-02,
          0., 4.00140211e-02, 1.01666152e-01, 1.28692985e-01,
          1.50588691e-01, 7.24886656e-02, 4.26732600e-02, 0.,
          1.03255272e-01, 1.45916522e-01, 1.27525836e-01, 1.19290352e-01,
          2.93309212e-01, 1.30302027e-01, 1.29509434e-01, 1.38327569e-01,
          1.17302969e-01, 1.34551719e-01, 8.25238228e-02, 1.22190431e-01,
          2.20519930e-01, 1.25354454e-01, 1.58073142e-01, 3.90247703e-02 ]
      - [ 1.16607018e-01, 2.08863527e-01, 1.87302724e-01, 1.73128754e-01,
          1.07610166e-01, 0., 0., 0., 0., 0., 0., 0., 1.82473496e-01,
          1.66355982e-01, 1.37622982e-01, 7.77198300e-02, 1.19972393e-01,
          9.94398892e-02, 1.59770548e-01, 2.09607437e-01, 0., 0., 0., 0.,
          0., 0., 0., 0., 1.46271154e-01, 1.19658932e-01, 1.45777121e-01,
          9.46313590e-02, 9.50170532e-02, 4.66557927e-02, 9.53611806e-02,
          2.96587050e-01, 1.66788861e-01, 1.51797980e-01, 1.70000240e-01,
          8.78267959e-02, 4.31345925e-02, 9.28389579e-02, 1.22925319e-01,
          2.27536723e-01, 1.71513706e-01, 1.02938838e-01, 0.,
          7.46490210e-02, 1.16278619e-01, 1.30991489e-01, 1.62207916e-01,
          2.10448936e-01, 2.22218886e-01, 1.32768109e-01, 1.45415559e-01,
          1.29844621e-01, 9.20697674e-02, 1.05274037e-01, 1.07211754e-01,
          1.15427941e-01, 1.45680368e-01, 1.10004544e-01, 6.96988106e-02,
          1.13969736e-01 ]
      - [ 1.39118209e-01, 1.75233930e-01, 1.85435101e-01, 1.48864970e-01,
          1.32186741e-01, 1.41338378e-01, 7.48793781e-02, 6.73297122e-02,
          7.76014626e-02, 6.68662786e-02, 1.04355097e-01, 1.13192171e-01,
          1.31810248e-01, 1.95411131e-01, 1.41343594e-01, 8.20148289e-02,
          2.21348584e-01, 1.51202753e-01, 1.51014239e-01, 8.07898194e-02,
          1.44280083e-02, 3.53023782e-02, 4.58563911e-03, 0.,
          2.15420246e-01, 1.30449384e-01, 1.47170722e-01, 8.84825438e-02,
          6.33758157e-02, 1.45729512e-01, 1.67319417e-01, 1.12497784e-01,
          7.48708993e-02, 5.32685705e-02, 1.37008041e-01, 6.15702197e-03,
          8.37130696e-02, 2.14245245e-01, 1.56613410e-01, 1.77528366e-01,
          1.52260557e-01, 1.00650124e-01, 1.08308338e-01, 1.10596433e-01,
          1.23280421e-01, 1.34865105e-01, 5.28043918e-02, 0.,
          1.73798487e-01, 1.11186281e-01, 0., 0., 0., 9.25265476e-02,
          1.70820251e-01, 1.68231055e-01, 1.98852986e-01, 1.67637140e-01,
          1.16111234e-01, 7.75400624e-02, 6.48201182e-02, 1.05478853e-01,
          1.42744482e-01, 8.21674988e-02 ]
      - [ 1.21130487e-02, 7.81959444e-02, 1.51793584e-01, 9.26084667e-02,
          0., 0., 0., 0., 0., 0., 0., 0., 1.19532727e-01, 1.09137043e-01,
          7.40294680e-02, 1.32769331e-01, 5.67874759e-02, 4.19465415e-02,
          2.19142269e-02, 0., 0., 0., 0., 0., 0., 0., 0., 0.,
          3.15290652e-02, 1.36762429e-02, 4.08842824e-02, 5.05785681e-02,
          8.65672827e-02, 1.41867235e-01, 2.19397500e-01, 2.32168868e-01,
          2.51742154e-01, 1.84216559e-01, 1.41837671e-01, 1.29679620e-01,
          0., 1.04910508e-01, 1.75405264e-01, 1.46243513e-01,
          2.53867090e-01, 1.70355901e-01, 1.18893027e-01, 0.,
          1.87035322e-01, 1.53984666e-01, 2.40301877e-01, 2.48642474e-01,
          2.01661065e-01, 1.48470268e-01, 1.07976370e-01, 9.63886157e-02,
          1.01833865e-01, 1.17702097e-01, 1.53600231e-01, 1.22563206e-01,
          2.52274066e-01, 2.17424065e-01, 1.59979314e-01, 7.74667412e-02 ]
      - [ 1.54468805e-01, 2.13873312e-01, 2.44821474e-01, 1.03238067e-02,
          1.43409356e-01, 1.87226400e-01, 1.10686518e-01, 7.68898567e-03,
          8.83566961e-02, 6.37430549e-02, 1.43321201e-01, 1.25313401e-01,
          1.01146035e-01, 1.67295024e-01, 2.08174139e-01, 1.39396831e-01,
          2.36183584e-01, 2.09242910e-01, 1.09220028e-01, 0.,
          1.59344524e-02, 9.81381256e-03, 4.90317792e-02, 8.08545351e-02,
          2.32107833e-01, 1.19512856e-01, 1.01432107e-01, 7.68898567e-03,
          8.56884271e-02, 1.03235118e-01, 1.53623551e-01, 2.50319660e-01,
          4.03300412e-02, 3.63589660e-03, 5.92123270e-02, 8.57071653e-02,
          7.99205750e-02, 1.45971730e-01, 1.54471159e-01, 1.44087806e-01,
          1.41700700e-01, 1.37706459e-01, 1.56070963e-01, 4.63152751e-02,
          1.27434388e-01, 8.43744632e-03, 6.29755761e-03, 0.,
          8.11694041e-02, 5.70844449e-02, 0., 0., 7.48910056e-03,
          1.28887549e-01, 1.46954998e-01, 2.10604027e-01, 2.06914306e-01,
          9.29565281e-02, 1.43346220e-01, 7.56887570e-02, 3.79414931e-02,
          0., 6.71979934e-02, 8.31527635e-02 ]
      - [ 1.82457387e-01, 1.32054612e-01, 2.66173452e-01, 1.18855797e-01,
          1.37651354e-01, 1.24784000e-01, 1.73373312e-01, 1.12367896e-02,
          9.62475985e-02, 8.75910651e-03, 1.34596661e-01, 1.25733614e-01,
          1.37901679e-01, 1.68013647e-01, 1.80135384e-01, 7.82850459e-02,
          2.40265191e-01, 1.81652933e-01, 1.03311673e-01, 4.91590099e-03,
          7.87745342e-02, 3.32944542e-02, 7.89145157e-02, 1.04663238e-01,
          2.37044945e-01, 5.47932386e-02, 3.79721895e-02, 1.38965368e-01,
          9.12376717e-02, 1.65318549e-01, 1.48133248e-01, 2.46616274e-01,
          5.53685501e-02, 4.64917207e-03, 8.43151137e-02, 4.91590099e-03,
          1.03434911e-02, 1.96851179e-01, 1.40000269e-01, 1.03324845e-01,
          1.07065305e-01, 1.22835137e-01, 1.94651499e-01, 7.94561021e-03,
          1.19379468e-01, 4.66775335e-02, 6.67533139e-03, 0.,
          1.33904308e-01, 0., 0., 0., 0., 7.01921880e-02, 2.43700892e-01,
          1.39251366e-01, 1.83841243e-01, 1.04290470e-01, 1.17091119e-01,
          1.42390981e-01, 3.78030799e-02, 0., 6.45160750e-02, 0. ]
      - [ 1.77298814e-01, 1.68020517e-01, 1.31092012e-01, 2.06436396e-01,
          0., 0., 0., 0., 0., 0., 0., 0., 2.12051168e-01, 1.78266644e-01,
          1.83809698e-01, 1.06793381e-01, 8.60156193e-02, 8.30830410e-02,
          1.23603560e-01, 2.00288370e-01, 0., 0., 0., 0., 0., 0., 0., 0.,
          2.06696212e-01, 1.32793948e-01, 1.07212439e-01, 4.03979681e-02,
          1.66010007e-01, 9.11236927e-02, 1.02391198e-01, 1.66393459e-01,
          1.74515769e-01, 8.23180899e-02, 1.03383705e-01, 1.46834970e-01,
          1.79526746e-01, 1.03410743e-01, 1.45117864e-01, 1.54500306e-01,
          2.14024305e-01, 1.46846905e-01, 1.33918777e-01, 1.75080113e-02,
          1.47627473e-01, 1.45595104e-01, 1.57282382e-01, 1.45662770e-01,
          2.40532801e-01, 1.66487440e-01, 1.49179131e-01, 0.,
          9.69015583e-02, 5.47640882e-02, 8.15615579e-02, 1.20752223e-01,
          1.77796140e-01, 1.30294576e-01, 1.05764344e-01, 9.09261927e-02 ]
      - [ 2.00796723e-01, 1.31465048e-01, 1.27191499e-01, 1.27000242e-01,
          1.48526169e-02, 5.15019521e-02, 8.74090008e-03, 0.,
          5.99779710e-02, 9.38176829e-03, 5.07440828e-02, 1.29543260e-01,
          1.30444527e-01, 1.37939870e-01, 1.29427075e-01, 1.99435994e-01,
          1.69166833e-01, 1.91703856e-01, 1.05860420e-01, 2.87730284e-02,
          6.27189130e-02, 7.14986306e-03, 1.17641874e-02, 5.51742502e-02,
          1.50347471e-01, 9.20054987e-02, 1.08888581e-01, 8.23719203e-02,
          1.45681435e-02, 8.40543732e-02, 7.55138025e-02, 2.36819282e-01,
          7.78898820e-02, 0., 4.57846671e-02, 7.07262158e-02,
          1.62086800e-01, 1.95057258e-01, 2.19979912e-01, 1.59663185e-01,
          1.95329249e-01, 8.75935853e-02, 1.08157530e-01, 2.04920858e-01,
          1.89434156e-01, 4.67228629e-02, 2.58839894e-02, 3.03466842e-02,
          2.04101533e-01, 7.82362968e-02, 2.26977859e-02, 0., 0., 0.,
          1.51904985e-01, 1.83996677e-01, 2.81003267e-01, 2.14266628e-01,
          1.19293258e-01, 0., 8.22993442e-02, 5.38589880e-02,
          8.19996148e-02, 1.92137703e-01 ]
      - [ 1.38002753e-01, 1.96352229e-01, 1.59710526e-01, 1.99210808e-01,
          9.58555713e-02, 1.15985587e-01, 1.36780798e-01, 7.67118931e-02,
          0., 3.67452502e-02, 8.38463455e-02, 0., 1.38008580e-01,
          6.62490726e-02, 9.43221152e-02, 7.61121213e-02, 1.50003210e-01,
          1.75079733e-01, 1.48691759e-01, 2.10528567e-01, 0., 0., 0., 0.,
          7.63016194e-02, 1.32415935e-01, 0., 7.44807050e-02,
          1.81258172e-01, 1.60925105e-01, 1.55867517e-01, 1.03111714e-01,
          5.05023561e-02, 1.76141754e-01, 1.41873315e-01, 1.63615957e-01,
          2.40037039e-01, 1.32346898e-01, 1.58885211e-01, 5.23666702e-02,
          0., 6.75623417e-02, 2.80190036e-02, 1.22520126e-01,
          1.54843330e-01, 6.68838844e-02, 5.77291884e-02, 0.,
          5.00383340e-02, 6.31143451e-02, 7.62236714e-02, 7.42666051e-02,
          2.66739696e-01, 1.80099472e-01, 1.57626897e-01, 1.48170799e-01,
          1.19604029e-01, 1.12051167e-01, 1.12834550e-01, 1.56120479e-01,
          1.82417020e-01, 1.35958552e-01, 1.47095591e-01, 0. ]
      - [ 1.79439262e-01, 1.04349010e-01, 1.18438877e-01, 1.85895577e-01,
          1.40176982e-01, 1.30141780e-01, 3.11186947e-02, 9.73050855e-03,
          8.12355056e-02, 9.93478596e-02, 8.13369304e-02, 1.68796495e-01,
          2.49443784e-01, 1.91539511e-01, 1.35365456e-01, 1.47525981e-01,
          3.20321321e-01, 1.72829553e-01, 6.83656558e-02, 9.38852951e-02,
          8.65178090e-03, 1.12683959e-01, 3.81011069e-02, 8.70785490e-02,
          2.34915182e-01, 1.85574517e-01, 4.31205072e-02, 3.48195583e-02,
          7.32202316e-03, 6.89875484e-02, 1.24765590e-01, 2.25143567e-01,
          4.52877544e-02, 3.76187824e-02, 0., 0., 5.47186658e-03,
          1.56349555e-01, 8.83584395e-02, 1.80467173e-01, 1.84690505e-01,
          1.06027387e-01, 7.67971650e-02, 1.23543292e-01, 1.22774199e-01,
          6.39246479e-02, 0., 7.71831721e-02, 1.43125564e-01, 0., 0.,
          4.35168333e-02, 3.86919407e-03, 1.38970688e-01, 1.32911742e-01,
          1.84148490e-01, 1.97615683e-01, 1.23359405e-01, 1.24647811e-01,
          9.12484080e-02, 1.18102379e-01, 0., 5.70796207e-02, 0. ]
      - [ 1.47380367e-01, 1.57306761e-01, 1.78691745e-01, 2.27603883e-01,
          0., 0., 0., 0., 0., 0., 0., 0., 1.87638745e-01, 1.69983611e-01,
          1.49098709e-01, 2.40288302e-02, 1.15574911e-01, 8.90909806e-02,
          1.36422515e-01, 1.81023374e-01, 0., 0., 0., 0., 0., 0., 0., 0.,
          2.15453416e-01, 1.57150388e-01, 9.80885625e-02, 4.48976047e-02,
          1.09239303e-01, 1.31269336e-01, 1.48503050e-01, 1.65050477e-01,
          2.47634649e-01, 1.37920097e-01, 1.24927253e-01, 1.09068632e-01,
          8.45862031e-02, 9.49627459e-02, 1.18296519e-01, 1.70121357e-01,
          1.47090003e-01, 1.07847989e-01, 1.11276813e-01, 1.19031586e-01,
          1.44294515e-01, 1.65349916e-01, 1.30403087e-01, 8.06938261e-02,
          2.79819250e-01, 1.46307454e-01, 1.44579053e-01, 0.,
          1.10751964e-01, 1.00697167e-01, 1.02123491e-01, 1.17737129e-01,
          2.18304396e-01, 1.38708293e-01, 1.27854854e-01, 0. ]
      - [ 1.06375612e-01, 7.56150037e-02, 8.89647603e-02, 2.50612766e-01,
          0., 0., 0., 0., 0., 0., 0., 0., 2.25965694e-01, 1.07195482e-01,
          1.61183670e-01, 1.45943746e-01, 8.35275203e-02, 8.24732259e-02,
          1.43535927e-01, 1.61767736e-01, 6.39100075e-02, 2.09647715e-02,
          0., 0., 4.26371731e-02, 0., 0., 0., 1.54023483e-01,
          9.65213105e-02, 8.96511525e-02, 9.04901922e-02, 1.10419542e-01,
          8.58209953e-02, 6.45388365e-02, 2.04175100e-01, 1.84395030e-01,
          1.12246551e-01, 9.58455130e-02, 1.17932543e-01, 1.12807356e-01,
          1.72626808e-01, 1.06062099e-01, 2.17035338e-01, 2.27802694e-01,
          1.08159602e-01, 1.15725845e-01, 8.30934420e-02, 2.14149669e-01,
          1.33981749e-01, 1.10569380e-01, 2.24610239e-01, 2.24974886e-01,
          1.36342481e-01, 1.50164261e-01, 2.82797851e-02, 2.00021520e-01,
          5.75804412e-02, 1.16253644e-01, 1.09901287e-01, 2.28617460e-01,
          1.13754876e-01, 1.03865892e-01, 4.93154861e-02 ]
      - [ 1.40442908e-01, 1.47347555e-01, 2.17521369e-01, 1.63002029e-01,
          1.25364363e-01, 0., 0., 0., 0., 0., 0., 4.27119844e-02,
          1.99388027e-01, 1.44198999e-01, 1.45573094e-01, 7.01593086e-02,
          1.30848229e-01, 1.01671040e-01, 1.11119479e-01, 1.62585333e-01,
          1.03318721e-01, 0., 0., 0., 0., 0., 0., 7.29865432e-02,
          2.01334760e-01, 1.54249281e-01, 1.16901599e-01, 6.26403168e-02,
          0., 1.57474011e-01, 1.70976236e-01, 1.93922073e-01,
          1.99583173e-01, 1.59598857e-01, 1.47057414e-01, 1.02043279e-01,
          0., 1.17578685e-01, 1.24444030e-01, 1.61987007e-01,
          1.38081163e-01, 1.14286199e-01, 1.05624817e-01, 9.01197940e-02,
          1.64219037e-01, 1.11522213e-01, 1.40341267e-01, 1.82376698e-01,
          2.24778339e-01, 1.59507781e-01, 1.36719808e-01, 5.18848747e-02,
          1.22480541e-01, 1.01603881e-01, 1.26540080e-01, 1.40602633e-01,
          1.50445551e-01, 1.53181374e-01, 1.46164358e-01, 4.57741022e-02 ]
      - [ 2.40693212e-01, 1.33944109e-01, 1.34745017e-01, 1.44261464e-01,
          8.65177289e-02, 1.31144315e-01, 1.31959796e-01, 6.92741945e-02,
          7.94378147e-02, 7.01763034e-02, 8.35746750e-02, 7.76716545e-02,
          6.18148558e-02, 1.72917634e-01, 1.95737243e-01, 9.23565775e-02,
          2.59501696e-01, 1.70623019e-01, 1.43364057e-01, 8.02938864e-02,
          1.19883884e-02, 9.07002017e-03, 5.82026411e-03, 7.67107531e-02,
          1.76982954e-01, 1.84502929e-01, 1.02420323e-01, 1.29515648e-01,
          1.44082494e-02, 1.18661799e-01, 2.02490851e-01, 1.54763699e-01,
          8.38235170e-02, 0., 1.03779785e-01, 5.02486667e-03,
          7.11925253e-02, 1.89123228e-01, 1.92936152e-01, 1.61513925e-01,
          1.50405601e-01, 1.77077323e-01, 1.02188990e-01, 1.08431488e-01,
          5.65138040e-03, 1.21411838e-01, 0., 0., 1.52318627e-01,
          4.75222571e-03, 0., 0., 7.99225923e-03, 0., 1.46722719e-01,
          1.82744101e-01, 2.46192977e-01, 1.76213652e-01, 1.28753707e-01,
          0., 9.10403132e-02, 8.45078472e-03, 6.75509050e-02,
          1.40293553e-01 ]
      - [ 1.87366337e-01, 2.10075706e-01, 1.42107069e-01, 0.,
          1.45769283e-01, 1.50211304e-01, 9.17798430e-02, 0.,
          7.53110349e-02, 8.95242244e-02, 6.72852248e-02, 0.,
          1.44902663e-02, 4.42364365e-02, 2.04384342e-01, 1.77534744e-01,
          2.97259063e-01, 5.16645722e-02, 7.63115939e-03, 6.41701464e-03,
          1.51241589e-02, 0., 1.23904021e-02, 0., 2.07559332e-01,
          1.79406375e-01, 1.19969226e-01, 1.16424605e-01, 5.14866896e-02,
          8.08074325e-02, 1.38372913e-01, 2.41262004e-01, 7.58280158e-02,
          1.90514270e-02, 1.36862338e-01, 1.18371315e-01, 9.15057361e-02,
          1.40344605e-01, 1.78502619e-01, 2.26057768e-01, 1.64110780e-01,
          1.46943539e-01, 9.28181335e-02, 5.05346991e-03, 9.74066556e-02,
          9.51090381e-02, 0., 0., 1.98696405e-01, 4.30466421e-02, 0., 0.,
          0., 0., 1.95997760e-01, 1.29866377e-01, 2.47366950e-01,
          1.68222159e-01, 1.73084244e-01, 2.41179112e-02, 4.61501740e-02,
          5.55623323e-02, 1.23971254e-01, 1.02844745e-01 ]
      - [ 2.01210558e-01, 2.30838165e-01, 0., 1.24676414e-01,
          7.15698600e-02, 1.52492478e-01, 5.80029152e-02, 5.11110341e-03,
          1.02189861e-01, 7.09604099e-02, 1.00831762e-01, 1.30287424e-01,
          6.10474609e-02, 2.18356013e-01, 1.45250618e-01, 1.38258889e-01,
          2.98902214e-01, 1.08346619e-01, 1.29502982e-01, 9.37613174e-02,
          1.70149207e-02, 9.08896979e-03, 1.35989133e-02, 1.23918235e-01,
          2.22264975e-01, 1.39890432e-01, 8.84141177e-02, 7.90412277e-02,
          1.52719971e-02, 1.36086896e-01, 1.66255176e-01, 1.39140025e-01,
          6.77722767e-02, 7.71819055e-03, 6.24675043e-02, 0.,
          1.47719115e-01, 1.21368080e-01, 1.57092676e-01, 1.77316189e-01,
          1.81552455e-01, 1.21521369e-01, 1.68617249e-01, 7.10861906e-02,
          5.75518161e-02, 1.05913222e-01, 8.67555216e-02, 5.11110341e-03,
          1.16371930e-01, 0., 4.01423983e-02, 0., 4.06471081e-03,
          2.34758779e-02, 1.71374321e-01, 1.92610279e-01, 1.97838560e-01,
          1.75991684e-01, 1.47674575e-01, 5.49340546e-02, 5.96768036e-02,
          0., 8.93232897e-02, 2.00355828e-01 ]
      - [ 1.48910001e-01, 1.49956316e-01, 1.66657522e-01, 1.60532922e-01,
          8.22444186e-02, 1.21288031e-01, 8.03752337e-03, 7.93073140e-03,
          7.63248354e-02, 1.13667734e-02, 1.28398880e-01, 1.16939940e-01,
          1.14307981e-02, 2.14566424e-01, 1.37689874e-01, 5.46949878e-02,
          1.96314752e-01, 1.71731010e-01, 1.49397448e-01, 1.24385551e-01,
          1.07216956e-02, 0., 8.03752244e-03, 7.10686147e-02,
          1.64306462e-01, 1.22926913e-01, 0., 5.76170906e-02,
          7.47483671e-02, 1.34320259e-01, 1.22268021e-01, 1.26900926e-01,
          9.45079103e-02, 8.53837281e-02, 1.06696300e-01, 7.73284882e-02,
          1.78801984e-01, 2.22939178e-01, 1.44381091e-01, 1.14981994e-01,
          1.18222207e-01, 1.11882776e-01, 1.95142969e-01, 1.36097997e-01,
          1.08882882e-01, 1.23404130e-01, 6.20862991e-02, 4.90669534e-03,
          2.15452850e-01, 1.31057635e-01, 0., 0., 5.51847508e-03,
          6.60906285e-02, 1.48414165e-01, 2.31418237e-01, 2.35085830e-01,
          2.01933324e-01, 1.19799599e-01, 7.91807249e-02, 8.35200679e-03,
          0., 1.03292197e-01, 1.74438834e-01 ]
      - [ 5.56164794e-02, 1.35225952e-01, 1.43522158e-01, 1.65258348e-01,
          0., 0., 0., 0., 0., 0., 0., 0., 9.69954729e-02, 1.45599306e-01,
          9.09155160e-02, 1.08895496e-01, 1.31651089e-01, 1.08087815e-01,
          1.53374255e-01, 0., 0., 0., 0., 0., 0., 0., 0., 0.,
          6.29314259e-02, 1.32538453e-01, 9.26279649e-02, 1.25163659e-01,
          8.33009332e-02, 1.88666165e-01, 1.83532685e-01, 2.78324544e-01,
          1.93642572e-01, 1.89215899e-01, 2.07680091e-01, 0., 0., 0.,
          7.21091330e-02, 1.40239522e-01, 1.88063636e-01, 1.00496188e-01,
          0., 2.34858673e-02, 9.44040343e-02, 1.50444850e-01,
          1.73898011e-01, 2.52690583e-01, 2.36453071e-01, 1.91131905e-01,
          1.27947137e-01, 1.30854920e-01, 7.95113966e-02, 1.35227218e-01,
          1.47488877e-01, 1.93128601e-01, 2.03466132e-01, 1.94959909e-01,
          1.57691300e-01, 3.40760127e-02 ]
      - [ 9.30789933e-02, 1.84247598e-01, 1.78708106e-01, 2.05120727e-01,
          0., 0., 0., 0., 0., 0., 0., 0., 1.32376567e-01, 8.63943174e-02,
          1.10453583e-01, 1.10016607e-01, 1.56049132e-01, 9.32298526e-02,
          1.40082538e-01, 1.27153918e-01, 0., 0., 0., 0., 0., 0., 0., 0.,
          1.68799549e-01, 1.77177459e-01, 1.46006584e-01, 6.11486323e-02,
          5.24280109e-02, 1.48004159e-01, 1.66266918e-01, 2.16458544e-01,
          2.85229802e-01, 1.61495656e-01, 1.65810749e-01, 2.20471807e-02,
          0., 0., 4.58983891e-02, 1.31578714e-01, 1.56866491e-01,
          4.94758338e-02, 1.19895926e-02, 1.66641325e-02, 1.08391136e-01,
          1.57425821e-01, 1.12309441e-01, 2.43745074e-01, 2.17290610e-01,
          2.25650400e-01, 1.06499456e-01, 4.28357609e-02, 5.57655394e-02,
          1.05911888e-01, 1.73449501e-01, 1.51225016e-01, 2.53006607e-01,
          1.88545942e-01, 1.08467616e-01, 1.92353856e-02 ]
      - [ 1.48085609e-01, 1.40297949e-01, 1.44014060e-01, 2.14985073e-01,
          3.54663879e-02, 6.31826967e-02, 4.50286493e-02, 4.63660434e-02,
          3.14679816e-02, 4.59924154e-02, 6.89359829e-02, 6.34197146e-02,
          2.23526374e-01, 1.40636250e-01, 1.57135561e-01, 1.29080951e-01,
          9.75569263e-02, 1.20412171e-01, 9.79862809e-02, 2.29669392e-01,
          0., 0., 0., 0., 0., 0., 0., 4.78502996e-02, 2.27853820e-01,
          1.35473967e-01, 9.49302837e-02, 1.14948936e-01, 1.43562868e-01,
          1.18093207e-01, 1.38976932e-01, 1.73883334e-01, 1.84793636e-01,
          9.31242481e-02, 6.62944540e-02, 1.40333727e-01, 1.21253729e-01,
          1.10759884e-01, 1.13636516e-01, 1.35443047e-01, 2.26920232e-01,
          1.34040952e-01, 1.49226710e-01, 6.15159944e-02, 1.51963547e-01,
          1.30683348e-01, 1.04748309e-01, 1.58341572e-01, 2.46520281e-01,
          1.48748279e-01, 1.10491216e-01, 1.08836949e-01, 1.00247376e-01,
          2.67290361e-02, 1.33177683e-01, 1.21149756e-01, 1.12997733e-01,
          1.49662226e-01, 7.28819966e-02, 7.93323368e-02 ]
      - [ 6.06181212e-02, 1.20153606e-01, 1.25737593e-01, 5.47206663e-02,
          0., 0., 0., 0., 0., 0., 0., 0., 0., 1.41752988e-01,
          1.00760870e-01, 9.85556915e-02, 4.45578881e-02, 3.89174484e-02,
          2.18037963e-02, 0., 0., 0., 0., 0., 0., 0., 0., 0., 0.,
          2.61926986e-02, 3.12086325e-02, 4.31371704e-02, 0.,
          1.14068151e-01, 2.21096575e-01, 2.74534792e-01, 2.72411644e-01,
          2.48702586e-01, 1.10981455e-02, 0., 0., 9.59887356e-02,
          1.68442681e-01, 1.76390722e-01, 2.15512142e-01, 2.19800472e-01,
          1.22354910e-01, 0., 1.75915778e-01, 1.95391089e-01,
          2.51892298e-01, 2.63330996e-01, 1.88990369e-01, 1.38455644e-01,
          0., 0., 5.41875996e-02, 1.21678405e-01, 1.35927737e-01,
          8.96334499e-02, 2.42141724e-01, 2.57048786e-01, 1.94901943e-01,
          0. ]
      - [ 1.96820453e-01, 1.66253537e-01, 4.50753905e-02, 3.87349650e-02,
          6.89194724e-02, 8.67538676e-02, 8.22903123e-03, 1.29394650e-01,
          1.96338639e-01, 6.71897549e-03, 1.03474585e-02, 0.,
          5.43452650e-02, 1.35390237e-01, 1.42103210e-01, 2.36618057e-01,
          2.12277576e-01, 2.02583045e-01, 1.41471848e-01, 5.02360612e-03,
          1.17031569e-02, 5.97410835e-03, 1.29112462e-02, 9.00167823e-02,
          2.33856097e-01, 1.44140825e-01, 1.38914391e-01, 0.,
          1.09771593e-02, 1.29797131e-01, 1.48894176e-01, 1.45410717e-01,
          1.46756083e-01, 0., 0., 0., 3.40569951e-02, 1.59731314e-01,
          1.97585061e-01, 1.93712264e-01, 1.75884947e-01, 1.40650854e-01,
          9.51057598e-02, 1.13959260e-01, 5.64996246e-03, 7.63170496e-02,
          1.34474769e-01, 7.93151110e-02, 1.88272163e-01, 8.59542042e-02,
          0., 0., 0., 3.04620937e-02, 2.00118020e-01, 1.78124711e-01,
          1.96241572e-01, 1.64778113e-01, 1.48255795e-01, 0.,
          1.27264529e-01, 9.88991931e-02, 1.10856093e-01, 1.61261424e-01 ]
      - [ 1.41402856e-01, 1.78736135e-01, 1.79665178e-01, 1.30718872e-01,
          7.51744285e-02, 1.96325511e-01, 3.41518549e-03, 0.,
          9.89564583e-02, 6.68952689e-02, 8.61399248e-02, 8.05162862e-02,
          1.21710904e-01, 1.91400886e-01, 1.58622414e-01, 1.79644868e-01,
          2.46086434e-01, 1.16994709e-01, 9.19222534e-02, 9.56167802e-02,
          1.43874949e-02, 9.76406038e-02, 4.82980162e-03, 6.02154657e-02,
          2.11828858e-01, 1.28208190e-01, 1.11642815e-01, 1.02934323e-01,
          4.58426774e-02, 8.77661034e-02, 1.83630362e-01, 1.86925948e-01,
          7.46672526e-02, 1.03148259e-01, 0., 3.60278450e-02,
          6.91636726e-02, 1.95539087e-01, 2.33460486e-01, 7.08368868e-02,
          1.68271273e-01, 1.42893299e-01, 1.44803479e-01, 0.,
          1.13854572e-01, 1.15658082e-01, 5.57389185e-02, 0.,
          1.19890481e-01, 4.82980162e-03, 0., 7.22223800e-03,
          2.54337788e-02, 5.34060933e-02, 2.14121729e-01, 1.45013392e-01,
          2.05996096e-01, 9.78327766e-02, 1.74799308e-01, 1.05631456e-01,
          4.30145562e-02, 8.61296803e-02, 8.63630623e-02, 1.86809793e-01 ]
      - [ 1.59953177e-01, 1.18385881e-01, 2.17006043e-01, 1.23893850e-01,
          9.52555463e-02, 9.97789428e-02, 5.39887995e-02, 0.,
          6.82111010e-02, 0., 8.09940025e-02, 1.42425701e-01,
          1.54065490e-01, 1.84087411e-01, 1.34508535e-01, 5.99686243e-02,
          1.87385440e-01, 2.26022631e-01, 1.06638551e-01, 1.06248178e-01,
          1.73539147e-02, 6.02523191e-03, 1.14325583e-02, 9.05651674e-02,
          1.78428188e-01, 1.21905878e-01, 1.14602625e-01, 6.68965057e-02,
          7.47795105e-02, 7.44506046e-02, 1.48699313e-01, 1.33477882e-01,
          9.19708312e-02, 5.56877702e-02, 8.48467350e-02, 1.10817283e-01,
          1.08660586e-01, 2.29962438e-01, 1.21385112e-01, 1.47745982e-01,
          1.74562573e-01, 1.53683409e-01, 1.34232178e-01, 1.19746268e-01,
          1.12189904e-01, 1.48347750e-01, 3.38823674e-03, 0.,
          2.00201914e-01, 1.18186913e-01, 4.32560779e-02, 0., 0.,
          1.51528195e-01, 1.40500948e-01, 1.73683122e-01, 2.61781275e-01,
          1.46785021e-01, 1.35416985e-01, 5.89523278e-02, 4.69341315e-02,
          0., 8.30353573e-02, 1.70835510e-01 ]
      - [ 1.57532886e-01, 1.84561357e-01, 1.81455538e-01, 1.16045475e-01,
          1.23670148e-02, 1.51980251e-01, 6.48728479e-03, 0.,
          8.21898952e-02, 5.61815361e-03, 1.31599173e-01, 1.16951481e-01,
          1.24491096e-01, 1.14821188e-01, 1.51567310e-01, 4.46687341e-02,
          1.04012161e-01, 1.52249947e-01, 1.33018389e-01, 1.03738010e-01,
          7.92942792e-02, 8.75506084e-03, 5.68059087e-02, 1.17780201e-01,
          1.20479345e-01, 1.59081444e-01, 6.88202754e-02, 5.50900251e-02,
          1.10568389e-01, 1.04617104e-01, 1.44632116e-01, 1.86561540e-01,
          8.72821584e-02, 4.36866209e-02, 1.44364983e-01, 1.10949941e-01,
          1.78900063e-01, 1.50384188e-01, 1.51654005e-01, 1.70210972e-01,
          1.25981480e-01, 1.17871195e-01, 1.78000018e-01, 1.20443814e-01,
          9.22544971e-02, 1.50493339e-01, 6.57752454e-02, 0.,
          2.01131493e-01, 1.50971830e-01, 0., 0., 7.71472557e-03,
          4.35933881e-02, 1.61433697e-01, 1.41865581e-01, 3.00240755e-01,
          1.80877715e-01, 1.02769949e-01, 0., 3.85736278e-03,
          8.03332254e-02, 9.53772292e-02, 2.15652898e-01 ]
      - [ 1.17821068e-01, 1.37820035e-01, 2.06849262e-01, 1.76143810e-01,
          1.35322407e-01, 1.86920196e-01, 1.02127604e-02, 0.,
          7.96802416e-02, 7.71263987e-02, 1.38142958e-01, 1.64026767e-01,
          1.17717244e-01, 1.61774039e-01, 1.52861163e-01, 1.00329027e-01,
          1.67411879e-01, 2.36738890e-01, 1.05434179e-01, 6.61592856e-02,
          7.00755864e-02, 4.83149104e-02, 1.29004223e-02, 1.20483570e-01,
          1.19215280e-01, 2.09165007e-01, 1.38633415e-01, 0.,
          9.03012604e-02, 9.36169475e-02, 7.71609768e-02, 1.94321141e-01,
          7.64915571e-02, 7.67821074e-02, 1.05577037e-01, 8.96924511e-02,
          1.67152464e-01, 1.45470008e-01, 1.33581847e-01, 1.64393172e-01,
          8.59899074e-02, 1.38600886e-01, 1.44143343e-01, 7.00347200e-02,
          1.32315978e-01, 1.19237781e-01, 7.92573690e-02, 0.,
          2.38083124e-01, 9.11194235e-02, 0., 2.38099005e-02,
          7.01197004e-03, 6.54921159e-02, 1.62238672e-01, 1.39903978e-01,
          2.44169578e-01, 1.61215588e-01, 1.09272569e-01, 0., 0., 0.,
          1.15924753e-01, 8.32137987e-02 ]
      - [ 5.40337823e-02, 1.05724819e-01, 1.09960243e-01, 1.35350704e-01,
          0., 0., 0., 0., 0., 0., 0., 0., 1.35947585e-01, 1.02127209e-01,
          1.11867890e-01, 5.45895211e-02, 8.39201659e-02, 7.67086223e-02,
          5.07296063e-02, 0., 0., 0., 0., 0., 0., 0., 0., 0., 0.,
          5.36737032e-02, 8.29653963e-02, 1.31123485e-02, 0.,
          1.32324517e-01, 1.88927412e-01, 2.56626993e-01, 2.60749936e-01,
          2.05156296e-01, 3.92150693e-03, 0., 0., 0., 1.64555103e-01,
          2.81798035e-01, 2.21712187e-01, 1.94345266e-01, 1.43958971e-01,
          0., 1.92103639e-01, 1.64807528e-01, 2.30635822e-01,
          2.50845283e-01, 1.98067501e-01, 1.37598127e-01, 1.15747631e-01,
          0., 1.68942586e-01, 8.71520489e-02, 1.09765515e-01,
          8.15646946e-02, 2.95800924e-01, 1.74350470e-01, 1.10683464e-01,
          7.50033259e-02 ]
      - [ 1.04435533e-01, 1.55512005e-01, 2.12404564e-01, 1.18856400e-01,
          1.29992962e-01, 1.33333996e-01, 1.22122586e-01, 5.05193770e-02,
          8.52153823e-02, 4.42351541e-03, 1.41712546e-01, 1.12224065e-01,
          1.08667716e-01, 1.76304206e-01, 1.54047668e-01, 1.15346320e-01,
          1.79833248e-01, 2.24369586e-01, 1.59603670e-01, 0.,
          4.55736108e-02, 5.47317825e-02, 5.56227611e-03, 4.95693721e-02,
          1.93705916e-01, 1.93412587e-01, 1.28685996e-01, 0.,
          4.54250239e-02, 1.16970442e-01, 1.54622987e-01, 1.38681188e-01,
          6.92906752e-02, 6.95331320e-02, 1.34836987e-01, 4.42627780e-02,
          1.78462997e-01, 1.73366204e-01, 1.58682317e-01, 1.23493254e-01,
          7.30808675e-02, 1.35814592e-01, 1.70351729e-01, 1.11740269e-01,
          1.01504162e-01, 1.27330586e-01, 0., 7.21357316e-02,
          1.80024430e-01, 1.29180059e-01, 7.01656938e-02, 0.,
          1.23369098e-02, 1.40082017e-01, 1.42194539e-01, 1.39358729e-01,
          2.27927357e-01, 1.12247013e-01, 1.39584661e-01, 9.58354697e-02,
          8.65719169e-02, 7.25858659e-03, 8.33026692e-02, 1.31464675e-01 ]
      - [ 1.55238062e-01, 2.60063678e-01, 1.65015623e-01, 6.15783334e-02,
          2.22241320e-02, 7.42444173e-02, 1.04689732e-01, 8.48521478e-03,
          9.32500884e-02, 1.17252292e-02, 1.27795592e-01, 5.67440502e-03,
          1.22006208e-01, 1.46383792e-01, 1.62127346e-01, 1.53632060e-01,
          2.20912278e-01, 1.76208586e-01, 3.33765820e-02, 7.30807334e-02,
          5.57676964e-02, 1.16879530e-02, 5.80951646e-02, 0.,
          1.59248084e-01, 1.16899602e-01, 6.74804300e-03, 2.35862602e-02,
          6.34637251e-02, 6.95138872e-02, 2.11196005e-01, 1.56480521e-01,
          1.08586192e-01, 1.05550908e-01, 8.66090134e-02, 7.09096715e-02,
          9.82835796e-03, 1.22068204e-01, 2.51245350e-01, 2.12702170e-01,
          1.84821755e-01, 1.45860374e-01, 1.16575852e-01, 9.48615521e-02,
          1.43162236e-01, 1.26513705e-01, 0., 0., 1.76859468e-01, 0., 0.,
          2.80299652e-02, 6.38190471e-03, 0., 2.19411477e-01,
          1.91736847e-01, 2.34965727e-01, 1.74198285e-01, 1.20849289e-01,
          5.67440502e-03, 8.70000571e-02, 2.94140354e-02, 8.10782835e-02,
          1.80958435e-01 ]
      - [ 5.57288490e-02, 9.71062034e-02, 1.94699794e-01, 2.37172097e-01,
          0., 0., 0., 0., 0., 0., 0., 0., 2.20583409e-01, 1.49501324e-01,
          1.59120381e-01, 1.45540580e-01, 1.13525681e-01, 7.24877492e-02,
          1.25663936e-01, 1.33318216e-01, 1.09921642e-01, 0., 0., 0., 0.,
          0., 0., 0., 1.93920389e-01, 1.37815192e-01, 7.24021941e-02,
          4.87060286e-03, 0., 6.37110993e-02, 1.73668504e-01,
          1.73155278e-01, 2.56215930e-01, 1.50604814e-01, 9.37652513e-02,
          0., 7.15934932e-02, 1.59458756e-01, 1.25644207e-01,
          1.72326297e-01, 1.93774611e-01, 1.26421407e-01, 1.25277966e-01,
          1.07123010e-01, 1.57013938e-01, 1.85347646e-01, 1.21843912e-01,
          1.34824798e-01, 2.40862712e-01, 1.26565829e-01, 1.34257093e-01,
          1.41551122e-01, 1.34235561e-01, 9.30343717e-02, 1.01021096e-01,
          7.08579570e-02, 1.76698208e-01, 1.45020291e-01, 1.15877837e-01,
          1.42742038e-01 ]
      - [ 1.66754633e-01, 1.10800453e-01, 1.75145000e-01, 2.28226513e-01,
          6.90779164e-02, 1.04283474e-01, 7.72459209e-02, 0.,
          1.00758679e-01, 7.08146999e-03, 1.16482005e-01, 1.69350684e-01,
          1.30044863e-01, 2.08001882e-01, 1.11396275e-01, 0.,
          2.22247615e-01, 1.95009261e-01, 1.12057254e-01, 1.07229732e-01,
          6.94052652e-02, 0., 0., 1.15716532e-01, 1.84430465e-01,
          1.66202471e-01, 8.29598680e-02, 1.10308841e-01, 6.80148602e-02,
          8.81655067e-02, 1.12511240e-01, 9.54775438e-02, 9.75019485e-02,
          3.71996313e-02, 9.99185666e-02, 1.27185211e-01, 1.39049083e-01,
          1.89943820e-01, 1.28952876e-01, 1.28671318e-01, 1.62342981e-01,
          1.71695098e-01, 1.22754604e-01, 5.91818569e-03, 1.61391079e-01,
          1.38346925e-01, 0., 7.53302453e-03, 1.15103625e-01,
          1.10651501e-01, 3.00011449e-02, 4.90639508e-02, 8.28791410e-03,
          1.39778271e-01, 1.79946050e-01, 8.38865042e-02, 2.20858246e-01,
          1.42461434e-01, 8.29040855e-02, 1.05843432e-01, 1.17748857e-01,
          0., 7.70808607e-02, 2.22138792e-01 ]
      - [ 1.85318664e-01, 1.46507844e-01, 2.13921964e-01, 1.40865579e-01,
          1.72523633e-01, 1.22768901e-01, 4.28735428e-02, 0.,
          6.28112629e-02, 2.73979027e-02, 1.23991854e-01, 1.58715174e-01,
          1.16385475e-01, 1.55608445e-01, 9.26670209e-02, 5.92620336e-02,
          1.96992382e-01, 1.73570156e-01, 5.03345728e-02, 1.56191334e-01,
          7.72915687e-03, 0., 3.47473398e-02, 0., 2.32276782e-01,
          1.43576324e-01, 3.47900726e-02, 1.43195698e-02, 2.50042826e-02,
          5.25910482e-02, 2.39804655e-01, 1.59657761e-01, 8.59966278e-02,
          3.85901108e-02, 1.56515688e-01, 0., 1.12275749e-01,
          2.25391179e-01, 1.73386663e-01, 8.05352032e-02, 1.47360072e-01,
          1.35458648e-01, 1.33209184e-01, 1.23190179e-01, 1.01958171e-01,
          1.35438845e-01, 7.26657314e-03, 0., 2.04126060e-01,
          5.46303205e-02, 2.36329399e-02, 0., 0., 0., 1.85471401e-01,
          1.82195410e-01, 1.99380800e-01, 2.16562450e-01, 7.18638375e-02,
          8.14188421e-02, 6.84102476e-02, 4.07826155e-02, 9.57095399e-02,
          1.24198824e-01 ]
      - [ 7.60317892e-02, 8.83716345e-02, 9.92900431e-02, 1.93859279e-01,
          1.19087026e-02, 9.25630517e-03, 0., 1.03246793e-02,
          2.84349918e-01, 0., 0., 0., 1.92378819e-01, 1.30259544e-01,
          7.42167979e-02, 1.21727534e-01, 1.22097004e-02, 1.04762979e-01,
          1.15633443e-01, 8.80721807e-02, 5.40502928e-02, 0.,
          1.49170132e-02, 1.16249070e-01, 2.13945240e-01, 1.22352652e-02,
          0., 0., 1.30227000e-01, 1.01338826e-01, 9.05273184e-02,
          1.01729833e-01, 1.64147213e-01, 8.41972530e-02, 1.11344300e-01,
          1.54946253e-01, 2.07779214e-01, 1.24565780e-01, 1.01387240e-01,
          1.27385572e-01, 1.36797145e-01, 1.10564828e-01, 1.29452795e-01,
          1.72370553e-01, 2.32222155e-01, 1.50477290e-01, 1.27458215e-01,
          0., 1.32656753e-01, 1.00325510e-01, 1.79097652e-01,
          2.22048119e-01, 1.86211914e-01, 1.32416725e-01, 9.52154696e-02,
          1.18849315e-01, 1.09469414e-01, 1.15548022e-01, 1.10188752e-01,
          5.05749471e-02, 2.30279043e-01, 1.36632264e-01, 1.08494043e-01,
          9.52234641e-02 ]
      - [ 1.97927281e-01, 1.35746971e-01, 1.48427323e-01, 1.52682006e-01,
          1.40429437e-01, 6.45055547e-02, 8.89821630e-03, 9.77189187e-03,
          5.32755665e-02, 5.13738720e-03, 6.75103217e-02, 1.26177758e-01,
          1.95759699e-01, 1.53688699e-01, 2.48087421e-01, 6.20798469e-02,
          2.88066059e-01, 1.76055461e-01, 9.93725434e-02, 8.29780251e-02,
          8.50097910e-02, 5.66300564e-02, 5.42741604e-02, 9.45734382e-02,
          1.09698810e-01, 1.67266116e-01, 0., 5.43212565e-03,
          1.21531472e-01, 1.01467691e-01, 1.66097865e-01, 1.49402574e-01,
          5.43016903e-02, 8.25368706e-03, 5.35526015e-02, 0.,
          7.48247793e-03, 1.62649527e-01, 1.65020123e-01, 2.16686979e-01,
          1.68455318e-01, 1.25671163e-01, 1.34743094e-01, 1.29580095e-01,
          8.23373124e-02, 1.23362243e-01, 3.63268144e-03, 0.,
          1.32207885e-01, 0., 0., 0., 5.43212565e-03, 0., 1.90644473e-01,
          1.75621748e-01, 2.48832136e-01, 2.17983156e-01, 1.19182140e-01,
          0., 0., 0., 5.57164066e-02, 1.87314034e-01 ]
      - [ 1.63342297e-01, 1.77453324e-01, 1.16262861e-01, 6.39669299e-02,
          4.46458235e-02, 7.69094899e-02, 7.62999058e-02, 8.52680281e-02,
          7.23024309e-02, 1.20621525e-01, 6.22407347e-02, 3.19819413e-02,
          1.64560992e-02, 1.29896343e-01, 2.33500913e-01, 1.97260380e-01,
          1.98242098e-01, 1.79503173e-01, 8.62640589e-02, 5.14707621e-03,
          5.48485368e-02, 6.02276400e-02, 2.88838893e-02, 8.28588828e-02,
          1.33526027e-01, 1.87669829e-01, 0., 7.69667421e-03,
          8.09016377e-02, 2.41369326e-02, 1.62757397e-01, 1.97478563e-01,
          8.47821161e-02, 0., 9.82008874e-02, 0., 7.27224946e-02,
          1.27279460e-01, 2.44443491e-01, 1.52727246e-01, 2.54295886e-01,
          8.18435773e-02, 1.05350837e-01, 1.29756436e-01, 5.66651523e-02,
          8.03572610e-02, 1.81481361e-01, 0., 2.09529936e-01,
          7.40760714e-02, 2.57907901e-02, 0., 0., 4.92799431e-02,
          2.09620357e-01, 1.52498111e-01, 2.42870584e-01, 1.85348421e-01,
          1.46689698e-01, 7.57885426e-02, 0., 1.01832852e-01,
          8.96125808e-02, 1.64117053e-01 ]
      - [ 1.31289035e-01, 1.19931690e-01, 1.93208545e-01, 1.26723677e-01,
          1.09869838e-01, 1.44594267e-01, 7.75309503e-02, 3.48715633e-02,
          1.01886965e-01, 0., 1.58447161e-01, 1.31092370e-01,
          9.38936472e-02, 2.33779088e-01, 8.33599344e-02, 1.36950210e-01,
          1.81236789e-01, 2.08297238e-01, 1.31212518e-01, 1.14890262e-01,
          4.35368717e-02, 7.64836371e-02, 6.52137846e-02, 1.28164142e-01,
          1.81998566e-01, 1.61833405e-01, 1.23566285e-01, 8.88896883e-02,
          1.17457159e-01, 7.54558519e-02, 1.48755640e-01, 1.39509186e-01,
          7.93647319e-02, 7.18447194e-02, 7.85042197e-02, 8.31519142e-02,
          1.56741619e-01, 1.25938609e-01, 1.47681877e-01, 1.74102947e-01,
          1.11007966e-01, 1.34520054e-01, 1.10004634e-01, 1.22188933e-01,
          7.58312494e-02, 1.76980719e-01, 0., 0., 1.80685610e-01, 0.,
          7.76999667e-02, 0., 0., 1.07935846e-01, 1.95360303e-01,
          1.44893959e-01, 2.02936351e-01, 1.08666800e-01, 1.12821415e-01,
          1.03563070e-01, 1.14647277e-01, 0., 0., 2.08822280e-01 ]
      - [ 1.19419470e-01, 1.52123198e-01, 1.22059725e-01, 1.81416929e-01,
          1.98955059e-01, 1.35363474e-01, 1.37354791e-01, 1.04594201e-01,
          6.76135048e-02, 8.70056525e-02, 9.80674475e-02, 9.96360630e-02,
          2.16028705e-01, 1.11222431e-01, 7.23603293e-02, 5.69691695e-02,
          1.82874605e-01, 1.68880016e-01, 1.51774868e-01, 2.37929329e-01,
          3.16023938e-02, 0., 0., 3.43169868e-02, 8.74477401e-02,
          8.91736150e-02, 7.43064433e-02, 7.82042295e-02, 1.79871351e-01,
          7.98946992e-02, 1.23702943e-01, 1.08713955e-01, 1.28286049e-01,
          1.25205994e-01, 1.54106006e-01, 1.58509061e-01, 2.36793429e-01,
          7.85093084e-02, 1.20803915e-01, 1.74248777e-02, 5.82843795e-02,
          4.45424989e-02, 0., 1.62607789e-01, 1.90371692e-01,
          9.81310159e-02, 8.14336911e-02, 4.85212393e-02, 5.19405194e-02,
          0., 0., 1.71168536e-01, 2.39150360e-01, 1.63130850e-01,
          1.39668480e-01, 1.57825753e-01, 9.26624164e-02, 5.24538942e-03,
          7.18435794e-02, 1.31257638e-01, 1.76202312e-01, 1.10974140e-01,
          9.05775726e-02, 5.81397340e-02 ]
      - [ 1.55730397e-01, 1.21773928e-01, 1.17652655e-01, 1.98076695e-01,
          1.37379467e-01, 1.20362982e-01, 9.56950933e-02, 9.06830952e-02,
          1.02149643e-01, 1.31793723e-01, 9.26036388e-02, 1.03330374e-01,
          1.99897215e-01, 6.27278388e-02, 1.01276375e-01, 1.24237493e-01,
          1.88449606e-01, 1.48959681e-01, 1.12396732e-01, 2.68018633e-01,
          5.66453151e-02, 0., 0., 0., 0., 4.82578985e-02, 6.67615011e-02,
          1.04778185e-01, 2.50204682e-01, 1.13867328e-01, 1.31486461e-01,
          8.93841535e-02, 1.32393360e-01, 1.22308403e-01, 1.23370752e-01,
          1.54549286e-01, 1.97235405e-01, 7.74907917e-02, 7.43008703e-02,
          6.32993355e-02, 6.35629445e-02, 7.28039891e-02, 6.48389384e-02,
          1.55768782e-01, 1.86238721e-01, 1.01379775e-01, 4.25254293e-02,
          1.73697412e-01, 6.27290905e-02, 5.29253809e-03, 2.33417880e-02,
          8.92414674e-02, 2.82832265e-01, 1.71343580e-01, 1.75448194e-01,
          6.84048161e-02, 7.30384514e-02, 3.55670527e-02, 5.51271737e-02,
          1.59162432e-01, 1.67969152e-01, 7.81045854e-02, 9.55049396e-02,
          0. ]
      - [ 1.59036517e-01, 1.68784156e-01, 1.86270192e-01, 4.33410145e-02,
          1.25975758e-02, 1.47039235e-01, 1.08411796e-01, 6.06483454e-03,
          1.47340357e-01, 1.08060315e-01, 7.21359253e-02, 4.77612438e-03,
          1.29260626e-02, 2.00528920e-01, 1.87503383e-01, 7.97638595e-02,
          2.05671072e-01, 1.77365556e-01, 1.03987135e-01, 8.16203505e-02,
          7.47863948e-02, 7.97094852e-02, 5.53214736e-03, 1.08241320e-01,
          2.17928395e-01, 1.73726767e-01, 6.20164461e-02, 1.00251716e-02,
          8.49328376e-03, 1.58650011e-01, 1.41457483e-01, 1.68594405e-01,
          1.16092861e-01, 8.43471065e-02, 9.37627479e-02, 0.,
          7.87792429e-02, 1.81274086e-01, 2.07409039e-01, 1.05976284e-01,
          1.96691170e-01, 1.03909716e-01, 8.45036581e-02, 7.16245249e-02,
          1.37310237e-01, 8.06818828e-02, 1.19943954e-01, 6.60159439e-02,
          1.88239634e-01, 0., 0., 0., 0., 4.61773090e-02, 2.20990151e-01,
          2.14184374e-01, 1.45932317e-01, 1.29664972e-01, 1.08653605e-01,
          1.26023620e-01, 4.10063900e-02, 2.68096458e-02, 8.05953369e-02,
          2.23170787e-01 ]
      - [ 1.85822397e-01, 1.21813774e-01, 1.35938436e-01, 1.32125109e-01,
          1.30554125e-01, 1.60954341e-01, 1.34914210e-02, 6.19670562e-02,
          6.52419254e-02, 3.68558429e-02, 1.67008206e-01, 1.45035028e-01,
          1.76350653e-01, 2.07154229e-01, 2.08667979e-01, 1.62412629e-01,
          2.85345107e-01, 1.60406977e-01, 1.51187077e-01, 9.03864056e-02,
          1.25268502e-02, 5.75213283e-02, 9.93971806e-03, 1.68925539e-01,
          2.16293126e-01, 3.84054109e-02, 9.84050557e-02, 5.42321876e-02,
          6.77046180e-02, 1.28200024e-01, 8.31193700e-02, 2.49586508e-01,
          1.21945031e-02, 6.62276568e-03, 0., 7.07172276e-03,
          5.20844869e-02, 8.34889933e-02, 1.83804408e-01, 1.50423303e-01,
          1.60933644e-01, 1.44383088e-01, 1.59632251e-01, 1.17791809e-01,
          7.30361044e-02, 0., 9.12252441e-03, 0., 8.86363611e-02,
          3.01855989e-02, 6.25622571e-02, 4.82380465e-02, 0.,
          1.23104714e-01, 1.65209278e-01, 1.98918939e-01, 2.09178120e-01,
          9.20190066e-02, 8.78384560e-02, 1.40364796e-01, 0.,
          7.08524287e-02, 0., 9.12106633e-02 ]
      - [ 1.60873845e-01, 2.07820833e-01, 9.29821432e-02, 1.02236107e-01,
          1.43923596e-01, 1.63164765e-01, 3.45269660e-03, 8.85990486e-02,
          7.10640922e-02, 1.20410919e-02, 1.03518710e-01, 1.11511961e-01,
          7.71808028e-02, 1.28290355e-01, 1.81152195e-01, 1.95970714e-01,
          2.65945524e-01, 1.80784672e-01, 5.71952388e-02, 5.16298600e-03,
          1.59640852e-02, 0., 9.21495259e-03, 1.02038726e-01,
          1.80522859e-01, 1.54167682e-01, 1.41906962e-01, 4.20746431e-02,
          8.07962418e-02, 5.80983683e-02, 1.84149042e-01, 1.69563815e-01,
          8.93933252e-02, 0., 1.10541657e-01, 7.43780956e-02,
          1.20948076e-01, 1.11778788e-01, 2.00664759e-01, 2.06321821e-01,
          1.34242907e-01, 1.63845554e-01, 1.25295565e-01, 6.55608019e-03,
          1.20560348e-01, 1.32192284e-01, 0., 0., 1.33462682e-01, 0., 0.,
          0., 0., 8.20170641e-02, 1.95412084e-01, 1.71245411e-01,
          2.06387311e-01, 1.59363329e-01, 1.72900617e-01, 0.,
          5.66525832e-02, 1.02565140e-01, 0., 1.85409322e-01 ]
      - [ 9.86099169e-02, 7.94287920e-02, 2.13395163e-01, 2.13601083e-01,
          1.69496745e-01, 2.39567626e-02, 7.57079870e-02, 0., 0.,
          6.69150501e-02, 1.25576645e-01, 0., 1.37591138e-01,
          2.40411863e-01, 9.32532474e-02, 7.25689307e-02, 1.52791560e-01,
          1.43353403e-01, 1.94610864e-01, 1.94741562e-01, 2.13054605e-02,
          0., 4.55832891e-02, 0., 2.76766066e-02, 0., 0., 0.,
          1.77537128e-01, 2.07526729e-01, 1.66966036e-01, 6.08765148e-02,
          8.20328891e-02, 1.19261645e-01, 1.30876750e-01, 1.81452960e-01,
          2.53344417e-01, 1.42461881e-01, 1.02796115e-01, 0., 0.,
          7.80392513e-02, 1.46000400e-01, 1.72011063e-01, 1.63230792e-01,
          9.96312201e-02, 1.45161599e-01, 0., 8.40132758e-02, 0.,
          5.78545481e-02, 7.11303279e-02, 2.74024308e-01, 1.93173438e-01,
          1.43922910e-01, 1.30873576e-01, 1.02038480e-01, 6.13285638e-02,
          7.46367276e-02, 1.37720227e-01, 1.29581839e-01, 1.06337674e-01,
          6.67729154e-02, 0. ]
      - [ 1.67475998e-01, 1.41602635e-01, 1.34754658e-01, 2.40321651e-01,
          0., 0., 0., 0., 0., 0., 0., 0., 1.92264318e-01, 1.58252522e-01,
          1.39140844e-01, 1.12264603e-01, 8.41521025e-02, 8.46054628e-02,
          1.20869324e-01, 1.71612382e-01, 0., 0., 0., 0., 0., 0., 0., 0.,
          1.48921937e-01, 1.34831667e-01, 1.07484087e-01, 1.05035357e-01,
          1.15557894e-01, 5.78490011e-02, 9.68846753e-02, 1.72377631e-01,
          2.64851272e-01, 1.32808313e-01, 1.90069243e-01, 6.75729886e-02,
          1.49467975e-01, 1.13310546e-01, 3.58566642e-02, 8.84555504e-02,
          2.80203223e-01, 8.13022032e-02, 5.24231456e-02, 8.37999955e-02,
          1.90866977e-01, 1.19507067e-01, 1.43189207e-01, 1.68564320e-01,
          2.43005350e-01, 1.79934338e-01, 8.69056657e-02, 1.18657820e-01,
          1.31419584e-01, 9.47524831e-02, 7.66785070e-02, 1.56691760e-01,
          2.15310186e-01, 1.24078006e-01, 4.29564603e-02, 6.58782125e-02 ]
      - [ 1.67888552e-01, 1.57757476e-01, 2.10264727e-01, 1.15711689e-01,
          1.05198793e-01, 1.50143698e-01, 1.04371630e-01, 5.70506565e-02,
          1.06264435e-01, 9.95675325e-02, 1.14210583e-01, 1.00619733e-01,
          1.28209278e-01, 2.45986432e-01, 7.75798857e-02, 0.,
          2.33878568e-01, 2.09828079e-01, 1.61269277e-01, 6.62739202e-03,
          6.60952404e-02, 2.07992848e-02, 6.66692778e-02, 9.20566991e-02,
          2.24871978e-01, 1.40683129e-01, 1.18711196e-01, 1.21340521e-01,
          7.83027932e-02, 7.69399703e-02, 1.53594971e-01, 1.48324981e-01,
          1.02585144e-01, 0., 8.31297785e-02, 6.57224730e-02,
          1.38131604e-01, 1.60053417e-01, 9.82311741e-02, 1.33505285e-01,
          1.54310703e-01, 6.72695264e-02, 1.84499279e-01, 4.99809533e-02,
          1.16642721e-01, 1.35856241e-01, 0., 4.68627363e-03,
          1.72828048e-01, 5.79990596e-02, 0., 4.11252789e-02,
          6.62739202e-03, 1.67870834e-01, 1.32979900e-01, 1.36426777e-01,
          2.44838879e-01, 1.05185933e-01, 0., 1.33104891e-01,
          8.87409151e-02, 4.57538888e-02, 7.24718571e-02, 1.43645614e-01 ]
      - [ 1.92414030e-01, 2.36072466e-01, 1.05936684e-01, 0.,
          6.00359030e-02, 1.08609065e-01, 8.68771374e-02, 8.00705627e-02,
          9.08318684e-02, 9.51909497e-02, 9.64432769e-03, 9.53655224e-03,
          6.12643734e-02, 1.55409619e-01, 2.09252477e-01, 8.91225114e-02,
          2.49144554e-01, 1.38348699e-01, 9.07920897e-02, 1.17800854e-01,
          1.05573367e-02, 0., 5.81177091e-03, 7.78023154e-02,
          1.98974550e-01, 1.67266175e-01, 3.74449976e-02, 7.49751553e-02,
          7.58956447e-02, 1.06496133e-01, 1.89083144e-01, 1.20994329e-01,
          9.51834619e-02, 8.14598128e-02, 5.50650172e-02, 1.07794873e-01,
          5.27148210e-02, 1.69350356e-01, 1.89504907e-01, 1.94301069e-01,
          1.78653300e-01, 1.60486028e-01, 6.91406727e-02, 1.45807117e-01,
          3.69122215e-02, 9.40054879e-02, 8.08805227e-02, 0.,
          2.14542478e-01, 0., 0., 0., 9.90549009e-03, 5.47994673e-02,
          2.00717166e-01, 1.68462023e-01, 2.56655425e-01, 1.27031937e-01,
          1.56547070e-01, 9.00521129e-02, 0., 4.97283638e-02,
          8.97991583e-02, 1.97566241e-01 ]
      - [ 6.86491951e-02, 8.19604099e-02, 1.19339503e-01, 1.68349594e-01,
          0., 0., 0., 0., 0., 0., 0., 0., 1.65400296e-01, 1.08463772e-01,
          1.09695613e-01, 3.48766744e-02, 7.66911134e-02, 8.41177180e-02,
          8.52093548e-02, 0., 0., 0., 0., 0., 0., 0., 0., 0., 0.,
          5.76798879e-02, 8.56687203e-02, 5.18337451e-02, 9.79084074e-02,
          1.19251400e-01, 1.58859521e-01, 2.45087296e-01, 2.59333521e-01,
          1.69042811e-01, 1.42201200e-01, 8.60999525e-02, 0.,
          1.33234516e-01, 1.48610100e-01, 2.37147495e-01, 1.95736781e-01,
          1.79196402e-01, 1.64079830e-01, 0., 1.67613253e-01,
          9.06533673e-02, 2.23719195e-01, 2.77289957e-01, 1.84729457e-01,
          1.70155182e-01, 1.04427658e-01, 0., 1.92308217e-01,
          8.83683339e-02, 1.10334814e-01, 1.14311829e-01, 2.72150308e-01,
          1.83376461e-01, 1.15924068e-01, 7.51594380e-02 ]
      - [ 1.68987826e-01, 7.30533078e-02, 2.18607858e-01, 1.85381517e-01,
          8.42346624e-02, 1.49754107e-01, 7.53818778e-03, 0.,
          1.03372805e-01, 8.03534091e-02, 4.86195087e-02, 1.67973876e-01,
          2.13977158e-01, 1.41183004e-01, 1.04586393e-01, 1.05132557e-01,
          2.01544508e-01, 2.26601243e-01, 1.20794468e-01, 9.62011591e-02,
          5.47328927e-02, 8.36987346e-02, 0., 1.29482463e-01,
          1.78910255e-01, 1.79386571e-01, 1.52990565e-01, 7.16140941e-02,
          5.62226884e-02, 9.13049430e-02, 1.35540307e-01, 1.29806787e-01,
          1.09330468e-01, 6.20089956e-02, 9.03548747e-02, 0.,
          1.32177934e-01, 8.91134590e-02, 1.72426060e-01, 1.83839813e-01,
          1.26611307e-01, 1.60148412e-01, 1.23439439e-01, 8.21984094e-03,
          1.09310597e-01, 1.26069933e-01, 1.01477459e-01, 5.07364869e-02,
          1.49436623e-01, 8.50118399e-02, 6.12668097e-02, 0.,
          6.86949724e-03, 2.94546671e-02, 1.41337305e-01, 1.88340530e-01,
          2.41582394e-01, 1.20978929e-01, 8.45149830e-02, 0., 0., 0.,
          9.98453423e-02, 2.15715036e-01 ]
      - [ 9.36272442e-02, 1.27007142e-01, 1.12085171e-01, 0., 0., 0., 0.,
          0., 0., 0., 0., 0., 0., 1.39570698e-01, 9.29906070e-02,
          8.11759681e-02, 4.27269712e-02, 3.66296619e-02, 1.81819797e-02,
          0., 0., 0., 0., 0., 0., 0., 0., 0., 0., 1.10238492e-02,
          4.77090403e-02, 1.51847927e-02, 1.90406051e-02, 6.64031208e-02,
          2.68583775e-01, 1.77984238e-01, 3.13317001e-01, 2.18646497e-01,
          0., 2.03882381e-02, 2.91365553e-02, 0., 2.68876284e-01,
          2.11658120e-01, 1.92170769e-01, 2.46730939e-01, 1.67667806e-01,
          9.57920253e-02, 1.66594401e-01, 1.75455019e-01, 2.58658320e-01,
          1.87361434e-01, 2.27636993e-01, 1.20030209e-01, 1.21272549e-01,
          0., 8.66617560e-02, 8.27306733e-02, 8.26266855e-02,
          1.13357350e-01, 2.20135495e-01, 2.44294345e-01, 1.73298553e-01,
          0. ]
      - [ 1.24942519e-01, 1.33488417e-01, 1.80589318e-01, 2.07141742e-01,
          1.13235101e-01, 1.02598518e-01, 1.13476045e-01, 8.60329121e-02,
          8.29568431e-02, 8.04098099e-02, 6.29224479e-02, 0.,
          1.91790834e-01, 1.42652646e-01, 1.37994811e-01, 0.,
          1.37851909e-01, 1.61719173e-01, 1.59898981e-01, 1.83102220e-01,
          6.34306157e-03, 0., 0., 0., 0., 6.66712075e-02, 0.,
          7.82094672e-02, 2.42872372e-01, 1.66042954e-01, 9.81155038e-02,
          4.47045192e-02, 1.14017092e-01, 1.23587511e-01, 1.11177407e-01,
          1.78023681e-01, 2.35548019e-01, 1.31586239e-01, 9.65841189e-02,
          5.75953089e-02, 1.17422760e-01, 6.00524023e-02, 1.03457265e-01,
          1.62863195e-01, 1.46718606e-01, 9.91734713e-02, 1.04256511e-01,
          1.08885914e-01, 1.06643952e-01, 7.68925995e-02, 7.97941238e-02,
          3.03134676e-02, 2.59030759e-01, 1.70977041e-01, 1.45711049e-01,
          1.29273012e-01, 1.61301747e-01, 0., 1.24263704e-01,
          1.21638268e-01, 1.67104378e-01, 1.31763682e-01, 1.18488632e-01,
          0. ]
      - [ 1.39476493e-01, 1.34039462e-01, 2.00866282e-01, 2.09378332e-01,
          1.12689130e-01, 3.73383425e-02, 4.81996424e-02, 4.72127385e-02,
          0., 4.14232053e-02, 5.31458557e-02, 0., 1.86054274e-01,
          1.71975091e-01, 1.37693524e-01, 0., 1.23866506e-01,
          1.13541812e-01, 1.53362855e-01, 1.89113870e-01, 0., 0., 0., 0.,
          0., 0., 0., 7.59901032e-02, 2.24547803e-01, 1.63607925e-01,
          1.19936585e-01, 4.20367457e-02, 1.00114651e-01, 1.32754087e-01,
          1.55072466e-01, 1.50543109e-01, 2.46925756e-01, 1.32794023e-01,
          1.07292034e-01, 9.98965725e-02, 9.60916504e-02, 8.30806270e-02,
          1.10388011e-01, 1.54916957e-01, 1.60375893e-01, 1.07475586e-01,
          1.12189032e-01, 9.22606960e-02, 1.31452143e-01, 1.42716557e-01,
          1.05337523e-01, 3.12984884e-02, 2.76538730e-01, 1.65627584e-01,
          1.35862380e-01, 8.63846540e-02, 1.31926194e-01, 6.65463060e-02,
          1.21855408e-01, 7.75250271e-02, 2.10858673e-01, 1.35109067e-01,
          1.23767458e-01, 0. ]
      - [ 1.85097679e-01, 2.02389061e-01, 1.74086943e-01, 1.59127697e-01,
          0., 0., 0., 0., 0., 0., 0., 0., 2.07402781e-01, 1.52584910e-01,
          1.55126736e-01, 9.08602998e-02, 1.34143084e-01, 5.60416952e-02,
          1.35524154e-01, 1.32510170e-01, 1.10347774e-02, 0., 0., 0., 0.,
          0., 0., 0., 1.22370839e-01, 1.32452711e-01, 1.17851384e-01,
          6.01117276e-02, 4.27242033e-02, 8.65098014e-02, 1.28510356e-01,
          2.07058474e-01, 2.32552052e-01, 1.65327713e-01, 1.60565168e-01,
          0., 9.26052779e-02, 1.15439989e-01, 1.44029826e-01,
          1.57141119e-01, 2.99055368e-01, 8.01667199e-02, 0., 0.,
          1.86335638e-01, 1.64139032e-01, 1.54154003e-01, 2.14098155e-01,
          2.08817601e-01, 1.71093941e-01, 1.42481625e-01, 1.64817870e-01,
          4.58353944e-02, 0., 6.19562194e-02, 1.20306253e-01,
          1.94242194e-01, 1.13601848e-01, 2.66438294e-02, 2.94742677e-02 ]
      - [ 7.83613548e-02, 1.93666369e-01, 1.77478865e-01, 1.75687730e-01,
          1.43448278e-01, 1.35965779e-01, 1.42050713e-01, 6.95681274e-02,
          0., 4.13368382e-02, 5.84324412e-02, 8.36848095e-02,
          1.19209051e-01, 1.16494402e-01, 8.25797468e-02, 7.36965165e-02,
          1.44316643e-01, 1.74732178e-01, 1.69240221e-01, 2.16118246e-01,
          5.52010955e-03, 0., 0., 0., 7.73028284e-02, 9.90303010e-02,
          1.07790902e-01, 9.55600291e-02, 1.73078567e-01, 1.50174916e-01,
          1.47602454e-01, 1.08979397e-01, 0., 1.70599833e-01,
          1.59790710e-01, 1.94538325e-01, 2.17804804e-01, 1.31141230e-01,
          1.51987821e-01, 4.00725082e-02, 0., 5.52307814e-02,
          6.83858916e-02, 8.66065696e-02, 1.62767127e-01, 9.60792750e-02,
          3.75196375e-02, 0., 4.48455811e-02, 0., 1.70610566e-02,
          9.74728242e-02, 2.65159190e-01, 1.65649295e-01, 1.61943510e-01,
          1.45461917e-01, 1.23202495e-01, 1.15778551e-01, 1.09747328e-01,
          1.35537282e-01, 2.07358748e-01, 1.32493317e-01, 1.30565107e-01,
          2.41486076e-02 ]
      - [ 1.71230659e-01, 1.90187827e-01, 1.04842201e-01, 4.24433574e-02,
          5.82460575e-02, 1.10684678e-01, 9.61013138e-02, 8.41370504e-03,
          1.29246727e-01, 1.57992184e-01, 0., 0., 6.16643839e-02,
          1.65872902e-01, 1.38473198e-01, 1.79452047e-01, 2.36184746e-01,
          1.34542242e-01, 1.68618783e-01, 1.13633163e-02, 1.55088417e-02,
          8.01188312e-03, 8.82803928e-03, 1.20875865e-01, 2.19654664e-01,
          1.66058511e-01, 8.11759606e-02, 6.86976174e-03, 1.53074777e-02,
          8.01812634e-02, 1.36084229e-01, 1.94159195e-01, 8.80086496e-02,
          6.66608959e-02, 6.68958351e-02, 0., 1.43320054e-01,
          1.45431280e-01, 1.83167666e-01, 1.61003828e-01, 1.67266682e-01,
          1.42605051e-01, 8.50635991e-02, 9.21318755e-02, 1.22183584e-01,
          1.54810175e-01, 9.92981121e-02, 6.51264712e-02, 1.66956007e-01,
          1.17001012e-01, 0., 0., 6.86976174e-03, 2.92466078e-02,
          2.11319953e-01, 2.02309832e-01, 2.06419140e-01, 1.35929093e-01,
          1.48291782e-01, 7.83005580e-02, 3.33061740e-02, 4.90292311e-02,
          8.22669044e-02, 2.17306569e-01 ]
      - [ 1.57614216e-01, 1.06166199e-01, 1.89997151e-01, 1.38485506e-01,
          1.61784470e-01, 1.08421952e-01, 0., 0., 8.10211301e-02,
          4.19114269e-02, 1.14410095e-01, 1.54322848e-01, 1.42154098e-01,
          2.17163995e-01, 1.67684659e-01, 6.18850766e-03, 1.73139304e-01,
          2.05812007e-01, 7.74485096e-02, 5.85356578e-02, 1.06647521e-01,
          7.78687820e-02, 6.63882568e-02, 6.46892488e-02, 1.46593273e-01,
          1.62656695e-01, 1.39791042e-01, 1.15167946e-01, 1.41100008e-02,
          1.30158350e-01, 1.34759307e-01, 1.57093778e-01, 9.45401043e-02,
          4.00807299e-02, 1.13577947e-01, 0., 1.49221003e-01,
          1.49682552e-01, 2.03104407e-01, 1.67280927e-01, 1.13972798e-01,
          1.35868967e-01, 1.22321911e-01, 1.21815056e-01, 1.25838473e-01,
          1.34626731e-01, 0., 4.29370143e-02, 3.75831872e-02,
          8.14921334e-02, 8.30435529e-02, 9.24634114e-02, 7.71275759e-02,
          1.08848803e-01, 1.67831972e-01, 1.20511957e-01, 1.33883998e-01,
          1.54976100e-01, 1.64854914e-01, 1.65487334e-01, 9.29696783e-02,
          1.23124868e-01, 1.13412753e-01, 1.72757491e-01 ]
      - [ 1.57614216e-01, 1.06166199e-01, 1.89997151e-01, 1.38485506e-01,
          1.61784470e-01, 1.08421952e-01, 0., 0., 8.10211301e-02,
          4.19114269e-02, 1.14410095e-01, 1.54322848e-01, 1.42154098e-01,
          2.17163995e-01, 1.67684659e-01, 6.18850766e-03, 1.73139304e-01,
          2.05812007e-01, 7.74485096e-02, 5.85356578e-02, 1.06647521e-01,
          7.78687820e-02, 6.63882568e-02, 6.46892488e-02, 1.46593273e-01,
          1.62656695e-01, 1.39791042e-01, 1.15167946e-01, 1.41100008e-02,
          1.30158350e-01, 1.34759307e-01, 1.57093778e-01, 9.45401043e-02,
          4.00807299e-02, 1.13577947e-01, 0., 1.49221003e-01,
          1.49682552e-01, 2.03104407e-01, 1.67280927e-01, 1.13972798e-01,
          1.35868967e-01, 1.22321911e-01, 1.21815056e-01, 1.25838473e-01,
          1.34626731e-01, 0., 4.29370143e-02, 3.75831872e-02,
          8.14921334e-02, 8.30435529e-02, 9.24634114e-02, 7.71275759e-02,
          1.08848803e-01, 1.67831972e-01, 1.20511957e-01, 1.33883998e-01,
          1.54976100e-01, 1.64854914e-01, 1.65487334e-01, 9.29696783e-02,
          1.23124868e-01, 1.13412753e-01, 1.72757491e-01 ]
      - [ 1.57199979e-01, 1.59642637e-01, 1.99198782e-01, 0.,
          6.52862107e-03, 1.33916125e-01, 1.18047833e-01, 5.16046435e-02,
          1.66942582e-01, 6.14778139e-02, 8.26221406e-02, 3.72425802e-02,
          6.61824122e-02, 2.34444767e-01, 1.53951332e-01, 9.63256061e-02,
          2.59523749e-01, 1.94375783e-01, 4.69824634e-02, 1.23052962e-01,
          4.14416455e-02, 0., 3.16959177e-03, 4.73964494e-03,
          2.75191456e-01, 1.42510757e-01, 4.68142070e-02, 8.82016718e-02,
          2.82988865e-02, 4.94357981e-02, 1.76707312e-01, 1.32904708e-01,
          1.52870908e-01, 7.62910098e-02, 0., 0., 1.50724009e-01,
          1.10399812e-01, 1.57933772e-01, 1.75021514e-01, 1.84544683e-01,
          1.41314432e-01, 6.10713176e-02, 1.10118821e-01, 9.01770368e-02,
          8.61620829e-02, 1.26292020e-01, 0., 1.46204606e-01,
          1.03385068e-01, 0., 0., 3.45908031e-02, 0., 1.99446127e-01,
          1.62367299e-01, 2.04185233e-01, 1.39123425e-01, 1.49030238e-01,
          6.01115227e-02, 6.82422519e-02, 4.97837253e-02, 6.50811344e-02,
          2.05618843e-01 ]
      - [ 1.12081707e-01, 1.71875253e-01, 1.83700189e-01, 1.75523192e-01,
          1.28032118e-01, 1.19513936e-01, 6.35836199e-02, 6.92870170e-02,
          0., 6.94152787e-02, 8.65484625e-02, 4.56638373e-02,
          1.84154764e-01, 1.46646395e-01, 1.36487603e-01, 6.20956346e-02,
          1.64097175e-01, 1.21870957e-01, 1.51406258e-01, 1.66746601e-01,
          7.61039183e-02, 0., 0., 0., 0., 0., 8.43974501e-02,
          9.57716256e-02, 1.83103412e-01, 1.66789755e-01, 1.37403026e-01,
          2.86083259e-02, 0., 1.48346946e-01, 1.68739602e-01,
          1.86681688e-01, 2.02600032e-01, 1.39741063e-01, 1.33793101e-01,
          1.06882378e-01, 0., 1.29672840e-01, 1.07437253e-01,
          1.61894590e-01, 1.49532557e-01, 1.07113287e-01, 9.96828750e-02,
          8.26456919e-02, 1.18969612e-01, 6.87053353e-02, 6.62290156e-02,
          1.52293265e-01, 2.32059047e-01, 1.74866498e-01, 1.34529799e-01,
          1.24805391e-01, 1.55504823e-01, 1.04250006e-01, 1.16696067e-01,
          1.42538592e-01, 1.46078959e-01, 1.37839332e-01, 1.01477019e-01,
          3.61982882e-02 ]
      - [ 1.39118209e-01, 1.75233930e-01, 1.85435101e-01, 1.48864970e-01,
          1.32186741e-01, 1.41338378e-01, 7.48793781e-02, 6.73297122e-02,
          7.76014626e-02, 6.68662786e-02, 1.04355097e-01, 1.13192171e-01,
          1.31810248e-01, 1.95411131e-01, 1.41343594e-01, 8.20148289e-02,
          2.21348584e-01, 1.51202753e-01, 1.51014239e-01, 8.07898194e-02,
          1.44280083e-02, 3.53023782e-02, 4.58563911e-03, 0.,
          2.15420246e-01, 1.30449384e-01, 1.47170722e-01, 8.84825438e-02,
          6.33758157e-02, 1.45729512e-01, 1.67319417e-01, 1.12497784e-01,
          7.48708993e-02, 5.32685705e-02, 1.37008041e-01, 6.15702197e-03,
          8.37130696e-02, 2.14245245e-01, 1.56613410e-01, 1.77528366e-01,
          1.52260557e-01, 1.00650124e-01, 1.08308338e-01, 1.10596433e-01,
          1.23280421e-01, 1.34865105e-01, 5.28043918e-02, 0.,
          1.73798487e-01, 1.11186281e-01, 0., 0., 0., 9.25265476e-02,
          1.70820251e-01, 1.68231055e-01, 1.98852986e-01, 1.67637140e-01,
          1.16111234e-01, 7.75400624e-02, 6.48201182e-02, 1.05478853e-01,
          1.42744482e-01, 8.21674988e-02 ]
      - [ 8.48315731e-02, 7.60885477e-02, 1.62766993e-01, 2.22802162e-01,
          4.41701189e-02, 2.11281702e-02, 3.93308289e-02, 3.85587774e-02,
          4.69112955e-02, 3.03154029e-02, 0., 0., 2.13005736e-01,
          1.51655346e-01, 1.32460847e-01, 1.16955273e-01, 1.17397472e-01,
          8.13344717e-02, 1.10484213e-01, 1.29332080e-01, 2.67980862e-02,
          0., 0., 0., 7.90139101e-03, 2.23189890e-02, 9.43288207e-03, 0.,
          1.32424906e-01, 1.04688704e-01, 1.12315580e-01, 4.79085036e-02,
          1.18922308e-01, 8.84493813e-02, 1.01239532e-01, 1.46148413e-01,
          2.43112341e-01, 1.54081210e-01, 1.26424074e-01, 0.,
          1.23107120e-01, 1.93831965e-01, 1.59892604e-01, 1.72605306e-01,
          2.40998223e-01, 1.25636920e-01, 1.03354484e-01, 8.95142555e-02,
          1.49984553e-01, 2.00949118e-01, 1.20515034e-01, 2.11302146e-01,
          1.76558509e-01, 8.78952146e-02, 1.26133218e-01, 1.55587196e-01,
          1.86404854e-01, 1.01876803e-01, 8.21097642e-02, 4.18139808e-02,
          2.19841227e-01, 1.46600023e-01, 8.34827125e-02, 1.55279800e-01 ]
      - [ 2.45273992e-01, 1.38197944e-01, 1.25715613e-01, 0.,
          1.41187251e-01, 1.57858789e-01, 8.53788853e-02, 0.,
          1.09789118e-01, 1.11560799e-01, 9.05484613e-03, 5.42117096e-02,
          9.74608660e-02, 1.43262982e-01, 1.47965476e-01, 1.49926215e-01,
          2.88946837e-01, 1.25684872e-01, 4.03289683e-02, 3.33140381e-02,
          1.02344118e-02, 0., 5.81052620e-03, 1.11464880e-01,
          2.11017549e-01, 1.92898482e-01, 9.85129997e-02, 6.62864596e-02,
          1.26891108e-02, 7.33349621e-02, 1.31316230e-01, 2.03241691e-01,
          1.01867616e-01, 9.60936844e-02, 9.28569436e-02, 0., 0.,
          1.42136395e-01, 2.20752791e-01, 1.50538564e-01, 1.66137397e-01,
          1.52818471e-01, 1.21389911e-01, 1.22102290e-01, 0.,
          8.42426494e-02, 9.86706614e-02, 0., 1.11170560e-01,
          1.28615871e-01, 0., 0., 0., 1.10596985e-01, 1.65466323e-01,
          1.56700268e-01, 2.58426607e-01, 1.53734624e-01, 1.18224911e-01,
          6.37001870e-03, 4.93556522e-02, 7.83970952e-02, 1.00037776e-01,
          2.07392350e-01 ]
      - [ 1.75042003e-01, 1.04107887e-01, 2.29891092e-01, 8.16818476e-02,
          1.41274661e-01, 8.72435048e-02, 2.41121762e-02, 0.,
          9.94367003e-02, 9.47709754e-03, 7.96088725e-02, 1.59486696e-01,
          8.83685797e-02, 2.17812821e-01, 1.58447027e-01, 1.16025962e-01,
          1.88201129e-01, 1.06526352e-01, 1.66502997e-01, 6.74258638e-03,
          1.00065857e-01, 5.95270619e-02, 5.02175651e-03, 1.33491039e-01,
          1.46580607e-01, 1.06645361e-01, 1.28099874e-01, 1.11145407e-01,
          1.65307336e-02, 1.00368693e-01, 1.60610467e-01, 1.37071311e-01,
          8.48279819e-02, 0., 0., 1.18889488e-01, 8.19896609e-02,
          1.74996421e-01, 2.36076683e-01, 8.27969834e-02, 1.74698353e-01,
          1.62705779e-01, 1.06893778e-01, 1.50017604e-01, 1.13320693e-01,
          1.46962240e-01, 5.02175651e-03, 3.55888084e-02, 2.32733935e-01,
          1.06518842e-01, 0., 0., 0., 5.33793904e-02, 1.83028430e-01,
          1.67310193e-01, 2.15366393e-01, 1.52088493e-01, 1.49798557e-01,
          1.02321014e-01, 0., 0., 9.92168486e-02, 1.50824234e-01 ]
      - [ 5.26570603e-02, 1.19907269e-02, 1.89815596e-01, 2.21644104e-01,
          1.77482814e-01, 1.28387958e-01, 1.03924170e-01, 0., 0.,
          8.26931670e-02, 1.61119819e-01, 3.83748822e-02, 1.81634530e-01,
          2.20009476e-01, 0., 0., 1.43255442e-01, 1.40027076e-01,
          1.79465234e-01, 2.15227783e-01, 8.43831673e-02, 4.95517440e-02,
          0., 0., 2.55080946e-02, 0., 3.45185958e-02, 0., 1.76271901e-01,
          1.96905360e-01, 1.67085454e-01, 6.40904829e-02, 7.35021606e-02,
          1.15700386e-01, 1.31098956e-01, 1.78286210e-01, 2.48183921e-01,
          1.32901296e-01, 1.01788215e-01, 0., 0., 9.82399136e-02,
          1.27426654e-01, 1.48701653e-01, 1.72861740e-01, 1.23168372e-01,
          1.37327626e-01, 0., 7.52740949e-02, 0., 0., 0., 2.41065800e-01,
          1.94826722e-01, 1.70939401e-01, 1.67394117e-01, 1.36748120e-01,
          6.58301562e-02, 7.51393512e-02, 1.48607612e-01, 1.31936565e-01,
          7.94453621e-02, 5.27085252e-02, 0. ]
      - [ 1.93779752e-01, 1.28666043e-01, 1.26954988e-01, 1.46204114e-01,
          1.17488414e-01, 5.48172593e-02, 5.80684766e-02, 4.69326042e-02,
          7.92339370e-02, 1.08149787e-02, 9.72696617e-02, 1.67221338e-01,
          1.42509609e-01, 1.98815465e-01, 1.81363925e-01, 1.07652277e-01,
          1.23350233e-01, 1.73393384e-01, 1.44339308e-01, 8.83873999e-02,
          1.32654428e-01, 0., 7.90996030e-02, 8.81760642e-02,
          1.49148613e-01, 1.50505736e-01, 9.00079459e-02, 9.49044228e-02,
          1.12620123e-01, 1.38160631e-01, 1.84071660e-01, 1.29293486e-01,
          7.84392729e-02, 0., 4.30967547e-02, 0., 7.17443414e-03,
          2.02574164e-01, 1.49255022e-01, 1.58613220e-01, 1.71500787e-01,
          1.06854156e-01, 1.23206325e-01, 1.30968124e-01, 2.20502883e-01,
          2.39047594e-02, 4.76649143e-02, 5.12115583e-02, 1.96593016e-01,
          8.92514214e-02, 6.88149557e-02, 8.19967780e-03, 4.12139855e-02,
          0., 2.05540121e-01, 1.17116332e-01, 2.44818121e-01,
          1.30876839e-01, 1.48584038e-01, 1.16957709e-01, 8.41592476e-02,
          0., 0., 1.87568814e-01 ]
      - [ 1.75737754e-01, 2.00475335e-01, 1.63282737e-01, 0.,
          1.03407197e-01, 9.56546962e-02, 1.09045714e-01, 4.98352423e-02,
          1.05279624e-01, 4.75949124e-02, 7.29697421e-02, 4.20268625e-02,
          1.31781790e-02, 1.90498531e-01, 1.93595141e-01, 1.63779289e-01,
          2.43441835e-01, 1.71215281e-01, 1.50416449e-01, 4.97171516e-03,
          7.90771842e-03, 0., 5.75869856e-03, 0., 1.16134904e-01,
          1.80240721e-01, 1.92062289e-01, 4.71789278e-02, 8.01213756e-02,
          3.90594453e-02, 1.69433236e-01, 1.94857448e-01, 1.00382969e-01,
          4.52233255e-02, 1.22256629e-01, 6.88250735e-02, 0.,
          1.82871848e-01, 2.03773901e-01, 1.74154073e-01, 1.63017213e-01,
          1.36479422e-01, 1.83586255e-01, 0., 8.20362568e-02,
          6.69107810e-02, 5.03897592e-02, 0., 1.39611423e-01, 0., 0., 0.,
          0., 4.20621559e-02, 2.22452730e-01, 1.58636391e-01,
          2.19757497e-01, 1.75424054e-01, 1.21073380e-01, 1.32906139e-01,
          4.77472767e-02, 5.76574020e-02, 4.42092679e-02, 1.76621020e-01 ]
      - [ 2.03888834e-01, 1.46779314e-01, 1.89904734e-01, 1.13776527e-01,
          7.05677718e-02, 1.05440289e-01, 1.15196062e-02, 8.30278359e-03,
          9.51248035e-02, 9.19353776e-03, 1.17415003e-01, 0.,
          1.05041564e-01, 1.92295343e-01, 1.55034781e-01, 1.06613025e-01,
          2.61719495e-01, 1.60738111e-01, 9.37643945e-02, 7.64718875e-02,
          1.15547245e-02, 3.39068063e-02, 5.95001038e-03, 8.09632167e-02,
          1.79800287e-01, 1.63625866e-01, 5.02663925e-02, 7.63815045e-02,
          4.09874618e-02, 0., 1.73523515e-01, 1.63255110e-01,
          7.56591856e-02, 0., 1.04055859e-01, 8.40434134e-02,
          6.86025918e-02, 2.38171190e-01, 1.95503533e-01, 1.62926584e-01,
          1.40477657e-01, 1.14590250e-01, 9.53134149e-02, 1.41693994e-01,
          1.76594675e-01, 0., 6.10881718e-03, 0., 2.07802951e-01, 0.,
          4.74919006e-02, 0., 0., 6.64514750e-02, 1.79926991e-01,
          1.92266777e-01, 2.56172448e-01, 1.52448177e-01, 1.05103180e-01,
          1.33921221e-01, 6.07835092e-02, 4.99022678e-02, 9.34761167e-02,
          1.65728107e-01 ]
      - [ 1.39238387e-01, 1.24705888e-01, 2.29701936e-01, 1.69040024e-01,
          1.52433189e-02, 1.29449978e-01, 3.35680670e-03, 0.,
          9.52130631e-02, 6.80785626e-02, 1.07938670e-01, 7.28666931e-02,
          1.16575003e-01, 1.75797805e-01, 1.20308504e-01, 9.23843831e-02,
          1.52981088e-01, 2.37005249e-01, 7.98337385e-02, 7.86996856e-02,
          1.12909069e-02, 7.86202699e-02, 7.78979156e-03, 1.01325966e-01,
          1.34228572e-01, 1.55134186e-01, 8.39500427e-02, 6.81876168e-02,
          1.39651775e-01, 1.20705135e-01, 1.28376096e-01, 1.46850228e-01,
          5.64545346e-03, 8.01867247e-02, 1.44925445e-01, 1.05547823e-01,
          1.52221248e-01, 2.51535267e-01, 1.66246921e-01, 4.39752899e-02,
          1.33121014e-01, 1.12259060e-01, 1.33943021e-01, 1.51994675e-01,
          1.22858554e-01, 1.13952570e-01, 0., 0., 1.70964420e-01,
          1.47546723e-01, 0., 0., 0., 3.88665013e-02, 1.89445049e-01,
          1.98467538e-01, 2.25477114e-01, 1.64955541e-01, 1.16621792e-01,
          1.31075799e-01, 0., 7.22766593e-02, 9.19429585e-02,
          1.71812415e-01 ]
      - [ 1.15589447e-01, 1.00118622e-01, 1.99035957e-01, 1.85064912e-01,
          1.05261631e-01, 7.93033540e-02, 8.36502109e-03, 0.,
          8.52436200e-02, 8.71578604e-02, 1.32394001e-01, 1.06171995e-01,
          1.40701756e-01, 2.11802781e-01, 1.56099170e-01, 1.35848552e-01,
          2.22394034e-01, 2.16973662e-01, 6.55863285e-02, 9.79882330e-02,
          6.68685362e-02, 1.03835491e-02, 1.61485653e-02, 5.65452389e-02,
          2.05168262e-01, 1.21418402e-01, 1.18860193e-01, 6.88674003e-02,
          1.04190297e-01, 4.58132215e-02, 1.48234606e-01, 9.90851223e-02,
          8.21316540e-02, 3.41500575e-03, 7.46633187e-02, 8.64039585e-02,
          1.08774215e-01, 1.91967979e-01, 1.57746226e-01, 1.59764037e-01,
          1.47286758e-01, 1.64689302e-01, 1.28419265e-01, 1.18436180e-01,
          6.36558682e-02, 1.56466171e-01, 1.15126371e-01, 0.,
          1.31591618e-01, 1.30071372e-01, 4.95891012e-02, 0.,
          8.53534713e-02, 1.40170708e-01, 1.42729953e-01, 1.84192568e-01,
          1.83671996e-01, 1.52257651e-01, 1.22973301e-01, 1.47644505e-01,
          5.65285906e-02, 0., 7.37228990e-02, 1.86632290e-01 ]
      - [ 3.33616547e-02, 1.67804331e-01, 1.42083257e-01, 2.24188447e-01,
          5.16269542e-02, 0., 1.64146069e-02, 1.49664998e-01,
          1.33792922e-01, 1.85039286e-02, 0., 0., 2.11638838e-01,
          1.67397916e-01, 9.59629193e-02, 1.45353407e-01, 9.38736796e-02,
          7.74900094e-02, 1.17161758e-01, 1.97497487e-01, 3.69047523e-02,
          0., 9.26274247e-03, 9.99644846e-02, 5.13943322e-02,
          4.03256677e-02, 3.50639597e-02, 0., 1.78870365e-01,
          1.28517464e-01, 1.11268081e-01, 9.09763500e-02, 1.07421368e-01,
          1.18947856e-01, 1.10198192e-01, 1.85093910e-01, 2.25911722e-01,
          1.67941362e-01, 1.11040831e-01, 1.15608014e-01, 1.38152376e-01,
          9.98080969e-02, 6.45611212e-02, 1.39216065e-01, 2.14282528e-01,
          9.46872979e-02, 8.26150030e-02, 9.26010236e-02, 1.58662751e-01,
          1.21292546e-01, 1.49005890e-01, 2.14348689e-01, 1.87337548e-01,
          1.40488282e-01, 1.20222159e-01, 1.28052399e-01, 5.96126355e-02,
          6.66141137e-02, 9.91984606e-02, 1.13881439e-01, 2.27942482e-01,
          1.30386949e-01, 8.07172582e-02, 0. ]
      - [ 1.34683192e-01, 7.53731728e-02, 1.44581705e-01, 1.53071612e-01,
          3.12200431e-02, 6.44012243e-02, 6.90602362e-02, 1.57965377e-01,
          9.04302970e-02, 6.38420209e-02, 0., 4.75858301e-02,
          1.52461454e-01, 1.15013130e-01, 1.04122765e-01, 1.94353789e-01,
          1.06061257e-01, 6.43703490e-02, 1.01152539e-01, 7.36342892e-02,
          2.24292222e-02, 1.80318505e-02, 1.83966588e-02, 8.39142874e-02,
          2.37346739e-02, 5.82335740e-02, 3.17197219e-02, 4.56375889e-02,
          7.34942481e-02, 9.05462354e-02, 1.01996690e-01, 1.21304847e-01,
          0., 1.58554047e-01, 1.81696385e-01, 2.35696390e-01,
          2.18744010e-01, 1.88708961e-01, 1.74921289e-01, 0., 0.,
          8.02242905e-02, 1.05887070e-01, 1.41824514e-01, 2.26801962e-01,
          1.11379817e-01, 9.17515904e-02, 0., 1.21723458e-01,
          1.57330707e-01, 1.69606596e-01, 2.65573382e-01, 2.01518357e-01,
          9.77388546e-02, 9.74126980e-02, 4.49475087e-02, 1.17592148e-01,
          8.83092433e-02, 1.03096522e-01, 9.74253416e-02, 2.51653910e-01,
          1.61462575e-01, 1.83624446e-01, 9.58527401e-02 ]
      - [ 3.02616060e-01, 1.44568831e-01, 6.18073009e-02, 9.16591063e-02,
          2.98238359e-02, 1.23174921e-01, 7.16356635e-02, 0.,
          9.66984406e-02, 6.86370879e-02, 6.19307570e-02, 7.89818689e-02,
          2.03953404e-02, 5.67715839e-02, 1.76818639e-01, 2.19486907e-01,
          3.21259767e-01, 5.34014255e-02, 7.63502344e-02, 9.42424685e-03,
          5.80503494e-02, 0., 6.30237395e-03, 8.72650966e-02,
          1.69718400e-01, 1.13823660e-01, 1.35353044e-01, 5.48029356e-02,
          7.91601017e-02, 9.55821127e-02, 1.14451580e-01, 2.57045388e-01,
          4.90670204e-02, 0., 3.41514349e-02, 7.76022300e-02,
          8.32620710e-02, 1.22358084e-01, 2.16433913e-01, 2.24068090e-01,
          1.82379603e-01, 1.66713193e-01, 1.01449177e-01, 1.13383852e-01,
          1.08709686e-01, 2.35746372e-02, 0., 0., 0., 1.17550641e-01, 0.,
          0., 6.11950131e-03, 8.44389945e-03, 1.49553716e-01,
          2.51992762e-01, 2.51744270e-01, 1.87804803e-01, 6.60872608e-02,
          0., 7.20780566e-02, 7.88746998e-02, 2.88829543e-02,
          1.61399871e-01 ]
      - [ 0., 1.04246564e-01, 1.89852983e-01, 2.58723497e-01,
          4.18533906e-02, 0., 0., 0., 0., 0., 0., 7.82425776e-02,
          1.97551727e-01, 1.70387194e-01, 1.54757291e-01, 1.48542285e-01,
          1.26533344e-01, 8.33876058e-02, 1.16256148e-01, 1.71736121e-01,
          1.07789926e-01, 0., 0., 0., 0., 0., 0., 0., 2.04758838e-01,
          1.59880459e-01, 7.03042373e-02, 5.49146608e-02, 0.,
          6.35808334e-02, 1.63988858e-01, 2.11826995e-01, 2.20457584e-01,
          1.47553578e-01, 9.04680565e-02, 0., 7.49521405e-02,
          1.46291777e-01, 1.30021006e-01, 1.39373124e-01, 2.15624034e-01,
          1.15300909e-01, 1.32624000e-01, 9.35065225e-02, 1.40172899e-01,
          1.61867097e-01, 1.20043106e-01, 9.88020599e-02, 2.47802779e-01,
          1.40499264e-01, 1.30833507e-01, 1.47265464e-01, 1.57789275e-01,
          8.98665115e-02, 9.42758769e-02, 7.48049989e-02, 1.59728289e-01,
          1.21650890e-01, 1.12964138e-01, 1.29729152e-01 ]
      - [ 1.47557750e-01, 1.18451118e-01, 2.35398978e-01, 1.73609063e-01,
          1.08657300e-01, 1.71137273e-01, 1.29307583e-01, 4.54459675e-02,
          8.60630274e-02, 3.16150207e-03, 1.26579791e-01, 1.45386130e-01,
          1.54847831e-01, 2.01839641e-01, 1.44681200e-01, 6.22055270e-02,
          2.76163757e-01, 2.31045052e-01, 1.11525565e-01, 8.92437622e-02,
          1.06339827e-02, 6.41956599e-03, 1.25400662e-01, 1.35685086e-01,
          1.29005849e-01, 1.76740602e-01, 1.32328957e-01, 0.,
          7.73531348e-02, 1.07672676e-01, 1.96940675e-01, 1.31223798e-01,
          5.93267605e-02, 5.62203396e-03, 1.04333661e-01, 0.,
          1.48353904e-01, 1.66406110e-01, 1.34278759e-01, 1.21822335e-01,
          8.19403380e-02, 1.11963548e-01, 1.49769470e-01, 1.23657197e-01,
          5.31699136e-03, 1.23278543e-01, 0., 0., 1.06016740e-01,
          5.47588198e-03, 1.02188727e-02, 0., 4.82724495e-02,
          4.89718504e-02, 1.79119393e-01, 1.41413942e-01, 2.23159954e-01,
          1.85967058e-01, 8.78103971e-02, 6.26317486e-02, 9.16212872e-02,
          0., 7.14262575e-02, 1.20207265e-01 ]
      - [ 1.88644201e-01, 7.54111260e-02, 1.96307197e-01, 1.16985880e-01,
          1.40105233e-01, 6.48799241e-02, 3.41261365e-03, 3.93978618e-02,
          7.27104992e-02, 6.62828460e-02, 1.41207621e-01, 1.13646477e-01,
          1.10459715e-01, 2.51482427e-01, 1.86106339e-01, 6.21844232e-02,
          1.97870180e-01, 2.28205889e-01, 9.15329605e-02, 6.41715303e-02,
          1.07345417e-01, 0., 0., 1.02012306e-01, 1.66552469e-01,
          1.75122350e-01, 1.03192985e-01, 7.40933046e-02, 1.25764981e-01,
          5.62984236e-02, 1.41287774e-01, 1.23426668e-01, 7.28893504e-02,
          7.28719532e-02, 0., 6.47996925e-03, 0., 2.08294362e-01,
          1.76300719e-01, 1.19739473e-01, 1.79261237e-01, 9.00165513e-02,
          1.82573184e-01, 1.23949610e-01, 0., 1.83753774e-01,
          7.77157843e-02, 0., 1.29627451e-01, 1.29431471e-01, 0., 0.,
          6.09822012e-02, 9.81165394e-02, 1.68388411e-01, 1.88980475e-01,
          1.71210662e-01, 1.40592113e-01, 1.39472499e-01, 1.31430984e-01,
          0., 7.16682002e-02, 3.30724642e-02, 1.97528154e-01 ]
      - [ 2.40693212e-01, 1.33944109e-01, 1.34745017e-01, 1.44261464e-01,
          8.65177289e-02, 1.31144315e-01, 1.31959796e-01, 6.92741945e-02,
          7.94378147e-02, 7.01763034e-02, 8.35746750e-02, 7.76716545e-02,
          6.18148558e-02, 1.72917634e-01, 1.95737243e-01, 9.23565775e-02,
          2.59501696e-01, 1.70623019e-01, 1.43364057e-01, 8.02938864e-02,
          1.19883884e-02, 9.07002017e-03, 5.82026411e-03, 7.67107531e-02,
          1.76982954e-01, 1.84502929e-01, 1.02420323e-01, 1.29515648e-01,
          1.44082494e-02, 1.18661799e-01, 2.02490851e-01, 1.54763699e-01,
          8.38235170e-02, 0., 1.03779785e-01, 5.02486667e-03,
          7.11925253e-02, 1.89123228e-01, 1.92936152e-01, 1.61513925e-01,
          1.50405601e-01, 1.77077323e-01, 1.02188990e-01, 1.08431488e-01,
          5.65138040e-03, 1.21411838e-01, 0., 0., 1.52318627e-01,
          4.75222571e-03, 0., 0., 7.99225923e-03, 0., 1.46722719e-01,
          1.82744101e-01, 2.46192977e-01, 1.76213652e-01, 1.28753707e-01,
          0., 9.10403132e-02, 8.45078472e-03, 6.75509050e-02,
          1.40293553e-01 ]
      - [ 9.09529924e-02, 1.04288168e-01, 1.23797141e-01, 2.23811388e-01,
          0., 0., 0., 0., 0., 0., 0., 1.28798857e-01, 1.50417909e-01,
          1.53465882e-01, 1.46970779e-01, 1.15349829e-01, 6.36270493e-02,
          8.24116021e-02, 1.45669430e-01, 1.37432441e-01, 0., 0., 0., 0.,
          0., 0., 0., 0., 1.60935119e-01, 1.14426702e-01, 5.29427938e-02,
          1.02211744e-01, 6.02571256e-02, 9.98571143e-02, 8.33490342e-02,
          2.22376063e-01, 2.44622990e-01, 1.41128987e-01, 1.07146554e-01,
          1.97548065e-02, 9.36969668e-02, 0., 1.81238845e-01,
          2.82719612e-01, 1.91568285e-01, 8.97395909e-02, 1.07572019e-01,
          2.74242479e-02, 1.95510015e-01, 1.56138167e-01, 1.56847343e-01,
          2.16090783e-01, 1.84723094e-01, 1.51425436e-01, 1.50220737e-01,
          8.25636014e-02, 1.59372151e-01, 1.05807014e-01, 1.00688957e-01,
          1.77390784e-01, 2.18510970e-01, 1.22292399e-01, 8.59204456e-02,
          7.54254982e-02 ]
      - [ 1.33873001e-01, 1.04882553e-01, 1.19044766e-01, 2.10754648e-01,
          7.38000944e-02, 8.97447299e-03, 3.43411528e-02, 0.,
          4.04795408e-02, 2.36041155e-02, 5.37604652e-02, 9.75289494e-02,
          2.66900450e-01, 1.46222457e-01, 1.33860037e-01, 1.43514082e-01,
          7.71283582e-02, 1.16963498e-01, 1.53441265e-01, 1.07626870e-01,
          1.84240893e-01, 0., 0., 0., 0., 0., 0., 0., 2.32839927e-01,
          1.02543406e-01, 1.07732356e-01, 9.29776728e-02, 1.03582762e-01,
          9.91436392e-02, 1.05816081e-01, 1.30812034e-01, 2.05720618e-01,
          1.19536847e-01, 1.02470309e-01, 0., 1.63656265e-01,
          1.32341206e-01, 7.83225670e-02, 1.15891583e-01, 2.60664761e-01,
          1.42110258e-01, 8.47832784e-02, 1.41428247e-01, 1.69492453e-01,
          1.71868816e-01, 6.56831637e-02, 6.57299981e-02, 2.48681620e-01,
          1.31085530e-01, 9.47520286e-02, 1.52997166e-01, 1.53782845e-01,
          1.03854999e-01, 9.84548032e-02, 3.46359089e-02, 1.08419687e-01,
          1.19515352e-01, 1.16347790e-01, 1.67274818e-01 ]
      - [ 4.52438667e-02, 1.57944515e-01, 1.65597320e-01, 2.11208075e-01,
          1.08388036e-01, 3.31752039e-02, 6.73783347e-02, 1.38492361e-01,
          1.16869986e-01, 0., 0., 0., 5.32294028e-02, 0., 0., 0.,
          1.34489819e-01, 1.05398998e-01, 1.20999806e-01, 1.00574978e-01,
          6.14120848e-02, 0., 7.25241154e-02, 1.18684418e-01,
          1.46248892e-01, 6.24133125e-02, 0., 0., 2.37481400e-01,
          1.43560246e-01, 1.39145464e-01, 6.11256473e-02, 0.,
          1.98677585e-01, 2.07474291e-01, 1.26958519e-01, 2.74048239e-01,
          1.63750157e-01, 1.59840062e-01, 0., 0., 0., 0., 0., 0., 0., 0.,
          0., 6.37636483e-02, 1.27919659e-01, 1.69347033e-01,
          1.84415638e-01, 2.76600748e-01, 1.47807062e-01, 1.52163908e-01,
          2.80164201e-02, 6.68066442e-02, 1.15477867e-01, 1.54858395e-01,
          2.37096146e-01, 2.29029581e-01, 1.85179040e-01, 1.47558331e-01,
          8.61958489e-02 ]
      - [ 1.07856296e-01, 1.35026619e-01, 1.48415253e-01, 2.08184421e-01,
          0., 0., 0., 0., 0., 0., 0., 0., 2.34362751e-01, 1.07366361e-01,
          1.30598575e-01, 6.74242601e-02, 1.31187409e-01, 9.63797346e-02,
          7.04971254e-02, 1.13827392e-01, 0., 0., 0., 0., 0., 0., 0., 0.,
          7.90040940e-02, 1.01267159e-01, 1.00977711e-01, 6.05637915e-02,
          1.09519660e-01, 1.37114912e-01, 7.11181834e-02, 2.00576052e-01,
          2.57860094e-01, 1.33031026e-01, 1.09645963e-01, 1.13084085e-01,
          1.25018701e-01, 1.84120432e-01, 1.31687909e-01, 1.44884899e-01,
          2.47259304e-01, 1.11262940e-01, 1.23305142e-01, 1.11358650e-01,
          1.94104716e-01, 1.29683897e-01, 1.33327439e-01, 1.91335663e-01,
          2.67533004e-01, 1.25003070e-01, 1.18020669e-01, 1.45706430e-01,
          1.09818168e-01, 1.09683767e-01, 1.26834601e-01, 7.85825923e-02,
          2.61111706e-01, 1.31664202e-01, 6.89207837e-02, 0. ]
      - [ 1.85453206e-01, 1.93480209e-01, 2.27205083e-01, 7.08193704e-02,
          1.32483199e-01, 1.63588926e-01, 1.18402563e-01, 1.39866900e-02,
          1.06808797e-01, 0., 1.11642048e-01, 1.38390988e-01,
          1.91083550e-01, 2.07515240e-01, 1.29964501e-01, 5.74121140e-02,
          2.69404024e-01, 2.11295918e-01, 7.32041523e-02, 7.26821497e-02,
          1.11954220e-01, 9.15622991e-03, 5.00175953e-02, 1.01097904e-01,
          2.03120008e-01, 1.60281807e-01, 0., 6.91662580e-02,
          6.05905280e-02, 1.50936559e-01, 1.55435637e-01, 1.66056216e-01,
          6.42931759e-02, 4.79739532e-03, 6.81088939e-02, 5.20816781e-02,
          9.03491229e-02, 1.79250926e-01, 1.59460038e-01, 1.46997616e-01,
          1.13008693e-01, 1.32516816e-01, 1.39095023e-01, 1.15965158e-01,
          1.31664187e-01, 0., 3.39227077e-03, 0., 1.15658961e-01,
          5.31062782e-02, 0., 7.58534810e-03, 4.49286029e-02,
          7.34968930e-02, 1.53602466e-01, 2.17594340e-01, 2.22915769e-01,
          7.18510523e-02, 1.13592170e-01, 3.31358835e-02, 8.94034952e-02,
          6.26428425e-02, 5.11691198e-02, 9.88729745e-02 ]
      - [ 1.73987255e-01, 1.30425319e-01, 1.77777380e-01, 1.04505420e-01,
          1.16338879e-01, 1.36498392e-01, 9.08749774e-02, 1.59668233e-02,
          1.18398882e-01, 7.16790631e-02, 6.87109381e-02, 1.29747257e-01,
          7.06484988e-02, 2.20339090e-01, 2.05964863e-01, 1.48779690e-01,
          2.44989738e-01, 2.18848944e-01, 1.17490038e-01, 1.33239716e-01,
          9.80449189e-03, 2.42870729e-02, 7.03658443e-03, 1.50914937e-01,
          1.74773574e-01, 1.83109775e-01, 1.03181474e-01, 7.78890252e-02,
          8.03705156e-02, 1.80736437e-01, 1.60167098e-01, 1.83113471e-01,
          5.87760583e-02, 4.80584465e-02, 0., 7.26352930e-02,
          7.07483739e-02, 1.04586512e-01, 1.18816204e-01, 2.34295875e-01,
          1.21073276e-01, 1.87037289e-01, 5.21590598e-02, 1.00714602e-01,
          0., 1.07684359e-01, 6.94215149e-02, 0., 7.49819353e-02,
          4.57124971e-02, 0., 0., 0., 3.96625139e-02, 2.19078466e-01,
          1.08133582e-02, 2.10972890e-01, 1.68324605e-01, 1.68544784e-01,
          9.24691558e-02, 3.70574975e-03, 9.37717594e-03, 3.11615155e-03,
          1.62470967e-01 ]
      - [ 1.53478190e-01, 1.76546842e-01, 2.75845110e-01, 1.15864731e-01,
          1.30122498e-01, 1.62268519e-01, 1.31841436e-01, 8.07035565e-02,
          9.83019173e-02, 8.42101406e-03, 1.48206189e-01, 1.21448159e-01,
          1.44687131e-01, 1.62811339e-01, 1.45676345e-01, 1.02065817e-01,
          2.72487104e-01, 1.23194560e-01, 9.35028121e-02, 5.08886576e-03,
          9.89041775e-02, 0., 3.40312975e-03, 9.42921191e-02,
          2.25067213e-01, 4.81275190e-03, 9.63743329e-02, 5.72587959e-02,
          1.51994705e-01, 1.88361764e-01, 1.25990391e-01, 2.24663824e-01,
          5.59310131e-02, 0., 9.06892419e-02, 6.46196119e-03,
          8.09698552e-02, 1.82760596e-01, 1.40663445e-01, 1.05601579e-01,
          1.25860214e-01, 8.83913413e-02, 2.16946021e-01, 8.21766071e-03,
          9.66984928e-02, 9.22669992e-02, 5.89439366e-03, 0.,
          1.07461169e-01, 5.75292632e-02, 0., 0., 8.09405185e-03,
          1.21953122e-01, 1.50255129e-01, 2.17344955e-01, 2.09044382e-01,
          9.96435210e-02, 7.21654221e-02, 1.23361938e-01, 7.61074200e-02,
          5.14041632e-02, 3.40312975e-03, 7.02189952e-02 ]
      - [ 2.09532157e-01, 7.20096976e-02, 1.24370888e-01, 7.23015964e-02,
          7.00171441e-02, 9.15001258e-02, 6.48519322e-02, 1.37306646e-01,
          2.02711388e-01, 0., 0., 0., 0., 6.69694692e-02, 8.08696970e-02,
          1.62219778e-01, 2.12955385e-01, 4.93771583e-02, 7.02753812e-02,
          0., 0., 5.13510145e-02, 8.08785409e-02, 1.68752968e-01,
          1.77428901e-01, 9.26553160e-02, 0., 1.78501680e-02,
          5.25376759e-02, 4.94454801e-02, 2.82875095e-02, 1.56204596e-01,
          9.14959162e-02, 1.33295938e-01, 2.75805324e-01, 1.24051377e-01,
          2.23561868e-01, 1.13141194e-01, 1.36906952e-01, 1.50375277e-01,
          0., 7.69428760e-02, 1.04947954e-01, 1.13784820e-01,
          1.96449623e-01, 1.31831169e-01, 1.14037134e-01, 4.05861549e-02,
          1.76295653e-01, 1.23519689e-01, 2.66660988e-01, 1.41820967e-01,
          1.92939118e-01, 1.05870694e-01, 1.07602596e-01, 0.,
          4.14314121e-02, 1.06344685e-01, 1.32074654e-01, 1.36081785e-01,
          1.75742224e-01, 1.79568321e-01, 1.49498478e-01, 0. ]
      - [ 2.85527229e-01, 1.55428737e-01, 4.50329110e-02, 5.32036508e-03,
          1.27851926e-02, 5.68411089e-02, 6.60095438e-02, 2.01984476e-02,
          1.34671303e-02, 7.11588515e-03, 7.60291144e-02, 1.14263454e-02,
          1.52357742e-02, 1.99190810e-01, 1.55768350e-01, 1.88105881e-01,
          2.75961339e-01, 9.80723724e-02, 4.11132872e-02, 5.59884310e-02,
          1.48539543e-02, 6.32701628e-03, 3.28384005e-02, 6.82770610e-02,
          2.74118036e-01, 1.50486633e-01, 7.53296763e-02, 0.,
          3.67604867e-02, 6.90055266e-02, 5.08884601e-02, 2.87870616e-01,
          0., 3.55794257e-03, 0., 7.95580167e-03, 4.23113070e-03,
          7.14163482e-02, 2.77619839e-01, 1.57753080e-01, 1.91201776e-01,
          1.50371969e-01, 1.46433651e-01, 1.70002684e-01, 0., 0., 0., 0.,
          1.28468618e-01, 9.92188752e-02, 0., 4.89850156e-02, 0.,
          5.20527624e-02, 1.54027134e-01, 2.69573987e-01, 1.81198508e-01,
          1.66911840e-01, 1.15904786e-01, 3.94979082e-02, 7.34643266e-02,
          7.79055431e-02, 6.46614134e-02, 2.25644633e-01 ]
      - [ 2.10864723e-01, 1.99393719e-01, 8.90104696e-02, 9.66164842e-02,
          9.94130131e-03, 1.41346604e-01, 1.47122785e-01, 4.87279007e-03,
          1.04845129e-01, 4.63977531e-02, 1.23446427e-01, 6.18758332e-03,
          1.01341128e-01, 1.64694831e-01, 1.63756534e-01, 1.48841947e-01,
          2.28042170e-01, 1.67043924e-01, 6.05196878e-02, 4.82762530e-02,
          1.02527821e-02, 5.79475705e-03, 0., 4.11169901e-02,
          2.42250547e-01, 1.94991916e-01, 8.92353952e-02, 6.01112545e-02,
          7.83619881e-02, 2.51318626e-02, 1.27569079e-01, 2.69995779e-01,
          8.22051391e-02, 1.02266766e-01, 2.91289911e-02, 5.09828180e-02,
          8.25290661e-03, 2.02053934e-01, 1.76439613e-01, 1.68862209e-01,
