%YAML:1.0
---
opencv_ml_svm:
   format: 3
   svmType: C_SVC
   kernel:
      type: RBF
      gamma: 5.0000000000000000e-01
   C: 1.
   term_criteria: { epsilon:1.1920928955078125e-07, iterations:1000 }
   var_count: 64
   class_count: 31
   class_labels: !!opencv-matrix
      rows: 31
      cols: 1
      dt: i
      data: [ 1001, 1003, 1005, 1007, 1009, 1011, 1013, 1015, 1017, 1019,
          1021, 1023, 1025, 1027, 1029, 1031, 1033, 1035, 1037, 1039,
          1041, 1043, 1045, 1047, 1049, 1051, 1053, 1055, 1057, 1059,
          1061 ]
   sv_total: 1852
   support_vectors:
      - [ 1.73987255e-01, 1.30425319e-01, 1.77777380e-01, 1.04505420e-01,
          1.16338879e-01, 1.36498392e-01, 9.08749774e-02, 1.59668233e-02,
          1.18398882e-01, 7.16790631e-02, 6.87109381e-02, 1.29747257e-01,
          7.06484988e-02, 2.20339090e-01, 2.05964863e-01, 1.48779690e-01,
          2.44989738e-01, 2.18848944e-01, 1.17490038e-01, 1.33239716e-01,
          9.80449189e-03, 2.42870729e-02, 7.03658443e-03, 1.50914937e-01,
          1.74773574e-01, 1.83109775e-01, 1.03181474e-01, 7.78890252e-02,
          8.03705156e-02, 1.80736437e-01, 1.60167098e-01, 1.83113471e-01,
          5.87760583e-02, 4.80584465e-02, 0., 7.26352930e-02,
          7.07483739e-02, 1.04586512e-01, 1.18816204e-01, 2.34295875e-01,
          1.21073276e-01, 1.87037289e-01, 5.21590598e-02, 1.00714602e-01,
          0., 1.07684359e-01, 6.94215149e-02, 0., 7.49819353e-02,
          4.57124971e-02, 0., 0., 0., 3.96625139e-02, 2.19078466e-01,
          1.08133582e-02, 2.10972890e-01, 1.68324605e-01, 1.68544784e-01,
          9.24691558e-02, 3.70574975e-03, 9.37717594e-03, 3.11615155e-03,
          1.62470967e-01 ]
      - [ 1.40476197e-01, 1.58024058e-01, 2.37930298e-01, 6.76631406e-02,
          1.47499964e-01, 8.16275552e-02, 1.76544532e-01, 6.83999201e-03,
          1.01984285e-01, 4.03033867e-02, 1.26629710e-01, 1.12728603e-01,
          1.87602282e-01, 1.72701597e-01, 1.42687127e-01, 1.25938520e-01,
          2.57255614e-01, 2.58474350e-01, 1.17303142e-02, 6.14163419e-03,
          7.70829767e-02, 0., 5.60220145e-03, 1.04735330e-01,
          2.44655684e-01, 1.63106859e-01, 4.88625392e-02, 0.,
          9.37663615e-02, 7.57788271e-02, 9.63289663e-02, 2.13774711e-01,
          7.75030181e-02, 1.03387535e-01, 0., 8.18453636e-03,
          1.29892886e-01, 1.40728608e-01, 1.51113912e-01, 1.28525078e-01,
          1.44626826e-01, 1.04787469e-01, 1.50656283e-01, 1.21262051e-01,
          4.83660493e-03, 1.25718996e-01, 0., 0., 1.25960350e-01,
          5.75172482e-03, 0., 0., 1.14304714e-01, 9.95933861e-02,
          1.47288933e-01, 1.57306343e-01, 2.46760741e-01, 1.02297992e-01,
          7.88374841e-02, 1.36613309e-01, 5.43964561e-03, 0.,
          5.53006120e-02, 1.46383256e-01 ]
      - [ 1.17636554e-01, 1.70042679e-01, 2.40782887e-01, 1.45679295e-01,
          2.04603851e-01, 1.79307655e-01, 4.67815213e-02, 0.,
          7.23331124e-02, 0., 1.65751353e-01, 7.98489749e-02,
          1.40672281e-01, 2.12588042e-01, 1.46687731e-01, 1.18951254e-01,
          2.88261145e-01, 1.22195415e-01, 1.44029081e-01, 1.09732851e-01,
          1.24751423e-02, 5.86096849e-03, 6.15778826e-02, 8.64427760e-02,
          1.91246212e-01, 1.56309798e-01, 5.76047637e-02, 1.12514168e-01,
          3.33192274e-02, 1.66951165e-01, 1.84007421e-01, 2.35130206e-01,
          4.85618152e-02, 2.09191069e-02, 4.29508239e-02, 9.34029296e-02,
          6.88722879e-02, 1.84085846e-01, 1.43141493e-01, 1.31970719e-01,
          8.42075199e-02, 1.86478570e-01, 9.32465345e-02, 1.31571814e-01,
          4.33944985e-02, 4.72506508e-02, 1.11208763e-02, 3.72902155e-02,
          3.46811488e-02, 0., 8.28866102e-03, 7.36977719e-03,
          1.28468918e-02, 7.94156641e-02, 1.57286078e-01, 1.82275489e-01,
          2.51843542e-01, 1.57434523e-01, 5.84278703e-02, 6.25828328e-03,
          1.24946013e-02, 4.12085764e-02, 8.28866102e-03, 4.45563011e-02 ]
      - [ 1.39118209e-01, 1.75233930e-01, 1.85435101e-01, 1.48864970e-01,
          1.32186741e-01, 1.41338378e-01, 7.48793781e-02, 6.73297122e-02,
          7.76014626e-02, 6.68662786e-02, 1.04355097e-01, 1.13192171e-01,
          1.31810248e-01, 1.95411131e-01, 1.41343594e-01, 8.20148289e-02,
          2.21348584e-01, 1.51202753e-01, 1.51014239e-01, 8.07898194e-02,
          1.44280083e-02, 3.53023782e-02, 4.58563911e-03, 0.,
          2.15420246e-01, 1.30449384e-01, 1.47170722e-01, 8.84825438e-02,
          6.33758157e-02, 1.45729512e-01, 1.67319417e-01, 1.12497784e-01,
          7.48708993e-02, 5.32685705e-02, 1.37008041e-01, 6.15702197e-03,
          8.37130696e-02, 2.14245245e-01, 1.56613410e-01, 1.77528366e-01,
          1.52260557e-01, 1.00650124e-01, 1.08308338e-01, 1.10596433e-01,
          1.23280421e-01, 1.34865105e-01, 5.28043918e-02, 0.,
          1.73798487e-01, 1.11186281e-01, 0., 0., 0., 9.25265476e-02,
          1.70820251e-01, 1.68231055e-01, 1.98852986e-01, 1.67637140e-01,
          1.16111234e-01, 7.75400624e-02, 6.48201182e-02, 1.05478853e-01,
          1.42744482e-01, 8.21674988e-02 ]
      - [ 1.54468805e-01, 2.13873312e-01, 2.44821474e-01, 1.03238067e-02,
          1.43409356e-01, 1.87226400e-01, 1.10686518e-01, 7.68898567e-03,
          8.83566961e-02, 6.37430549e-02, 1.43321201e-01, 1.25313401e-01,
          1.01146035e-01, 1.67295024e-01, 2.08174139e-01, 1.39396831e-01,
          2.36183584e-01, 2.09242910e-01, 1.09220028e-01, 0.,
          1.59344524e-02, 9.81381256e-03, 4.90317792e-02, 8.08545351e-02,
          2.32107833e-01, 1.19512856e-01, 1.01432107e-01, 7.68898567e-03,
          8.56884271e-02, 1.03235118e-01, 1.53623551e-01, 2.50319660e-01,
          4.03300412e-02, 3.63589660e-03, 5.92123270e-02, 8.57071653e-02,
          7.99205750e-02, 1.45971730e-01, 1.54471159e-01, 1.44087806e-01,
          1.41700700e-01, 1.37706459e-01, 1.56070963e-01, 4.63152751e-02,
          1.27434388e-01, 8.43744632e-03, 6.29755761e-03, 0.,
          8.11694041e-02, 5.70844449e-02, 0., 0., 7.48910056e-03,
          1.28887549e-01, 1.46954998e-01, 2.10604027e-01, 2.06914306e-01,
          9.29565281e-02, 1.43346220e-01, 7.56887570e-02, 3.79414931e-02,
          0., 6.71979934e-02, 8.31527635e-02 ]
      - [ 1.82457387e-01, 1.32054612e-01, 2.66173452e-01, 1.18855797e-01,
          1.37651354e-01, 1.24784000e-01, 1.73373312e-01, 1.12367896e-02,
          9.62475985e-02, 8.75910651e-03, 1.34596661e-01, 1.25733614e-01,
          1.37901679e-01, 1.68013647e-01, 1.80135384e-01, 7.82850459e-02,
          2.40265191e-01, 1.81652933e-01, 1.03311673e-01, 4.91590099e-03,
          7.87745342e-02, 3.32944542e-02, 7.89145157e-02, 1.04663238e-01,
          2.37044945e-01, 5.47932386e-02, 3.79721895e-02, 1.38965368e-01,
          9.12376717e-02, 1.65318549e-01, 1.48133248e-01, 2.46616274e-01,
          5.53685501e-02, 4.64917207e-03, 8.43151137e-02, 4.91590099e-03,
          1.03434911e-02, 1.96851179e-01, 1.40000269e-01, 1.03324845e-01,
          1.07065305e-01, 1.22835137e-01, 1.94651499e-01, 7.94561021e-03,
          1.19379468e-01, 4.66775335e-02, 6.67533139e-03, 0.,
          1.33904308e-01, 0., 0., 0., 0., 7.01921880e-02, 2.43700892e-01,
          1.39251366e-01, 1.83841243e-01, 1.04290470e-01, 1.17091119e-01,
          1.42390981e-01, 3.78030799e-02, 0., 6.45160750e-02, 0. ]
      - [ 1.52767226e-01, 1.62096918e-01, 2.13036671e-01, 8.29153582e-02,
          7.77640641e-02, 1.07736252e-01, 4.77308333e-02, 3.73850279e-02,
          9.37257260e-02, 3.10569187e-03, 0., 1.57035038e-01,
          1.91391155e-01, 1.39500886e-01, 1.02498606e-01, 5.19761741e-02,
          1.96638301e-01, 2.04515547e-01, 1.71737969e-01, 1.10763147e-01,
          1.33992778e-02, 2.50758473e-02, 6.21138373e-03, 7.50583708e-02,
          2.06642717e-01, 9.56470594e-02, 1.41071096e-01, 1.17253155e-01,
          9.08869654e-02, 7.41213784e-02, 1.13469586e-01, 9.79793146e-02,
          1.04639277e-01, 7.42093101e-02, 7.66606778e-02, 7.96075314e-02,
          7.16239214e-02, 2.17516497e-01, 1.56105384e-01, 1.77655727e-01,
          1.16288483e-01, 1.20248266e-01, 1.46747708e-01, 1.42908767e-01,
          1.06308453e-01, 1.42753497e-01, 5.85783012e-02, 0.,
          1.76375762e-01, 1.55591786e-01, 0., 0., 3.03020161e-02,
          8.74210522e-02, 1.99095830e-01, 1.11090057e-01, 2.49458864e-01,
          1.84576929e-01, 8.14123601e-02, 1.28046378e-01, 1.16792750e-02,
          6.13446943e-02, 4.39211167e-03, 2.05872729e-01 ]
      - [ 1.79439262e-01, 1.04349010e-01, 1.18438877e-01, 1.85895577e-01,
          1.40176982e-01, 1.30141780e-01, 3.11186947e-02, 9.73050855e-03,
          8.12355056e-02, 9.93478596e-02, 8.13369304e-02, 1.68796495e-01,
          2.49443784e-01, 1.91539511e-01, 1.35365456e-01, 1.47525981e-01,
          3.20321321e-01, 1.72829553e-01, 6.83656558e-02, 9.38852951e-02,
          8.65178090e-03, 1.12683959e-01, 3.81011069e-02, 8.70785490e-02,
          2.34915182e-01, 1.85574517e-01, 4.31205072e-02, 3.48195583e-02,
          7.32202316e-03, 6.89875484e-02, 1.24765590e-01, 2.25143567e-01,
          4.52877544e-02, 3.76187824e-02, 0., 0., 5.47186658e-03,
          1.56349555e-01, 8.83584395e-02, 1.80467173e-01, 1.84690505e-01,
          1.06027387e-01, 7.67971650e-02, 1.23543292e-01, 1.22774199e-01,
          6.39246479e-02, 0., 7.71831721e-02, 1.43125564e-01, 0., 0.,
          4.35168333e-02, 3.86919407e-03, 1.38970688e-01, 1.32911742e-01,
          1.84148490e-01, 1.97615683e-01, 1.23359405e-01, 1.24647811e-01,
          9.12484080e-02, 1.18102379e-01, 0., 5.70796207e-02, 0. ]
      - [ 2.40693212e-01, 1.33944109e-01, 1.34745017e-01, 1.44261464e-01,
          8.65177289e-02, 1.31144315e-01, 1.31959796e-01, 6.92741945e-02,
          7.94378147e-02, 7.01763034e-02, 8.35746750e-02, 7.76716545e-02,
          6.18148558e-02, 1.72917634e-01, 1.95737243e-01, 9.23565775e-02,
          2.59501696e-01, 1.70623019e-01, 1.43364057e-01, 8.02938864e-02,
          1.19883884e-02, 9.07002017e-03, 5.82026411e-03, 7.67107531e-02,
          1.76982954e-01, 1.84502929e-01, 1.02420323e-01, 1.29515648e-01,
          1.44082494e-02, 1.18661799e-01, 2.02490851e-01, 1.54763699e-01,
          8.38235170e-02, 0., 1.03779785e-01, 5.02486667e-03,
          7.11925253e-02, 1.89123228e-01, 1.92936152e-01, 1.61513925e-01,
          1.50405601e-01, 1.77077323e-01, 1.02188990e-01, 1.08431488e-01,
          5.65138040e-03, 1.21411838e-01, 0., 0., 1.52318627e-01,
          4.75222571e-03, 0., 0., 7.99225923e-03, 0., 1.46722719e-01,
          1.82744101e-01, 2.46192977e-01, 1.76213652e-01, 1.28753707e-01,
          0., 9.10403132e-02, 8.45078472e-03, 6.75509050e-02,
          1.40293553e-01 ]
      - [ 2.01210558e-01, 2.30838165e-01, 0., 1.24676414e-01,
          7.15698600e-02, 1.52492478e-01, 5.80029152e-02, 5.11110341e-03,
          1.02189861e-01, 7.09604099e-02, 1.00831762e-01, 1.30287424e-01,
          6.10474609e-02, 2.18356013e-01, 1.45250618e-01, 1.38258889e-01,
          2.98902214e-01, 1.08346619e-01, 1.29502982e-01, 9.37613174e-02,
          1.70149207e-02, 9.08896979e-03, 1.35989133e-02, 1.23918235e-01,
          2.22264975e-01, 1.39890432e-01, 8.84141177e-02, 7.90412277e-02,
          1.52719971e-02, 1.36086896e-01, 1.66255176e-01, 1.39140025e-01,
          6.77722767e-02, 7.71819055e-03, 6.24675043e-02, 0.,
          1.47719115e-01, 1.21368080e-01, 1.57092676e-01, 1.77316189e-01,
          1.81552455e-01, 1.21521369e-01, 1.68617249e-01, 7.10861906e-02,
          5.75518161e-02, 1.05913222e-01, 8.67555216e-02, 5.11110341e-03,
          1.16371930e-01, 0., 4.01423983e-02, 0., 4.06471081e-03,
          2.34758779e-02, 1.71374321e-01, 1.92610279e-01, 1.97838560e-01,
          1.75991684e-01, 1.47674575e-01, 5.49340546e-02, 5.96768036e-02,
          0., 8.93232897e-02, 2.00355828e-01 ]
      - [ 1.48910001e-01, 1.49956316e-01, 1.66657522e-01, 1.60532922e-01,
          8.22444186e-02, 1.21288031e-01, 8.03752337e-03, 7.93073140e-03,
          7.63248354e-02, 1.13667734e-02, 1.28398880e-01, 1.16939940e-01,
          1.14307981e-02, 2.14566424e-01, 1.37689874e-01, 5.46949878e-02,
          1.96314752e-01, 1.71731010e-01, 1.49397448e-01, 1.24385551e-01,
          1.07216956e-02, 0., 8.03752244e-03, 7.10686147e-02,
          1.64306462e-01, 1.22926913e-01, 0., 5.76170906e-02,
          7.47483671e-02, 1.34320259e-01, 1.22268021e-01, 1.26900926e-01,
          9.45079103e-02, 8.53837281e-02, 1.06696300e-01, 7.73284882e-02,
          1.78801984e-01, 2.22939178e-01, 1.44381091e-01, 1.14981994e-01,
          1.18222207e-01, 1.11882776e-01, 1.95142969e-01, 1.36097997e-01,
          1.08882882e-01, 1.23404130e-01, 6.20862991e-02, 4.90669534e-03,
          2.15452850e-01, 1.31057635e-01, 0., 0., 5.51847508e-03,
          6.60906285e-02, 1.48414165e-01, 2.31418237e-01, 2.35085830e-01,
          2.01933324e-01, 1.19799599e-01, 7.91807249e-02, 8.35200679e-03,
          0., 1.03292197e-01, 1.74438834e-01 ]
      - [ 1.96820453e-01, 1.66253537e-01, 4.50753905e-02, 3.87349650e-02,
          6.89194724e-02, 8.67538676e-02, 8.22903123e-03, 1.29394650e-01,
          1.96338639e-01, 6.71897549e-03, 1.03474585e-02, 0.,
          5.43452650e-02, 1.35390237e-01, 1.42103210e-01, 2.36618057e-01,
          2.12277576e-01, 2.02583045e-01, 1.41471848e-01, 5.02360612e-03,
          1.17031569e-02, 5.97410835e-03, 1.29112462e-02, 9.00167823e-02,
          2.33856097e-01, 1.44140825e-01, 1.38914391e-01, 0.,
          1.09771593e-02, 1.29797131e-01, 1.48894176e-01, 1.45410717e-01,
          1.46756083e-01, 0., 0., 0., 3.40569951e-02, 1.59731314e-01,
          1.97585061e-01, 1.93712264e-01, 1.75884947e-01, 1.40650854e-01,
          9.51057598e-02, 1.13959260e-01, 5.64996246e-03, 7.63170496e-02,
          1.34474769e-01, 7.93151110e-02, 1.88272163e-01, 8.59542042e-02,
          0., 0., 0., 3.04620937e-02, 2.00118020e-01, 1.78124711e-01,
          1.96241572e-01, 1.64778113e-01, 1.48255795e-01, 0.,
          1.27264529e-01, 9.88991931e-02, 1.10856093e-01, 1.61261424e-01 ]
      - [ 1.41402856e-01, 1.78736135e-01, 1.79665178e-01, 1.30718872e-01,
          7.51744285e-02, 1.96325511e-01, 3.41518549e-03, 0.,
          9.89564583e-02, 6.68952689e-02, 8.61399248e-02, 8.05162862e-02,
          1.21710904e-01, 1.91400886e-01, 1.58622414e-01, 1.79644868e-01,
          2.46086434e-01, 1.16994709e-01, 9.19222534e-02, 9.56167802e-02,
          1.43874949e-02, 9.76406038e-02, 4.82980162e-03, 6.02154657e-02,
          2.11828858e-01, 1.28208190e-01, 1.11642815e-01, 1.02934323e-01,
          4.58426774e-02, 8.77661034e-02, 1.83630362e-01, 1.86925948e-01,
          7.46672526e-02, 1.03148259e-01, 0., 3.60278450e-02,
          6.91636726e-02, 1.95539087e-01, 2.33460486e-01, 7.08368868e-02,
          1.68271273e-01, 1.42893299e-01, 1.44803479e-01, 0.,
          1.13854572e-01, 1.15658082e-01, 5.57389185e-02, 0.,
          1.19890481e-01, 4.82980162e-03, 0., 7.22223800e-03,
          2.54337788e-02, 5.34060933e-02, 2.14121729e-01, 1.45013392e-01,
          2.05996096e-01, 9.78327766e-02, 1.74799308e-01, 1.05631456e-01,
          4.30145562e-02, 8.61296803e-02, 8.63630623e-02, 1.86809793e-01 ]
      - [ 1.57532886e-01, 1.84561357e-01, 1.81455538e-01, 1.16045475e-01,
          1.23670148e-02, 1.51980251e-01, 6.48728479e-03, 0.,
          8.21898952e-02, 5.61815361e-03, 1.31599173e-01, 1.16951481e-01,
          1.24491096e-01, 1.14821188e-01, 1.51567310e-01, 4.46687341e-02,
          1.04012161e-01, 1.52249947e-01, 1.33018389e-01, 1.03738010e-01,
          7.92942792e-02, 8.75506084e-03, 5.68059087e-02, 1.17780201e-01,
          1.20479345e-01, 1.59081444e-01, 6.88202754e-02, 5.50900251e-02,
          1.10568389e-01, 1.04617104e-01, 1.44632116e-01, 1.86561540e-01,
          8.72821584e-02, 4.36866209e-02, 1.44364983e-01, 1.10949941e-01,
          1.78900063e-01, 1.50384188e-01, 1.51654005e-01, 1.70210972e-01,
          1.25981480e-01, 1.17871195e-01, 1.78000018e-01, 1.20443814e-01,
          9.22544971e-02, 1.50493339e-01, 6.57752454e-02, 0.,
          2.01131493e-01, 1.50971830e-01, 0., 0., 7.71472557e-03,
          4.35933881e-02, 1.61433697e-01, 1.41865581e-01, 3.00240755e-01,
          1.80877715e-01, 1.02769949e-01, 0., 3.85736278e-03,
          8.03332254e-02, 9.53772292e-02, 2.15652898e-01 ]
      - [ 1.17821068e-01, 1.37820035e-01, 2.06849262e-01, 1.76143810e-01,
          1.35322407e-01, 1.86920196e-01, 1.02127604e-02, 0.,
          7.96802416e-02, 7.71263987e-02, 1.38142958e-01, 1.64026767e-01,
          1.17717244e-01, 1.61774039e-01, 1.52861163e-01, 1.00329027e-01,
          1.67411879e-01, 2.36738890e-01, 1.05434179e-01, 6.61592856e-02,
          7.00755864e-02, 4.83149104e-02, 1.29004223e-02, 1.20483570e-01,
          1.19215280e-01, 2.09165007e-01, 1.38633415e-01, 0.,
          9.03012604e-02, 9.36169475e-02, 7.71609768e-02, 1.94321141e-01,
          7.64915571e-02, 7.67821074e-02, 1.05577037e-01, 8.96924511e-02,
          1.67152464e-01, 1.45470008e-01, 1.33581847e-01, 1.64393172e-01,
          8.59899074e-02, 1.38600886e-01, 1.44143343e-01, 7.00347200e-02,
          1.32315978e-01, 1.19237781e-01, 7.92573690e-02, 0.,
          2.38083124e-01, 9.11194235e-02, 0., 2.38099005e-02,
          7.01197004e-03, 6.54921159e-02, 1.62238672e-01, 1.39903978e-01,
          2.44169578e-01, 1.61215588e-01, 1.09272569e-01, 0., 0., 0.,
          1.15924753e-01, 8.32137987e-02 ]
      - [ 1.04435533e-01, 1.55512005e-01, 2.12404564e-01, 1.18856400e-01,
          1.29992962e-01, 1.33333996e-01, 1.22122586e-01, 5.05193770e-02,
          8.52153823e-02, 4.42351541e-03, 1.41712546e-01, 1.12224065e-01,
          1.08667716e-01, 1.76304206e-01, 1.54047668e-01, 1.15346320e-01,
          1.79833248e-01, 2.24369586e-01, 1.59603670e-01, 0.,
          4.55736108e-02, 5.47317825e-02, 5.56227611e-03, 4.95693721e-02,
          1.93705916e-01, 1.93412587e-01, 1.28685996e-01, 0.,
          4.54250239e-02, 1.16970442e-01, 1.54622987e-01, 1.38681188e-01,
          6.92906752e-02, 6.95331320e-02, 1.34836987e-01, 4.42627780e-02,
          1.78462997e-01, 1.73366204e-01, 1.58682317e-01, 1.23493254e-01,
          7.30808675e-02, 1.35814592e-01, 1.70351729e-01, 1.11740269e-01,
          1.01504162e-01, 1.27330586e-01, 0., 7.21357316e-02,
          1.80024430e-01, 1.29180059e-01, 7.01656938e-02, 0.,
          1.23369098e-02, 1.40082017e-01, 1.42194539e-01, 1.39358729e-01,
          2.27927357e-01, 1.12247013e-01, 1.39584661e-01, 9.58354697e-02,
          8.65719169e-02, 7.25858659e-03, 8.33026692e-02, 1.31464675e-01 ]
      - [ 1.55238062e-01, 2.60063678e-01, 1.65015623e-01, 6.15783334e-02,
          2.22241320e-02, 7.42444173e-02, 1.04689732e-01, 8.48521478e-03,
          9.32500884e-02, 1.17252292e-02, 1.27795592e-01, 5.67440502e-03,
          1.22006208e-01, 1.46383792e-01, 1.62127346e-01, 1.53632060e-01,
          2.20912278e-01, 1.76208586e-01, 3.33765820e-02, 7.30807334e-02,
          5.57676964e-02, 1.16879530e-02, 5.80951646e-02, 0.,
          1.59248084e-01, 1.16899602e-01, 6.74804300e-03, 2.35862602e-02,
          6.34637251e-02, 6.95138872e-02, 2.11196005e-01, 1.56480521e-01,
          1.08586192e-01, 1.05550908e-01, 8.66090134e-02, 7.09096715e-02,
          9.82835796e-03, 1.22068204e-01, 2.51245350e-01, 2.12702170e-01,
          1.84821755e-01, 1.45860374e-01, 1.16575852e-01, 9.48615521e-02,
          1.43162236e-01, 1.26513705e-01, 0., 0., 1.76859468e-01, 0., 0.,
          2.80299652e-02, 6.38190471e-03, 0., 2.19411477e-01,
          1.91736847e-01, 2.34965727e-01, 1.74198285e-01, 1.20849289e-01,
          5.67440502e-03, 8.70000571e-02, 2.94140354e-02, 8.10782835e-02,
          1.80958435e-01 ]
      - [ 1.66754633e-01, 1.10800453e-01, 1.75145000e-01, 2.28226513e-01,
          6.90779164e-02, 1.04283474e-01, 7.72459209e-02, 0.,
          1.00758679e-01, 7.08146999e-03, 1.16482005e-01, 1.69350684e-01,
          1.30044863e-01, 2.08001882e-01, 1.11396275e-01, 0.,
          2.22247615e-01, 1.95009261e-01, 1.12057254e-01, 1.07229732e-01,
          6.94052652e-02, 0., 0., 1.15716532e-01, 1.84430465e-01,
          1.66202471e-01, 8.29598680e-02, 1.10308841e-01, 6.80148602e-02,
          8.81655067e-02, 1.12511240e-01, 9.54775438e-02, 9.75019485e-02,
          3.71996313e-02, 9.99185666e-02, 1.27185211e-01, 1.39049083e-01,
          1.89943820e-01, 1.28952876e-01, 1.28671318e-01, 1.62342981e-01,
          1.71695098e-01, 1.22754604e-01, 5.91818569e-03, 1.61391079e-01,
          1.38346925e-01, 0., 7.53302453e-03, 1.15103625e-01,
          1.10651501e-01, 3.00011449e-02, 4.90639508e-02, 8.28791410e-03,
          1.39778271e-01, 1.79946050e-01, 8.38865042e-02, 2.20858246e-01,
          1.42461434e-01, 8.29040855e-02, 1.05843432e-01, 1.17748857e-01,
          0., 7.70808607e-02, 2.22138792e-01 ]
      - [ 1.57217532e-01, 1.93643942e-01, 2.00715795e-01, 6.86748419e-03,
          1.28083741e-02, 1.17405623e-01, 4.59256349e-03, 0.,
          8.37233514e-02, 4.52458523e-02, 5.77484304e-03, 8.93651173e-02,
          1.55412868e-01, 1.24268048e-01, 1.64909288e-01, 1.19989648e-01,
          1.74150169e-01, 2.47307524e-01, 1.17097177e-01, 4.85604489e-03,
          1.15856109e-02, 0., 4.59256349e-03, 2.81572808e-02,
          1.12347335e-01, 1.58949062e-01, 5.76885641e-02, 4.85604489e-03,
          7.58536607e-02, 1.62585661e-01, 1.29124418e-01, 1.19526006e-01,
          9.34989229e-02, 6.49486529e-03, 8.76579285e-02, 1.33695513e-01,
          1.39186978e-01, 2.04646945e-01, 1.64980859e-01, 1.78513825e-01,
          1.32331282e-01, 1.18336983e-01, 1.79267928e-01, 1.35371909e-01,
          1.31176531e-01, 1.00930467e-01, 0., 0., 1.94080561e-01,
          1.22891136e-01, 5.08608222e-02, 0., 9.88330226e-03,
          1.08419903e-01, 2.00129986e-01, 1.66234568e-01, 2.47865155e-01,
          2.06426814e-01, 1.66462615e-01, 4.59680557e-02, 8.83220285e-02,
          0., 1.04384191e-01, 1.52120441e-01 ]
      - [ 1.85318664e-01, 1.46507844e-01, 2.13921964e-01, 1.40865579e-01,
          1.72523633e-01, 1.22768901e-01, 4.28735428e-02, 0.,
          6.28112629e-02, 2.73979027e-02, 1.23991854e-01, 1.58715174e-01,
          1.16385475e-01, 1.55608445e-01, 9.26670209e-02, 5.92620336e-02,
          1.96992382e-01, 1.73570156e-01, 5.03345728e-02, 1.56191334e-01,
          7.72915687e-03, 0., 3.47473398e-02, 0., 2.32276782e-01,
          1.43576324e-01, 3.47900726e-02, 1.43195698e-02, 2.50042826e-02,
          5.25910482e-02, 2.39804655e-01, 1.59657761e-01, 8.59966278e-02,
          3.85901108e-02, 1.56515688e-01, 0., 1.12275749e-01,
          2.25391179e-01, 1.73386663e-01, 8.05352032e-02, 1.47360072e-01,
          1.35458648e-01, 1.33209184e-01, 1.23190179e-01, 1.01958171e-01,
          1.35438845e-01, 7.26657314e-03, 0., 2.04126060e-01,
          5.46303205e-02, 2.36329399e-02, 0., 0., 0., 1.85471401e-01,
          1.82195410e-01, 1.99380800e-01, 2.16562450e-01, 7.18638375e-02,
          8.14188421e-02, 6.84102476e-02, 4.07826155e-02, 9.57095399e-02,
          1.24198824e-01 ]
      - [ 2.02820092e-01, 1.65920794e-01, 8.91203284e-02, 8.77549723e-02,
          1.57338426e-01, 9.11287367e-02, 9.21452269e-02, 9.05250087e-02,
          4.72306088e-02, 9.44163427e-02, 1.04252957e-01, 6.95727542e-02,
          1.10063799e-01, 1.36072814e-01, 2.11211845e-01, 1.48260355e-01,
          2.37875894e-01, 1.35619029e-01, 1.44679889e-01, 8.74392614e-02,
          1.00856144e-02, 0., 8.48095678e-03, 1.04209431e-01,
          2.32403129e-01, 1.71852335e-01, 8.95914808e-02, 3.95035408e-02,
          3.63874882e-02, 4.11212333e-02, 1.58578381e-01, 2.15849325e-01,
          7.98400193e-02, 0., 7.66660124e-02, 5.47103696e-02, 0.,
          1.94339499e-01, 1.95075318e-01, 8.30261707e-02, 1.78908870e-01,
          1.83321983e-01, 8.45728070e-02, 5.63376509e-02, 1.25456035e-01,
          1.32432893e-01, 0., 4.01417911e-02, 1.39179245e-01,
          9.93996486e-02, 0., 4.98398989e-02, 7.13160634e-03,
          6.51550665e-02, 2.22842008e-01, 1.68626845e-01, 1.91178054e-01,
          8.13588575e-02, 1.87709346e-01, 0., 1.05620258e-01,
          4.08898816e-02, 6.43101782e-02, 2.02764392e-01 ]
      - [ 1.63342297e-01, 1.77453324e-01, 1.16262861e-01, 6.39669299e-02,
          4.46458235e-02, 7.69094899e-02, 7.62999058e-02, 8.52680281e-02,
          7.23024309e-02, 1.20621525e-01, 6.22407347e-02, 3.19819413e-02,
          1.64560992e-02, 1.29896343e-01, 2.33500913e-01, 1.97260380e-01,
          1.98242098e-01, 1.79503173e-01, 8.62640589e-02, 5.14707621e-03,
          5.48485368e-02, 6.02276400e-02, 2.88838893e-02, 8.28588828e-02,
          1.33526027e-01, 1.87669829e-01, 0., 7.69667421e-03,
          8.09016377e-02, 2.41369326e-02, 1.62757397e-01, 1.97478563e-01,
          8.47821161e-02, 0., 9.82008874e-02, 0., 7.27224946e-02,
          1.27279460e-01, 2.44443491e-01, 1.52727246e-01, 2.54295886e-01,
          8.18435773e-02, 1.05350837e-01, 1.29756436e-01, 5.66651523e-02,
          8.03572610e-02, 1.81481361e-01, 0., 2.09529936e-01,
          7.40760714e-02, 2.57907901e-02, 0., 0., 4.92799431e-02,
          2.09620357e-01, 1.52498111e-01, 2.42870584e-01, 1.85348421e-01,
          1.46689698e-01, 7.57885426e-02, 0., 1.01832852e-01,
          8.96125808e-02, 1.64117053e-01 ]
      - [ 1.31289035e-01, 1.19931690e-01, 1.93208545e-01, 1.26723677e-01,
          1.09869838e-01, 1.44594267e-01, 7.75309503e-02, 3.48715633e-02,
          1.01886965e-01, 0., 1.58447161e-01, 1.31092370e-01,
          9.38936472e-02, 2.33779088e-01, 8.33599344e-02, 1.36950210e-01,
          1.81236789e-01, 2.08297238e-01, 1.31212518e-01, 1.14890262e-01,
          4.35368717e-02, 7.64836371e-02, 6.52137846e-02, 1.28164142e-01,
          1.81998566e-01, 1.61833405e-01, 1.23566285e-01, 8.88896883e-02,
          1.17457159e-01, 7.54558519e-02, 1.48755640e-01, 1.39509186e-01,
          7.93647319e-02, 7.18447194e-02, 7.85042197e-02, 8.31519142e-02,
          1.56741619e-01, 1.25938609e-01, 1.47681877e-01, 1.74102947e-01,
          1.11007966e-01, 1.34520054e-01, 1.10004634e-01, 1.22188933e-01,
          7.58312494e-02, 1.76980719e-01, 0., 0., 1.80685610e-01, 0.,
          7.76999667e-02, 0., 0., 1.07935846e-01, 1.95360303e-01,
          1.44893959e-01, 2.02936351e-01, 1.08666800e-01, 1.12821415e-01,
          1.03563070e-01, 1.14647277e-01, 0., 0., 2.08822280e-01 ]
      - [ 1.85822397e-01, 1.21813774e-01, 1.35938436e-01, 1.32125109e-01,
          1.30554125e-01, 1.60954341e-01, 1.34914210e-02, 6.19670562e-02,
          6.52419254e-02, 3.68558429e-02, 1.67008206e-01, 1.45035028e-01,
          1.76350653e-01, 2.07154229e-01, 2.08667979e-01, 1.62412629e-01,
          2.85345107e-01, 1.60406977e-01, 1.51187077e-01, 9.03864056e-02,
          1.25268502e-02, 5.75213283e-02, 9.93971806e-03, 1.68925539e-01,
          2.16293126e-01, 3.84054109e-02, 9.84050557e-02, 5.42321876e-02,
          6.77046180e-02, 1.28200024e-01, 8.31193700e-02, 2.49586508e-01,
          1.21945031e-02, 6.62276568e-03, 0., 7.07172276e-03,
          5.20844869e-02, 8.34889933e-02, 1.83804408e-01, 1.50423303e-01,
          1.60933644e-01, 1.44383088e-01, 1.59632251e-01, 1.17791809e-01,
          7.30361044e-02, 0., 9.12252441e-03, 0., 8.86363611e-02,
          3.01855989e-02, 6.25622571e-02, 4.82380465e-02, 0.,
          1.23104714e-01, 1.65209278e-01, 1.98918939e-01, 2.09178120e-01,
          9.20190066e-02, 8.78384560e-02, 1.40364796e-01, 0.,
          7.08524287e-02, 0., 9.12106633e-02 ]
      - [ 1.60873845e-01, 2.07820833e-01, 9.29821432e-02, 1.02236107e-01,
          1.43923596e-01, 1.63164765e-01, 3.45269660e-03, 8.85990486e-02,
          7.10640922e-02, 1.20410919e-02, 1.03518710e-01, 1.11511961e-01,
          7.71808028e-02, 1.28290355e-01, 1.81152195e-01, 1.95970714e-01,
          2.65945524e-01, 1.80784672e-01, 5.71952388e-02, 5.16298600e-03,
          1.59640852e-02, 0., 9.21495259e-03, 1.02038726e-01,
          1.80522859e-01, 1.54167682e-01, 1.41906962e-01, 4.20746431e-02,
          8.07962418e-02, 5.80983683e-02, 1.84149042e-01, 1.69563815e-01,
          8.93933252e-02, 0., 1.10541657e-01, 7.43780956e-02,
          1.20948076e-01, 1.11778788e-01, 2.00664759e-01, 2.06321821e-01,
          1.34242907e-01, 1.63845554e-01, 1.25295565e-01, 6.55608019e-03,
          1.20560348e-01, 1.32192284e-01, 0., 0., 1.33462682e-01, 0., 0.,
          0., 0., 8.20170641e-02, 1.95412084e-01, 1.71245411e-01,
          2.06387311e-01, 1.59363329e-01, 1.72900617e-01, 0.,
          5.66525832e-02, 1.02565140e-01, 0., 1.85409322e-01 ]
      - [ 1.67888552e-01, 1.57757476e-01, 2.10264727e-01, 1.15711689e-01,
          1.05198793e-01, 1.50143698e-01, 1.04371630e-01, 5.70506565e-02,
          1.06264435e-01, 9.95675325e-02, 1.14210583e-01, 1.00619733e-01,
          1.28209278e-01, 2.45986432e-01, 7.75798857e-02, 0.,
          2.33878568e-01, 2.09828079e-01, 1.61269277e-01, 6.62739202e-03,
          6.60952404e-02, 2.07992848e-02, 6.66692778e-02, 9.20566991e-02,
          2.24871978e-01, 1.40683129e-01, 1.18711196e-01, 1.21340521e-01,
          7.83027932e-02, 7.69399703e-02, 1.53594971e-01, 1.48324981e-01,
          1.02585144e-01, 0., 8.31297785e-02, 6.57224730e-02,
          1.38131604e-01, 1.60053417e-01, 9.82311741e-02, 1.33505285e-01,
          1.54310703e-01, 6.72695264e-02, 1.84499279e-01, 4.99809533e-02,
          1.16642721e-01, 1.35856241e-01, 0., 4.68627363e-03,
          1.72828048e-01, 5.79990596e-02, 0., 4.11252789e-02,
          6.62739202e-03, 1.67870834e-01, 1.32979900e-01, 1.36426777e-01,
          2.44838879e-01, 1.05185933e-01, 0., 1.33104891e-01,
          8.87409151e-02, 4.57538888e-02, 7.24718571e-02, 1.43645614e-01 ]
      - [ 1.68987826e-01, 7.30533078e-02, 2.18607858e-01, 1.85381517e-01,
          8.42346624e-02, 1.49754107e-01, 7.53818778e-03, 0.,
          1.03372805e-01, 8.03534091e-02, 4.86195087e-02, 1.67973876e-01,
          2.13977158e-01, 1.41183004e-01, 1.04586393e-01, 1.05132557e-01,
          2.01544508e-01, 2.26601243e-01, 1.20794468e-01, 9.62011591e-02,
          5.47328927e-02, 8.36987346e-02, 0., 1.29482463e-01,
          1.78910255e-01, 1.79386571e-01, 1.52990565e-01, 7.16140941e-02,
          5.62226884e-02, 9.13049430e-02, 1.35540307e-01, 1.29806787e-01,
          1.09330468e-01, 6.20089956e-02, 9.03548747e-02, 0.,
          1.32177934e-01, 8.91134590e-02, 1.72426060e-01, 1.83839813e-01,
          1.26611307e-01, 1.60148412e-01, 1.23439439e-01, 8.21984094e-03,
          1.09310597e-01, 1.26069933e-01, 1.01477459e-01, 5.07364869e-02,
          1.49436623e-01, 8.50118399e-02, 6.12668097e-02, 0.,
          6.86949724e-03, 2.94546671e-02, 1.41337305e-01, 1.88340530e-01,
          2.41582394e-01, 1.20978929e-01, 8.45149830e-02, 0., 0., 0.,
          9.98453423e-02, 2.15715036e-01 ]
      - [ 1.71230659e-01, 1.90187827e-01, 1.04842201e-01, 4.24433574e-02,
          5.82460575e-02, 1.10684678e-01, 9.61013138e-02, 8.41370504e-03,
          1.29246727e-01, 1.57992184e-01, 0., 0., 6.16643839e-02,
          1.65872902e-01, 1.38473198e-01, 1.79452047e-01, 2.36184746e-01,
          1.34542242e-01, 1.68618783e-01, 1.13633163e-02, 1.55088417e-02,
          8.01188312e-03, 8.82803928e-03, 1.20875865e-01, 2.19654664e-01,
          1.66058511e-01, 8.11759606e-02, 6.86976174e-03, 1.53074777e-02,
          8.01812634e-02, 1.36084229e-01, 1.94159195e-01, 8.80086496e-02,
          6.66608959e-02, 6.68958351e-02, 0., 1.43320054e-01,
          1.45431280e-01, 1.83167666e-01, 1.61003828e-01, 1.67266682e-01,
          1.42605051e-01, 8.50635991e-02, 9.21318755e-02, 1.22183584e-01,
          1.54810175e-01, 9.92981121e-02, 6.51264712e-02, 1.66956007e-01,
          1.17001012e-01, 0., 0., 6.86976174e-03, 2.92466078e-02,
          2.11319953e-01, 2.02309832e-01, 2.06419140e-01, 1.35929093e-01,
          1.48291782e-01, 7.83005580e-02, 3.33061740e-02, 4.90292311e-02,
          8.22669044e-02, 2.17306569e-01 ]
      - [ 1.57614216e-01, 1.06166199e-01, 1.89997151e-01, 1.38485506e-01,
          1.61784470e-01, 1.08421952e-01, 0., 0., 8.10211301e-02,
          4.19114269e-02, 1.14410095e-01, 1.54322848e-01, 1.42154098e-01,
          2.17163995e-01, 1.67684659e-01, 6.18850766e-03, 1.73139304e-01,
          2.05812007e-01, 7.74485096e-02, 5.85356578e-02, 1.06647521e-01,
          7.78687820e-02, 6.63882568e-02, 6.46892488e-02, 1.46593273e-01,
          1.62656695e-01, 1.39791042e-01, 1.15167946e-01, 1.41100008e-02,
          1.30158350e-01, 1.34759307e-01, 1.57093778e-01, 9.45401043e-02,
          4.00807299e-02, 1.13577947e-01, 0., 1.49221003e-01,
          1.49682552e-01, 2.03104407e-01, 1.67280927e-01, 1.13972798e-01,
          1.35868967e-01, 1.22321911e-01, 1.21815056e-01, 1.25838473e-01,
          1.34626731e-01, 0., 4.29370143e-02, 3.75831872e-02,
          8.14921334e-02, 8.30435529e-02, 9.24634114e-02, 7.71275759e-02,
          1.08848803e-01, 1.67831972e-01, 1.20511957e-01, 1.33883998e-01,
          1.54976100e-01, 1.64854914e-01, 1.65487334e-01, 9.29696783e-02,
          1.23124868e-01, 1.13412753e-01, 1.72757491e-01 ]
      - [ 1.37904420e-01, 9.18765590e-02, 2.34189823e-01, 1.43538401e-01,
          1.60230696e-01, 1.25771552e-01, 2.14780327e-02, 4.08405811e-02,
          7.61230215e-02, 3.38362977e-02, 1.04066841e-01, 9.59772393e-02,
          1.44053757e-01, 1.95454314e-01, 1.22727849e-01, 6.76724315e-02,
          2.10894600e-01, 2.02335864e-01, 1.20189086e-01, 1.06719330e-01,
          4.96374331e-02, 5.34822186e-03, 0., 1.25552535e-01,
          1.91816747e-01, 1.37492061e-01, 1.16848275e-01, 1.16164543e-01,
          1.01916187e-01, 1.25507444e-01, 1.35626718e-01, 1.10007003e-01,
          9.72274989e-02, 0., 1.31179854e-01, 1.08475015e-01,
          7.94277042e-02, 1.81010276e-01, 2.12794468e-01, 9.78440270e-02,
          1.40012339e-01, 1.22157790e-01, 1.15884744e-01, 1.34598151e-01,
          1.35807291e-01, 1.02993496e-01, 3.00752604e-03, 2.92869043e-02,
          1.24965131e-01, 7.47495145e-02, 1.09376937e-01, 5.22546284e-02,
          1.01160714e-02, 1.00616217e-01, 1.99483156e-01, 1.04203656e-01,
          1.86878040e-01, 1.56315684e-01, 1.72947899e-01, 1.05677873e-01,
          1.85984615e-02, 7.54420012e-02, 2.98893880e-02, 2.15447128e-01 ]
      - [ 1.57614216e-01, 1.06166199e-01, 1.89997151e-01, 1.38485506e-01,
          1.61784470e-01, 1.08421952e-01, 0., 0., 8.10211301e-02,
          4.19114269e-02, 1.14410095e-01, 1.54322848e-01, 1.42154098e-01,
          2.17163995e-01, 1.67684659e-01, 6.18850766e-03, 1.73139304e-01,
          2.05812007e-01, 7.74485096e-02, 5.85356578e-02, 1.06647521e-01,
          7.78687820e-02, 6.63882568e-02, 6.46892488e-02, 1.46593273e-01,
          1.62656695e-01, 1.39791042e-01, 1.15167946e-01, 1.41100008e-02,
          1.30158350e-01, 1.34759307e-01, 1.57093778e-01, 9.45401043e-02,
          4.00807299e-02, 1.13577947e-01, 0., 1.49221003e-01,
          1.49682552e-01, 2.03104407e-01, 1.67280927e-01, 1.13972798e-01,
          1.35868967e-01, 1.22321911e-01, 1.21815056e-01, 1.25838473e-01,
          1.34626731e-01, 0., 4.29370143e-02, 3.75831872e-02,
          8.14921334e-02, 8.30435529e-02, 9.24634114e-02, 7.71275759e-02,
          1.08848803e-01, 1.67831972e-01, 1.20511957e-01, 1.33883998e-01,
          1.54976100e-01, 1.64854914e-01, 1.65487334e-01, 9.29696783e-02,
          1.23124868e-01, 1.13412753e-01, 1.72757491e-01 ]
      - [ 1.57199979e-01, 1.59642637e-01, 1.99198782e-01, 0.,
          6.52862107e-03, 1.33916125e-01, 1.18047833e-01, 5.16046435e-02,
          1.66942582e-01, 6.14778139e-02, 8.26221406e-02, 3.72425802e-02,
          6.61824122e-02, 2.34444767e-01, 1.53951332e-01, 9.63256061e-02,
          2.59523749e-01, 1.94375783e-01, 4.69824634e-02, 1.23052962e-01,
          4.14416455e-02, 0., 3.16959177e-03, 4.73964494e-03,
          2.75191456e-01, 1.42510757e-01, 4.68142070e-02, 8.82016718e-02,
          2.82988865e-02, 4.94357981e-02, 1.76707312e-01, 1.32904708e-01,
          1.52870908e-01, 7.62910098e-02, 0., 0., 1.50724009e-01,
          1.10399812e-01, 1.57933772e-01, 1.75021514e-01, 1.84544683e-01,
          1.41314432e-01, 6.10713176e-02, 1.10118821e-01, 9.01770368e-02,
          8.61620829e-02, 1.26292020e-01, 0., 1.46204606e-01,
          1.03385068e-01, 0., 0., 3.45908031e-02, 0., 1.99446127e-01,
          1.62367299e-01, 2.04185233e-01, 1.39123425e-01, 1.49030238e-01,
          6.01115227e-02, 6.82422519e-02, 4.97837253e-02, 6.50811344e-02,
          2.05618843e-01 ]
      - [ 1.39118209e-01, 1.75233930e-01, 1.85435101e-01, 1.48864970e-01,
          1.32186741e-01, 1.41338378e-01, 7.48793781e-02, 6.73297122e-02,
          7.76014626e-02, 6.68662786e-02, 1.04355097e-01, 1.13192171e-01,
          1.31810248e-01, 1.95411131e-01, 1.41343594e-01, 8.20148289e-02,
          2.21348584e-01, 1.51202753e-01, 1.51014239e-01, 8.07898194e-02,
          1.44280083e-02, 3.53023782e-02, 4.58563911e-03, 0.,
          2.15420246e-01, 1.30449384e-01, 1.47170722e-01, 8.84825438e-02,
          6.33758157e-02, 1.45729512e-01, 1.67319417e-01, 1.12497784e-01,
          7.48708993e-02, 5.32685705e-02, 1.37008041e-01, 6.15702197e-03,
          8.37130696e-02, 2.14245245e-01, 1.56613410e-01, 1.77528366e-01,
          1.52260557e-01, 1.00650124e-01, 1.08308338e-01, 1.10596433e-01,
          1.23280421e-01, 1.34865105e-01, 5.28043918e-02, 0.,
          1.73798487e-01, 1.11186281e-01, 0., 0., 0., 9.25265476e-02,
          1.70820251e-01, 1.68231055e-01, 1.98852986e-01, 1.67637140e-01,
          1.16111234e-01, 7.75400624e-02, 6.48201182e-02, 1.05478853e-01,
          1.42744482e-01, 8.21674988e-02 ]
      - [ 2.45273992e-01, 1.38197944e-01, 1.25715613e-01, 0.,
          1.41187251e-01, 1.57858789e-01, 8.53788853e-02, 0.,
          1.09789118e-01, 1.11560799e-01, 9.05484613e-03, 5.42117096e-02,
          9.74608660e-02, 1.43262982e-01, 1.47965476e-01, 1.49926215e-01,
          2.88946837e-01, 1.25684872e-01, 4.03289683e-02, 3.33140381e-02,
          1.02344118e-02, 0., 5.81052620e-03, 1.11464880e-01,
          2.11017549e-01, 1.92898482e-01, 9.85129997e-02, 6.62864596e-02,
          1.26891108e-02, 7.33349621e-02, 1.31316230e-01, 2.03241691e-01,
          1.01867616e-01, 9.60936844e-02, 9.28569436e-02, 0., 0.,
          1.42136395e-01, 2.20752791e-01, 1.50538564e-01, 1.66137397e-01,
          1.52818471e-01, 1.21389911e-01, 1.22102290e-01, 0.,
          8.42426494e-02, 9.86706614e-02, 0., 1.11170560e-01,
          1.28615871e-01, 0., 0., 0., 1.10596985e-01, 1.65466323e-01,
          1.56700268e-01, 2.58426607e-01, 1.53734624e-01, 1.18224911e-01,
          6.37001870e-03, 4.93556522e-02, 7.83970952e-02, 1.00037776e-01,
          2.07392350e-01 ]
      - [ 1.93779752e-01, 1.28666043e-01, 1.26954988e-01, 1.46204114e-01,
          1.17488414e-01, 5.48172593e-02, 5.80684766e-02, 4.69326042e-02,
          7.92339370e-02, 1.08149787e-02, 9.72696617e-02, 1.67221338e-01,
          1.42509609e-01, 1.98815465e-01, 1.81363925e-01, 1.07652277e-01,
          1.23350233e-01, 1.73393384e-01, 1.44339308e-01, 8.83873999e-02,
          1.32654428e-01, 0., 7.90996030e-02, 8.81760642e-02,
          1.49148613e-01, 1.50505736e-01, 9.00079459e-02, 9.49044228e-02,
          1.12620123e-01, 1.38160631e-01, 1.84071660e-01, 1.29293486e-01,
          7.84392729e-02, 0., 4.30967547e-02, 0., 7.17443414e-03,
          2.02574164e-01, 1.49255022e-01, 1.58613220e-01, 1.71500787e-01,
          1.06854156e-01, 1.23206325e-01, 1.30968124e-01, 2.20502883e-01,
          2.39047594e-02, 4.76649143e-02, 5.12115583e-02, 1.96593016e-01,
          8.92514214e-02, 6.88149557e-02, 8.19967780e-03, 4.12139855e-02,
          0., 2.05540121e-01, 1.17116332e-01, 2.44818121e-01,
          1.30876839e-01, 1.48584038e-01, 1.16957709e-01, 8.41592476e-02,
          0., 0., 1.87568814e-01 ]
      - [ 1.39238387e-01, 1.24705888e-01, 2.29701936e-01, 1.69040024e-01,
          1.52433189e-02, 1.29449978e-01, 3.35680670e-03, 0.,
          9.52130631e-02, 6.80785626e-02, 1.07938670e-01, 7.28666931e-02,
          1.16575003e-01, 1.75797805e-01, 1.20308504e-01, 9.23843831e-02,
          1.52981088e-01, 2.37005249e-01, 7.98337385e-02, 7.86996856e-02,
          1.12909069e-02, 7.86202699e-02, 7.78979156e-03, 1.01325966e-01,
          1.34228572e-01, 1.55134186e-01, 8.39500427e-02, 6.81876168e-02,
          1.39651775e-01, 1.20705135e-01, 1.28376096e-01, 1.46850228e-01,
          5.64545346e-03, 8.01867247e-02, 1.44925445e-01, 1.05547823e-01,
          1.52221248e-01, 2.51535267e-01, 1.66246921e-01, 4.39752899e-02,
          1.33121014e-01, 1.12259060e-01, 1.33943021e-01, 1.51994675e-01,
          1.22858554e-01, 1.13952570e-01, 0., 0., 1.70964420e-01,
          1.47546723e-01, 0., 0., 0., 3.88665013e-02, 1.89445049e-01,
          1.98467538e-01, 2.25477114e-01, 1.64955541e-01, 1.16621792e-01,
          1.31075799e-01, 0., 7.22766593e-02, 9.19429585e-02,
          1.71812415e-01 ]
      - [ 1.15589447e-01, 1.00118622e-01, 1.99035957e-01, 1.85064912e-01,
          1.05261631e-01, 7.93033540e-02, 8.36502109e-03, 0.,
          8.52436200e-02, 8.71578604e-02, 1.32394001e-01, 1.06171995e-01,
          1.40701756e-01, 2.11802781e-01, 1.56099170e-01, 1.35848552e-01,
          2.22394034e-01, 2.16973662e-01, 6.55863285e-02, 9.79882330e-02,
          6.68685362e-02, 1.03835491e-02, 1.61485653e-02, 5.65452389e-02,
          2.05168262e-01, 1.21418402e-01, 1.18860193e-01, 6.88674003e-02,
          1.04190297e-01, 4.58132215e-02, 1.48234606e-01, 9.90851223e-02,
          8.21316540e-02, 3.41500575e-03, 7.46633187e-02, 8.64039585e-02,
          1.08774215e-01, 1.91967979e-01, 1.57746226e-01, 1.59764037e-01,
          1.47286758e-01, 1.64689302e-01, 1.28419265e-01, 1.18436180e-01,
          6.36558682e-02, 1.56466171e-01, 1.15126371e-01, 0.,
          1.31591618e-01, 1.30071372e-01, 4.95891012e-02, 0.,
          8.53534713e-02, 1.40170708e-01, 1.42729953e-01, 1.84192568e-01,
          1.83671996e-01, 1.52257651e-01, 1.22973301e-01, 1.47644505e-01,
          5.65285906e-02, 0., 7.37228990e-02, 1.86632290e-01 ]
      - [ 1.47557750e-01, 1.18451118e-01, 2.35398978e-01, 1.73609063e-01,
          1.08657300e-01, 1.71137273e-01, 1.29307583e-01, 4.54459675e-02,
          8.60630274e-02, 3.16150207e-03, 1.26579791e-01, 1.45386130e-01,
          1.54847831e-01, 2.01839641e-01, 1.44681200e-01, 6.22055270e-02,
          2.76163757e-01, 2.31045052e-01, 1.11525565e-01, 8.92437622e-02,
          1.06339827e-02, 6.41956599e-03, 1.25400662e-01, 1.35685086e-01,
          1.29005849e-01, 1.76740602e-01, 1.32328957e-01, 0.,
          7.73531348e-02, 1.07672676e-01, 1.96940675e-01, 1.31223798e-01,
          5.93267605e-02, 5.62203396e-03, 1.04333661e-01, 0.,
          1.48353904e-01, 1.66406110e-01, 1.34278759e-01, 1.21822335e-01,
          8.19403380e-02, 1.11963548e-01, 1.49769470e-01, 1.23657197e-01,
          5.31699136e-03, 1.23278543e-01, 0., 0., 1.06016740e-01,
          5.47588198e-03, 1.02188727e-02, 0., 4.82724495e-02,
          4.89718504e-02, 1.79119393e-01, 1.41413942e-01, 2.23159954e-01,
          1.85967058e-01, 8.78103971e-02, 6.26317486e-02, 9.16212872e-02,
          0., 7.14262575e-02, 1.20207265e-01 ]
      - [ 2.40693212e-01, 1.33944109e-01, 1.34745017e-01, 1.44261464e-01,
          8.65177289e-02, 1.31144315e-01, 1.31959796e-01, 6.92741945e-02,
          7.94378147e-02, 7.01763034e-02, 8.35746750e-02, 7.76716545e-02,
          6.18148558e-02, 1.72917634e-01, 1.95737243e-01, 9.23565775e-02,
          2.59501696e-01, 1.70623019e-01, 1.43364057e-01, 8.02938864e-02,
          1.19883884e-02, 9.07002017e-03, 5.82026411e-03, 7.67107531e-02,
          1.76982954e-01, 1.84502929e-01, 1.02420323e-01, 1.29515648e-01,
          1.44082494e-02, 1.18661799e-01, 2.02490851e-01, 1.54763699e-01,
          8.38235170e-02, 0., 1.03779785e-01, 5.02486667e-03,
          7.11925253e-02, 1.89123228e-01, 1.92936152e-01, 1.61513925e-01,
          1.50405601e-01, 1.77077323e-01, 1.02188990e-01, 1.08431488e-01,
          5.65138040e-03, 1.21411838e-01, 0., 0., 1.52318627e-01,
          4.75222571e-03, 0., 0., 7.99225923e-03, 0., 1.46722719e-01,
          1.82744101e-01, 2.46192977e-01, 1.76213652e-01, 1.28753707e-01,
          0., 9.10403132e-02, 8.45078472e-03, 6.75509050e-02,
          1.40293553e-01 ]
      - [ 1.85453206e-01, 1.93480209e-01, 2.27205083e-01, 7.08193704e-02,
          1.32483199e-01, 1.63588926e-01, 1.18402563e-01, 1.39866900e-02,
          1.06808797e-01, 0., 1.11642048e-01, 1.38390988e-01,
          1.91083550e-01, 2.07515240e-01, 1.29964501e-01, 5.74121140e-02,
          2.69404024e-01, 2.11295918e-01, 7.32041523e-02, 7.26821497e-02,
          1.11954220e-01, 9.15622991e-03, 5.00175953e-02, 1.01097904e-01,
          2.03120008e-01, 1.60281807e-01, 0., 6.91662580e-02,
          6.05905280e-02, 1.50936559e-01, 1.55435637e-01, 1.66056216e-01,
          6.42931759e-02, 4.79739532e-03, 6.81088939e-02, 5.20816781e-02,
          9.03491229e-02, 1.79250926e-01, 1.59460038e-01, 1.46997616e-01,
          1.13008693e-01, 1.32516816e-01, 1.39095023e-01, 1.15965158e-01,
          1.31664187e-01, 0., 3.39227077e-03, 0., 1.15658961e-01,
          5.31062782e-02, 0., 7.58534810e-03, 4.49286029e-02,
          7.34968930e-02, 1.53602466e-01, 2.17594340e-01, 2.22915769e-01,
          7.18510523e-02, 1.13592170e-01, 3.31358835e-02, 8.94034952e-02,
          6.26428425e-02, 5.11691198e-02, 9.88729745e-02 ]
      - [ 1.73987255e-01, 1.30425319e-01, 1.77777380e-01, 1.04505420e-01,
          1.16338879e-01, 1.36498392e-01, 9.08749774e-02, 1.59668233e-02,
          1.18398882e-01, 7.16790631e-02, 6.87109381e-02, 1.29747257e-01,
          7.06484988e-02, 2.20339090e-01, 2.05964863e-01, 1.48779690e-01,
          2.44989738e-01, 2.18848944e-01, 1.17490038e-01, 1.33239716e-01,
          9.80449189e-03, 2.42870729e-02, 7.03658443e-03, 1.50914937e-01,
          1.74773574e-01, 1.83109775e-01, 1.03181474e-01, 7.78890252e-02,
          8.03705156e-02, 1.80736437e-01, 1.60167098e-01, 1.83113471e-01,
          5.87760583e-02, 4.80584465e-02, 0., 7.26352930e-02,
          7.07483739e-02, 1.04586512e-01, 1.18816204e-01, 2.34295875e-01,
          1.21073276e-01, 1.87037289e-01, 5.21590598e-02, 1.00714602e-01,
          0., 1.07684359e-01, 6.94215149e-02, 0., 7.49819353e-02,
          4.57124971e-02, 0., 0., 0., 3.96625139e-02, 2.19078466e-01,
          1.08133582e-02, 2.10972890e-01, 1.68324605e-01, 1.68544784e-01,
          9.24691558e-02, 3.70574975e-03, 9.37717594e-03, 3.11615155e-03,
          1.62470967e-01 ]
      - [ 1.53478190e-01, 1.76546842e-01, 2.75845110e-01, 1.15864731e-01,
          1.30122498e-01, 1.62268519e-01, 1.31841436e-01, 8.07035565e-02,
          9.83019173e-02, 8.42101406e-03, 1.48206189e-01, 1.21448159e-01,
          1.44687131e-01, 1.62811339e-01, 1.45676345e-01, 1.02065817e-01,
          2.72487104e-01, 1.23194560e-01, 9.35028121e-02, 5.08886576e-03,
          9.89041775e-02, 0., 3.40312975e-03, 9.42921191e-02,
          2.25067213e-01, 4.81275190e-03, 9.63743329e-02, 5.72587959e-02,
          1.51994705e-01, 1.88361764e-01, 1.25990391e-01, 2.24663824e-01,
          5.59310131e-02, 0., 9.06892419e-02, 6.46196119e-03,
          8.09698552e-02, 1.82760596e-01, 1.40663445e-01, 1.05601579e-01,
          1.25860214e-01, 8.83913413e-02, 2.16946021e-01, 8.21766071e-03,
          9.66984928e-02, 9.22669992e-02, 5.89439366e-03, 0.,
          1.07461169e-01, 5.75292632e-02, 0., 0., 8.09405185e-03,
          1.21953122e-01, 1.50255129e-01, 2.17344955e-01, 2.09044382e-01,
          9.96435210e-02, 7.21654221e-02, 1.23361938e-01, 7.61074200e-02,
          5.14041632e-02, 3.40312975e-03, 7.02189952e-02 ]
      - [ 2.10864723e-01, 1.99393719e-01, 8.90104696e-02, 9.66164842e-02,
          9.94130131e-03, 1.41346604e-01, 1.47122785e-01, 4.87279007e-03,
          1.04845129e-01, 4.63977531e-02, 1.23446427e-01, 6.18758332e-03,
          1.01341128e-01, 1.64694831e-01, 1.63756534e-01, 1.48841947e-01,
          2.28042170e-01, 1.67043924e-01, 6.05196878e-02, 4.82762530e-02,
          1.02527821e-02, 5.79475705e-03, 0., 4.11169901e-02,
          2.42250547e-01, 1.94991916e-01, 8.92353952e-02, 6.01112545e-02,
          7.83619881e-02, 2.51318626e-02, 1.27569079e-01, 2.69995779e-01,
          8.22051391e-02, 1.02266766e-01, 2.91289911e-02, 5.09828180e-02,
          8.25290661e-03, 2.02053934e-01, 1.76439613e-01, 1.68862209e-01,
          1.66814879e-01, 1.18766561e-01, 1.09471068e-01, 1.43165037e-01,
          1.12312697e-01, 0., 2.96886470e-02, 3.75883318e-02,
          1.46868601e-01, 0., 0., 0., 3.87518737e-03, 4.38407362e-02,
          1.82205498e-01, 2.01531634e-01, 2.14966998e-01, 1.06689006e-01,
          1.21514298e-01, 1.36025488e-01, 0., 5.33428751e-02,
          1.03310935e-01, 1.94431573e-01 ]
      - [ 1.89186648e-01, 1.85772747e-01, 2.13898346e-01, 1.42049372e-01,
          5.84573895e-02, 2.19086364e-01, 5.21580875e-02, 0.,
          8.98755044e-02, 4.00645770e-02, 1.32443056e-01, 1.32198572e-01,
          1.47551388e-01, 2.56336659e-01, 1.27497599e-01, 4.99937683e-03,
          2.69641370e-01, 2.30318666e-01, 5.84077612e-02, 4.34307121e-02,
          8.87089521e-02, 0., 6.01333641e-02, 9.61058438e-02,
          2.01842830e-01, 1.59986570e-01, 1.32669851e-01, 6.87996149e-02,
          1.49381580e-02, 1.09631844e-01, 1.65674508e-01, 2.20157281e-01,
          5.28912656e-02, 6.68656966e-03, 6.78868406e-03, 7.01083466e-02,
          3.97585798e-03, 1.58804491e-01, 1.37573689e-01, 1.71958521e-01,
          1.38217852e-01, 1.19850449e-01, 1.67379469e-01, 8.99341609e-03,
          1.26268342e-01, 0., 0., 0., 7.35821649e-02, 6.25885800e-02,
          6.78868406e-03, 0., 6.38758298e-03, 1.62315264e-01,
          1.61811844e-01, 1.34324998e-01, 2.24362165e-01, 7.72275329e-02,
          1.25092670e-01, 1.18678443e-01, 3.47527899e-02, 4.83247302e-02,
          6.28748611e-02, 0. ]
      - [ 1.03873163e-01, 6.79559186e-02, 2.34705687e-01, 1.89281359e-01,
          7.08622038e-02, 1.25636160e-01, 6.74030557e-03, 4.34332760e-03,
          7.72041380e-02, 4.54642847e-02, 1.25921965e-01, 1.46883294e-01,
          1.20517991e-01, 1.41468748e-01, 1.13840856e-01, 1.12373605e-01,
          1.87875316e-01, 2.28190243e-01, 4.57417704e-02, 5.56636639e-02,
          8.93016681e-02, 8.74044467e-03, 6.57425774e-03, 1.33248553e-01,
          1.40840739e-01, 1.85350254e-01, 7.89816976e-02, 8.25512409e-03,
          1.25689074e-01, 9.43821296e-02, 1.30481035e-01, 1.28148094e-01,
          7.80938715e-02, 4.51860912e-02, 1.16356798e-01, 1.69472203e-01,
          1.43051803e-01, 1.75572544e-01, 1.41069323e-01, 9.71590653e-02,
          1.51125118e-01, 1.39761329e-01, 9.44760367e-02, 1.40629455e-01,
          1.46796286e-01, 1.33343905e-01, 4.73726019e-02, 0.,
          2.05745041e-01, 1.54729307e-01, 4.35737483e-02, 0.,
          1.00996932e-02, 1.38526440e-01, 1.33793369e-01, 2.23949209e-01,
          2.03232154e-01, 1.24765597e-01, 1.21888198e-01, 1.03671111e-01,
          8.89796764e-02, 9.12295356e-02, 1.31930426e-01, 1.21862814e-01 ]
      - [ 1.73987255e-01, 1.30425319e-01, 1.77777380e-01, 1.04505420e-01,
          1.16338879e-01, 1.36498392e-01, 9.08749774e-02, 1.59668233e-02,
          1.18398882e-01, 7.16790631e-02, 6.87109381e-02, 1.29747257e-01,
          7.06484988e-02, 2.20339090e-01, 2.05964863e-01, 1.48779690e-01,
          2.44989738e-01, 2.18848944e-01, 1.17490038e-01, 1.33239716e-01,
          9.80449189e-03, 2.42870729e-02, 7.03658443e-03, 1.50914937e-01,
          1.74773574e-01, 1.83109775e-01, 1.03181474e-01, 7.78890252e-02,
          8.03705156e-02, 1.80736437e-01, 1.60167098e-01, 1.83113471e-01,
          5.87760583e-02, 4.80584465e-02, 0., 7.26352930e-02,
          7.07483739e-02, 1.04586512e-01, 1.18816204e-01, 2.34295875e-01,
          1.21073276e-01, 1.87037289e-01, 5.21590598e-02, 1.00714602e-01,
          0., 1.07684359e-01, 6.94215149e-02, 0., 7.49819353e-02,
          4.57124971e-02, 0., 0., 0., 3.96625139e-02, 2.19078466e-01,
          1.08133582e-02, 2.10972890e-01, 1.68324605e-01, 1.68544784e-01,
          9.24691558e-02, 3.70574975e-03, 9.37717594e-03, 3.11615155e-03,
          1.62470967e-01 ]
      - [ 1.26808122e-01, 1.51277214e-01, 2.29392633e-01, 1.52744949e-01,
          1.58090040e-01, 1.46400303e-01, 4.52503078e-02, 0.,
          9.24582183e-02, 4.90332507e-02, 1.56004995e-01, 1.31332457e-01,
          1.61795542e-01, 1.73087090e-01, 1.20832391e-01, 8.99291784e-02,
          2.18629435e-01, 2.39030898e-01, 1.10848859e-01, 2.95980740e-02,
          4.71408926e-02, 1.00354172e-01, 9.40203369e-02, 1.01871051e-01,
          1.81280732e-01, 1.66978851e-01, 8.17837939e-02, 1.21569850e-01,
          1.34449184e-01, 1.60084113e-01, 1.06450737e-01, 8.03353712e-02,
          1.01609960e-01, 0., 8.27867761e-02, 6.64191619e-02,
          1.35105938e-01, 1.75050586e-01, 5.81143200e-02, 1.45234063e-01,
          1.54243320e-01, 6.88176826e-02, 1.83994696e-01, 4.93833162e-02,
          1.27363771e-01, 1.21080033e-01, 3.11991107e-03, 0.,
          1.81809381e-01, 0., 5.26459888e-02, 0., 3.94860506e-02,
          1.43698022e-01, 1.50921047e-01, 1.24710947e-01, 1.78738937e-01,
          2.19007611e-01, 7.39902481e-02, 0., 0., 6.70908540e-02, 0.,
          1.87126413e-01 ]
      - [ 1.93779752e-01, 1.28666043e-01, 1.26954988e-01, 1.46204114e-01,
          1.17488414e-01, 5.48172593e-02, 5.80684766e-02, 4.69326042e-02,
          7.92339370e-02, 1.08149787e-02, 9.72696617e-02, 1.67221338e-01,
          1.42509609e-01, 1.98815465e-01, 1.81363925e-01, 1.07652277e-01,
          1.23350233e-01, 1.73393384e-01, 1.44339308e-01, 8.83873999e-02,
          1.32654428e-01, 0., 7.90996030e-02, 8.81760642e-02,
          1.49148613e-01, 1.50505736e-01, 9.00079459e-02, 9.49044228e-02,
          1.12620123e-01, 1.38160631e-01, 1.84071660e-01, 1.29293486e-01,
          7.84392729e-02, 0., 4.30967547e-02, 0., 7.17443414e-03,
          2.02574164e-01, 1.49255022e-01, 1.58613220e-01, 1.71500787e-01,
          1.06854156e-01, 1.23206325e-01, 1.30968124e-01, 2.20502883e-01,
          2.39047594e-02, 4.76649143e-02, 5.12115583e-02, 1.96593016e-01,
          8.92514214e-02, 6.88149557e-02, 8.19967780e-03, 4.12139855e-02,
          0., 2.05540121e-01, 1.17116332e-01, 2.44818121e-01,
          1.30876839e-01, 1.48584038e-01, 1.16957709e-01, 8.41592476e-02,
          0., 0., 1.87568814e-01 ]
      - [ 2.52890587e-01, 1.27022400e-01, 1.95236146e-01, 8.69197398e-02,
          1.25063390e-01, 2.34651044e-01, 5.28709916e-03, 3.19301374e-02,
          9.79208499e-02, 4.95313331e-02, 1.01831451e-01, 1.38171300e-01,
          1.75437257e-01, 1.82161987e-01, 1.80844888e-01, 1.16386324e-01,
          3.24889421e-01, 1.95091918e-01, 3.41024287e-02, 4.26876806e-02,
          5.16738817e-02, 0., 5.28709916e-03, 1.26656696e-01,
          2.16214076e-01, 9.86810550e-02, 1.00235857e-01, 7.88306966e-02,
          4.32499982e-02, 1.23910256e-01, 1.22584932e-01, 1.72136411e-01,
          1.34238834e-02, 0., 0., 5.59042720e-03, 9.25236717e-02,
          1.66844413e-01, 1.68193415e-01, 1.41795963e-01, 1.37705877e-01,
          8.03594664e-02, 2.02772543e-01, 1.40873179e-01, 0., 0.,
          9.23277996e-03, 0., 8.67354870e-02, 8.44200887e-03,
          6.74190819e-02, 0., 1.13589931e-02, 8.66495743e-02,
          1.74168363e-01, 1.83678925e-01, 2.40682825e-01, 6.69588968e-02,
          1.03218839e-01, 1.08038664e-01, 5.51880747e-02, 0.,
          8.77511576e-02, 0. ]
      - [ 1.63448811e-01, 1.65076211e-01, 1.53433472e-01, 2.15984955e-01,
          2.31468841e-01, 1.28548354e-01, 4.44691107e-02, 0.,
          9.11525413e-02, 5.16380146e-02, 1.43782020e-01, 0.,
          1.84959486e-01, 2.41082117e-01, 1.50729150e-01, 4.04229201e-02,
          2.14628771e-01, 2.44570285e-01, 1.05169192e-01, 0.,
          6.64494708e-02, 5.66980466e-02, 8.87536407e-02, 1.04423560e-01,
          2.18404278e-01, 1.55706644e-01, 8.44937563e-02, 3.03866453e-02,
          1.15844816e-01, 1.15582399e-01, 7.92862922e-02, 2.12541223e-01,
          4.20498252e-02, 0., 7.30623454e-02, 0., 8.16402510e-02,
          1.83816537e-01, 1.50734171e-01, 6.49397746e-02, 1.55525237e-01,
          1.42446637e-01, 1.74335748e-01, 5.08070625e-02, 1.08067311e-01,
          3.51862013e-02, 0., 0., 1.09260738e-01, 7.74243474e-02, 0., 0.,
          5.72787002e-02, 1.50143743e-01, 1.41279995e-01, 1.82594895e-01,
          1.58437580e-01, 1.36877105e-01, 7.60336146e-02, 1.22745126e-01,
          5.62472194e-02, 5.99087775e-02, 5.53941317e-02, 1.31905705e-01 ]
      - [ 1.60873845e-01, 2.07820833e-01, 9.29821432e-02, 1.02236107e-01,
          1.43923596e-01, 1.63164765e-01, 3.45269660e-03, 8.85990486e-02,
          7.10640922e-02, 1.20410919e-02, 1.03518710e-01, 1.11511961e-01,
          7.71808028e-02, 1.28290355e-01, 1.81152195e-01, 1.95970714e-01,
          2.65945524e-01, 1.80784672e-01, 5.71952388e-02, 5.16298600e-03,
          1.59640852e-02, 0., 9.21495259e-03, 1.02038726e-01,
          1.80522859e-01, 1.54167682e-01, 1.41906962e-01, 4.20746431e-02,
          8.07962418e-02, 5.80983683e-02, 1.84149042e-01, 1.69563815e-01,
          8.93933252e-02, 0., 1.10541657e-01, 7.43780956e-02,
          1.20948076e-01, 1.11778788e-01, 2.00664759e-01, 2.06321821e-01,
          1.34242907e-01, 1.63845554e-01, 1.25295565e-01, 6.55608019e-03,
          1.20560348e-01, 1.32192284e-01, 0., 0., 1.33462682e-01, 0., 0.,
          0., 0., 8.20170641e-02, 1.95412084e-01, 1.71245411e-01,
          2.06387311e-01, 1.59363329e-01, 1.72900617e-01, 0.,
          5.66525832e-02, 1.02565140e-01, 0., 1.85409322e-01 ]
      - [ 1.77728683e-01, 1.19536407e-01, 1.99549764e-01, 1.14710920e-01,
          1.48278981e-01, 1.71690717e-01, 8.81758481e-02, 6.60388619e-02,
          1.20282099e-01, 5.06736226e-02, 0., 2.11361155e-01,
          1.51910946e-01, 2.19292983e-01, 1.37914836e-01, 2.09961399e-01,
          3.39812607e-01, 1.96159452e-01, 9.27449241e-02, 5.35177439e-03,
          1.12606082e-02, 4.49690893e-02, 7.15789478e-03, 9.72919241e-02,
          1.89942583e-01, 2.12251589e-01, 0., 6.89795166e-02,
          5.90734370e-02, 6.36436837e-03, 8.27422366e-02, 2.25187391e-01,
          7.56855216e-03, 1.14426315e-02, 6.36436837e-03, 6.79580867e-03,
          1.01651046e-02, 1.51650146e-01, 1.08204477e-01, 1.42603979e-01,
          1.85169414e-01, 1.10808179e-01, 1.68038949e-01, 1.15023516e-01,
          5.35177439e-03, 0., 8.00276920e-03, 6.79580867e-03,
          9.51695070e-03, 7.00438917e-02, 0., 0., 4.25610971e-03,
          8.65754411e-02, 1.78840727e-01, 2.07748458e-01, 1.96478605e-01,
          1.54594257e-01, 6.36436837e-03, 1.30498067e-01, 6.93042129e-02,
          0., 0., 6.87123314e-02 ]
      - [ 1.60873845e-01, 2.07820833e-01, 9.29821432e-02, 1.02236107e-01,
          1.43923596e-01, 1.63164765e-01, 3.45269660e-03, 8.85990486e-02,
          7.10640922e-02, 1.20410919e-02, 1.03518710e-01, 1.11511961e-01,
          7.71808028e-02, 1.28290355e-01, 1.81152195e-01, 1.95970714e-01,
          2.65945524e-01, 1.80784672e-01, 5.71952388e-02, 5.16298600e-03,
          1.59640852e-02, 0., 9.21495259e-03, 1.02038726e-01,
          1.80522859e-01, 1.54167682e-01, 1.41906962e-01, 4.20746431e-02,
          8.07962418e-02, 5.80983683e-02, 1.84149042e-01, 1.69563815e-01,
          8.93933252e-02, 0., 1.10541657e-01, 7.43780956e-02,
          1.20948076e-01, 1.11778788e-01, 2.00664759e-01, 2.06321821e-01,
          1.34242907e-01, 1.63845554e-01, 1.25295565e-01, 6.55608019e-03,
          1.20560348e-01, 1.32192284e-01, 0., 0., 1.33462682e-01, 0., 0.,
          0., 0., 8.20170641e-02, 1.95412084e-01, 1.71245411e-01,
          2.06387311e-01, 1.59363329e-01, 1.72900617e-01, 0.,
          5.66525832e-02, 1.02565140e-01, 0., 1.85409322e-01 ]
      - [ 1.49096593e-01, 2.30730161e-01, 1.52149960e-01, 1.04103386e-01,
          1.55181974e-01, 1.29721671e-01, 1.04460239e-01, 5.65924030e-03,
          1.00303397e-01, 7.72113539e-03, 1.17593028e-01, 7.28741661e-02,
          1.63059041e-01, 1.80724278e-01, 1.60921231e-01, 1.97823718e-01,
          2.79019386e-01, 1.24296352e-01, 1.20047182e-01, 9.93700996e-02,
          1.66378319e-02, 0., 7.39023462e-02, 1.01501279e-01,
          1.34051219e-01, 1.26729488e-01, 9.09345299e-02, 5.83424121e-02,
          8.25807974e-02, 1.00560077e-01, 1.47443324e-01, 2.51379520e-01,
          6.36484940e-03, 3.78456223e-03, 0., 7.20802695e-02,
          8.04561824e-02, 2.02724621e-01, 1.60605505e-01, 2.12475091e-01,
          1.31735250e-01, 1.04835019e-01, 1.27773777e-01, 1.33863345e-01,
          1.25268131e-01, 4.35390361e-02, 7.56912446e-03, 0.,
          9.83774513e-02, 0., 0., 7.18623586e-03, 1.10242423e-02,
          1.06750347e-01, 1.71008274e-01, 1.99564978e-01, 2.60904998e-01,
          7.08396956e-02, 1.53260291e-01, 6.62968084e-02, 0., 0.,
          5.64711913e-02, 7.40623102e-02 ]
      - [ 1.10026054e-01, 2.13681325e-01, 2.07938686e-01, 7.36172348e-02,
          1.08196633e-02, 8.40626210e-02, 1.07927494e-01, 7.77459657e-03,
          1.14135437e-01, 4.31760773e-02, 1.37507021e-01, 7.25844428e-02,
          4.50113676e-02, 2.15476856e-01, 1.08424552e-01, 1.16884537e-01,
          2.12358981e-01, 1.61185771e-01, 1.57648981e-01, 8.43368843e-02,
          1.20967515e-02, 9.90767777e-03, 7.98512809e-03, 1.44910514e-01,
          2.10670114e-01, 1.03726596e-01, 4.59317006e-02, 4.81009623e-03,
          5.57441562e-02, 1.05752870e-01, 1.63836643e-01, 1.70810521e-01,
          1.01357549e-01, 8.59212726e-02, 5.96410669e-02, 1.08120441e-01,
          6.93080202e-02, 2.02907398e-01, 1.98221445e-01, 1.19318761e-01,
          1.27465591e-01, 1.23993523e-01, 1.69786245e-01, 1.23950727e-01,
          7.27065355e-02, 9.88363400e-02, 1.07979357e-01, 0.,
          1.65059313e-01, 1.10693485e-01, 4.23937142e-02, 0., 0.,
          1.06801257e-01, 1.69449940e-01, 2.40557089e-01, 1.91845238e-01,
          1.02214210e-01, 1.60005406e-01, 1.04672723e-01, 3.94823812e-02,
          6.76360056e-02, 4.48047072e-02, 2.08902195e-01 ]
      - [ 2.52890587e-01, 1.27022400e-01, 1.95236146e-01, 8.69197398e-02,
          1.25063390e-01, 2.34651044e-01, 5.28709916e-03, 3.19301374e-02,
          9.79208499e-02, 4.95313331e-02, 1.01831451e-01, 1.38171300e-01,
          1.75437257e-01, 1.82161987e-01, 1.80844888e-01, 1.16386324e-01,
          3.24889421e-01, 1.95091918e-01, 3.41024287e-02, 4.26876806e-02,
          5.16738817e-02, 0., 5.28709916e-03, 1.26656696e-01,
          2.16214076e-01, 9.86810550e-02, 1.00235857e-01, 7.88306966e-02,
          4.32499982e-02, 1.23910256e-01, 1.22584932e-01, 1.72136411e-01,
          1.34238834e-02, 0., 0., 5.59042720e-03, 9.25236717e-02,
          1.66844413e-01, 1.68193415e-01, 1.41795963e-01, 1.37705877e-01,
          8.03594664e-02, 2.02772543e-01, 1.40873179e-01, 0., 0.,
          9.23277996e-03, 0., 8.67354870e-02, 8.44200887e-03,
          6.74190819e-02, 0., 1.13589931e-02, 8.66495743e-02,
          1.74168363e-01, 1.83678925e-01, 2.40682825e-01, 6.69588968e-02,
          1.03218839e-01, 1.08038664e-01, 5.51880747e-02, 0.,
          8.77511576e-02, 0. ]
      - [ 1.68423995e-01, 2.07046360e-01, 1.15355521e-01, 5.34678698e-02,
          1.28364488e-02, 1.04334213e-01, 1.25021473e-01, 5.75159825e-02,
          1.36490613e-01, 1.37583926e-01, 4.60515432e-02, 7.12052137e-02,
          2.07802765e-02, 8.83861333e-02, 2.03827262e-01, 1.65885344e-01,
          2.14460313e-01, 1.47907794e-01, 1.19949088e-01, 6.18688241e-02,
          1.59440767e-02, 6.73803734e-03, 7.42003880e-03, 1.39779642e-01,
          2.08936796e-01, 2.02188864e-01, 5.90093993e-03, 0.,
          1.43167423e-02, 7.49315182e-03, 1.01276912e-01, 2.61455029e-01,
          9.08482596e-02, 9.78770182e-02, 6.73803734e-03, 0.,
          5.63034415e-02, 1.64227664e-01, 1.90511793e-01, 1.73119709e-01,
          1.49706885e-01, 1.79447830e-01, 1.12863541e-01, 5.80641702e-02,
          4.96207923e-03, 1.19790733e-01, 7.48105422e-02, 1.45027116e-01,
          1.66452363e-01, 0., 0., 0., 3.10804620e-02, 9.71910134e-02,
          1.42212719e-01, 1.80024102e-01, 2.63999701e-01, 1.46623194e-01,
          1.08173899e-01, 6.33569583e-02, 0., 4.68239784e-02, 0.,
          2.55464286e-01 ]
      - [ 1.34535670e-01, 1.46605268e-01, 2.09166154e-01, 1.84821710e-01,
          7.70562738e-02, 1.04917802e-01, 1.43210545e-01, 6.03196360e-02,
          9.24396217e-02, 5.57605457e-03, 1.47414207e-01, 7.79955164e-02,
          1.41271859e-01, 2.19484881e-01, 1.43542588e-01, 8.74958038e-02,
          1.82564557e-01, 2.30289429e-01, 1.10691994e-01, 7.14521036e-02,
          1.06311187e-01, 5.72487991e-03, 7.19865505e-03, 1.35856062e-01,
          1.21214695e-01, 1.62860751e-01, 1.25493169e-01, 8.98069963e-02,
          5.34735695e-02, 1.38306394e-01, 1.49246827e-01, 1.72553763e-01,
          7.24510401e-02, 0., 1.15049511e-01, 7.99918547e-02,
          1.26583487e-01, 1.92865521e-01, 1.22572452e-01, 1.30798668e-01,
          1.22399911e-01, 1.35103434e-01, 1.51913404e-01, 6.91331699e-02,
          1.32372081e-01, 1.14857972e-01, 7.19865505e-03, 0.,
          1.47022828e-01, 7.64910430e-02, 3.52077559e-02, 4.04164940e-02,
          0., 1.40424967e-01, 1.54911354e-01, 1.92081317e-01,
          2.37879470e-01, 7.90150762e-02, 1.13579027e-01, 8.45394880e-02,
          5.55405170e-02, 1.20601878e-01, 3.21933650e-03, 1.49752349e-01 ]
      - [ 1.67720914e-01, 1.23128779e-01, 1.67885587e-01, 1.57102898e-01,
          1.45439744e-01, 1.36680350e-01, 2.82145627e-02, 0.,
          6.72945380e-02, 0., 1.34292960e-01, 1.65255859e-01,
          2.02289075e-01, 2.27140278e-01, 1.44876316e-01, 5.01350686e-02,
          2.22586989e-01, 2.26431370e-01, 8.76322538e-02, 0.,
          6.70688599e-02, 6.31509647e-02, 4.59743896e-03, 1.52374700e-01,
          1.51882380e-01, 1.75901935e-01, 1.07435398e-01, 9.48446542e-02,
          7.78004080e-02, 1.09302953e-01, 1.13085829e-01, 1.59061119e-01,
          5.91379702e-02, 5.63068967e-03, 5.45546301e-02, 3.03141773e-02,
          1.38724878e-01, 1.39754817e-01, 1.29488274e-01, 1.66290805e-01,
          1.36945397e-01, 1.33909225e-01, 1.90797344e-01, 4.86119976e-03,
          1.14476174e-01, 1.40644208e-01, 7.41033107e-02, 0.,
          9.97447297e-02, 8.13394785e-02, 0., 0., 5.68159819e-02,
          1.12098508e-01, 1.55852199e-01, 1.67431206e-01, 1.89605013e-01,
          1.19399861e-01, 1.50715664e-01, 1.15989566e-01, 7.41939768e-02,
          2.39623878e-02, 4.39885780e-02, 2.12799996e-01 ]
      - [ 2.63519943e-01, 7.33095929e-02, 2.12799549e-01, 4.13982011e-02,
          1.20466210e-01, 1.77128375e-01, 1.39508754e-01, 0.,
          1.20186836e-01, 1.01151755e-02, 1.22540034e-01, 1.53898254e-01,
          8.53186548e-02, 2.24246249e-01, 1.17866226e-01, 1.68678865e-01,
          3.03266227e-01, 1.58446580e-01, 1.10992175e-02, 9.83280409e-03,
          5.90326749e-02, 5.00223003e-02, 1.38580017e-02, 1.10164359e-01,
          1.95980608e-01, 9.35841650e-02, 1.12620123e-01, 8.48905277e-03,
          1.00874558e-01, 4.85068001e-02, 1.08351849e-01, 2.34928474e-01,
          7.28747174e-02, 6.03517666e-02, 8.55229124e-02, 5.67697221e-03,
          5.67697221e-03, 1.15752794e-01, 1.97571546e-01, 1.62782103e-01,
          1.82489768e-01, 1.44996330e-01, 1.69854358e-01, 1.56548060e-02,
          1.39937952e-01, 0., 0., 8.48905277e-03, 8.85077715e-02,
          8.48905277e-03, 2.61002723e-02, 0., 8.54362827e-03,
          5.94255999e-02, 2.15268463e-01, 1.47755504e-01, 2.51041800e-01,
          6.44677952e-02, 9.98713151e-02, 1.05909623e-01, 2.41363458e-02,
          4.69716564e-02, 7.71770775e-02, 9.41652879e-02 ]
      - [ 1.60796881e-01, 1.29165813e-01, 1.63883269e-01, 8.29999372e-02,
          1.07473709e-01, 1.12573534e-01, 1.37014553e-01, 7.61140436e-02,
          1.66669041e-01, 6.59342781e-02, 4.88480367e-02, 8.37555807e-03,
          3.63820642e-02, 1.30711466e-01, 2.26992175e-01, 1.42299712e-01,
          2.21544698e-01, 1.78994805e-01, 9.65275317e-02, 7.92340487e-02,
          1.56959612e-02, 6.47459477e-02, 1.04335226e-01, 6.83195964e-02,
          2.40713969e-01, 1.61342621e-01, 3.80015187e-02, 6.30407333e-02,
          1.53825423e-02, 5.26429154e-02, 1.66207567e-01, 1.84333771e-01,
          1.34234443e-01, 8.15739185e-02, 7.47265890e-02, 0.,
          1.30563989e-01, 1.51301771e-01, 1.61326542e-01, 1.60263553e-01,
          1.12364881e-01, 1.97718889e-01, 8.33418891e-02, 9.71711278e-02,
          0., 1.00872956e-01, 1.33955002e-01, 6.39816001e-02,
          1.52839139e-01, 8.60942453e-02, 4.55722399e-02, 0.,
          3.84563557e-03, 8.52740332e-02, 1.81619674e-01, 2.28116632e-01,
          1.79388598e-01, 7.70447925e-02, 1.32495463e-01, 1.38904735e-01,
          0., 3.27541381e-02, 5.94154671e-02, 2.29108959e-01 ]
      - [ 1.37904420e-01, 9.18765590e-02, 2.34189823e-01, 1.43538401e-01,
          1.60230696e-01, 1.25771552e-01, 2.14780327e-02, 4.08405811e-02,
          7.61230215e-02, 3.38362977e-02, 1.04066841e-01, 9.59772393e-02,
          1.44053757e-01, 1.95454314e-01, 1.22727849e-01, 6.76724315e-02,
          2.10894600e-01, 2.02335864e-01, 1.20189086e-01, 1.06719330e-01,
          4.96374331e-02, 5.34822186e-03, 0., 1.25552535e-01,
          1.91816747e-01, 1.37492061e-01, 1.16848275e-01, 1.16164543e-01,
          1.01916187e-01, 1.25507444e-01, 1.35626718e-01, 1.10007003e-01,
          9.72274989e-02, 0., 1.31179854e-01, 1.08475015e-01,
          7.94277042e-02, 1.81010276e-01, 2.12794468e-01, 9.78440270e-02,
          1.40012339e-01, 1.22157790e-01, 1.15884744e-01, 1.34598151e-01,
          1.35807291e-01, 1.02993496e-01, 3.00752604e-03, 2.92869043e-02,
          1.24965131e-01, 7.47495145e-02, 1.09376937e-01, 5.22546284e-02,
          1.01160714e-02, 1.00616217e-01, 1.99483156e-01, 1.04203656e-01,
          1.86878040e-01, 1.56315684e-01, 1.72947899e-01, 1.05677873e-01,
          1.85984615e-02, 7.54420012e-02, 2.98893880e-02, 2.15447128e-01 ]
      - [ 2.77914584e-01, 1.72821045e-01, 7.16492459e-02, 5.13939792e-03,
          1.20556973e-01, 6.12638816e-02, 7.75547400e-02, 1.13270566e-01,
          1.70558959e-01, 1.18726581e-01, 1.31162768e-02, 5.13939792e-03,
          7.65414834e-02, 3.25245522e-02, 1.42518595e-01, 1.33940056e-01,
          2.26929113e-01, 1.74714595e-01, 6.38905764e-02, 6.23634756e-02,
          1.08137485e-02, 0., 0., 6.52612792e-03, 2.04291523e-01,
          1.57343537e-01, 1.41166687e-01, 0., 7.37513751e-02, 0.,
          1.71488330e-01, 1.37484595e-01, 1.48412153e-01, 8.88394043e-02,
          9.52075645e-02, 0., 7.38392174e-02, 1.03853196e-01,
          2.54437745e-01, 1.67669311e-01, 1.58649966e-01, 1.48673683e-01,
          8.43016654e-02, 7.32215941e-02, 7.55807236e-02, 5.39131463e-02,
          1.30781859e-01, 8.96087065e-02, 2.29895473e-01, 8.52493569e-02,
          0., 0., 0., 0., 1.91444412e-01, 1.40195757e-01, 2.46507689e-01,
          2.27204502e-01, 0., 9.97402519e-02, 4.01771441e-02,
          9.11355987e-02, 1.02075502e-01, 1.76242456e-01 ]
      - [ 1.44964337e-01, 1.04292855e-01, 2.27611437e-01, 1.51444465e-01,
          9.63972136e-02, 7.77676031e-02, 4.20088731e-02, 0.,
          7.26883933e-02, 5.32639436e-02, 7.77150765e-02, 1.04217641e-01,
          9.27595422e-03, 2.05101132e-01, 8.36271644e-02, 7.66937733e-02,
          1.56197459e-01, 2.07449347e-01, 1.27219126e-01, 0.,
          8.67158100e-02, 1.17526930e-02, 8.19615740e-03, 0.,
          1.38150156e-01, 1.49186701e-01, 9.56168547e-02, 6.57561272e-02,
          1.06771149e-01, 1.57111734e-01, 9.92305204e-02, 1.72724307e-01,
          1.00727417e-02, 6.35825694e-02, 1.25922173e-01, 1.61979660e-01,
          1.82177648e-01, 2.60346413e-01, 1.58903480e-01, 7.31043741e-02,
          4.59633730e-02, 1.30832031e-01, 1.58312336e-01, 1.22143321e-01,
          1.53835550e-01, 1.18965141e-01, 6.73604850e-03, 6.98227854e-03,
          1.49232343e-01, 1.12890914e-01, 1.03622228e-01, 4.82914969e-02,
          1.11056035e-02, 1.45402700e-01, 1.45310611e-01, 1.92855045e-01,
          2.18956381e-01, 1.86996609e-01, 1.32984713e-01, 1.45530164e-01,
          1.10641643e-01, 6.21621422e-02, 9.76861715e-02, 1.55854791e-01 ]
      - [ 1.22335732e-01, 1.71571851e-01, 2.38403052e-01, 1.32293224e-01,
          1.23973578e-01, 1.88249424e-01, 4.89937626e-02, 0.,
          8.34094509e-02, 5.99883869e-02, 1.39838681e-01, 0.,
          1.65815175e-01, 1.65639520e-01, 1.42377466e-01, 1.63262919e-01,
          2.56744266e-01, 2.25303218e-01, 0., 6.28639981e-02,
          7.33897164e-02, 0., 7.20824972e-02, 4.86586988e-02,
          2.39294663e-01, 5.63260503e-02, 5.22264875e-02, 1.01704977e-01,
          6.02918342e-02, 1.72454581e-01, 6.47178218e-02, 1.73359841e-01,
          5.39307371e-02, 0., 1.13572903e-01, 0., 7.55285248e-02,
          2.12278038e-01, 1.40030205e-01, 1.31005347e-01, 1.59786850e-01,
          1.38184339e-01, 1.52297989e-01, 0., 4.81966510e-02,
          1.27151862e-01, 5.90625033e-02, 0., 1.57245338e-01, 0., 0., 0.,
          6.88383058e-02, 6.25740513e-02, 1.61178902e-01, 2.08339319e-01,
          2.44346306e-01, 9.35795754e-02, 1.34370834e-01, 6.08777478e-02,
          4.37436067e-03, 8.03438872e-02, 3.41167077e-02, 1.66156694e-01 ]
      - [ 1.26808122e-01, 1.51277214e-01, 2.29392633e-01, 1.52744949e-01,
          1.58090040e-01, 1.46400303e-01, 4.52503078e-02, 0.,
          9.24582183e-02, 4.90332507e-02, 1.56004995e-01, 1.31332457e-01,
          1.61795542e-01, 1.73087090e-01, 1.20832391e-01, 8.99291784e-02,
          2.18629435e-01, 2.39030898e-01, 1.10848859e-01, 2.95980740e-02,
          4.71408926e-02, 1.00354172e-01, 9.40203369e-02, 1.01871051e-01,
          1.81280732e-01, 1.66978851e-01, 8.17837939e-02, 1.21569850e-01,
          1.34449184e-01, 1.60084113e-01, 1.06450737e-01, 8.03353712e-02,
          1.01609960e-01, 0., 8.27867761e-02, 6.64191619e-02,
          1.35105938e-01, 1.75050586e-01, 5.81143200e-02, 1.45234063e-01,
          1.54243320e-01, 6.88176826e-02, 1.83994696e-01, 4.93833162e-02,
          1.27363771e-01, 1.21080033e-01, 3.11991107e-03, 0.,
          1.81809381e-01, 0., 5.26459888e-02, 0., 3.94860506e-02,
          1.43698022e-01, 1.50921047e-01, 1.24710947e-01, 1.78738937e-01,
          2.19007611e-01, 7.39902481e-02, 0., 0., 6.70908540e-02, 0.,
          1.87126413e-01 ]
      - [ 2.04008803e-01, 1.77504987e-01, 1.58479452e-01, 8.70615020e-02,
          1.27740264e-01, 0., 1.44693600e-02, 0., 8.45735222e-02,
          5.53173982e-02, 1.22287817e-01, 1.56892702e-01, 9.65014398e-02,
          1.87278837e-01, 1.41041994e-01, 1.43731654e-01, 2.38291845e-01,
          2.09108666e-01, 8.78288746e-02, 3.44596282e-02, 8.88234451e-02,
          9.45548713e-02, 6.45760968e-02, 1.01721048e-01, 2.08224118e-01,
          1.21183909e-01, 6.60795532e-03, 1.14213647e-02, 8.25879201e-02,
          1.11333311e-01, 1.40204772e-01, 6.75779581e-02, 6.95905760e-02,
          6.43617334e-03, 0., 8.55489522e-02, 6.78971186e-02,
          1.30806029e-01, 2.37049460e-01, 1.29268736e-01, 2.07007527e-01,
          1.71937466e-01, 6.94258288e-02, 5.65322824e-02, 1.60648614e-01,
          9.94134173e-02, 8.74593779e-02, 5.55660622e-03, 1.96940541e-01,
          1.17151819e-01, 6.60795532e-03, 0., 0., 7.66364112e-02,
          1.89282760e-01, 1.73389226e-01, 2.31674373e-01, 1.62036821e-01,
          1.16778895e-01, 2.17094384e-02, 9.37359929e-02, 0., 0.,
          2.06747517e-01 ]
      - [ 1.90116599e-01, 1.31318390e-01, 1.57868251e-01, 0.,
          1.49831111e-02, 1.39337525e-01, 7.53390640e-02, 7.55734369e-02,
          9.55535173e-02, 1.23102762e-01, 8.29758272e-02, 5.78848571e-02,
          7.48706684e-02, 1.28209397e-01, 1.31542981e-01, 2.39978164e-01,
          2.49706045e-01, 1.13246724e-01, 6.93636760e-02, 4.49036881e-02,
          6.83987960e-02, 6.60561472e-02, 5.79880597e-03, 8.97198766e-02,
          2.54793197e-01, 1.11461021e-01, 8.63245726e-02, 6.16442040e-02,
          1.67408902e-02, 1.00115210e-01, 1.45742282e-01, 1.95546016e-01,
          9.72797871e-02, 6.97021782e-02, 8.04150775e-02, 4.47840244e-02,
          1.35933161e-01, 1.36508033e-01, 1.71813369e-01, 1.94716275e-01,
          1.68350711e-01, 1.65592566e-01, 1.01844005e-01, 1.00790635e-01,
          6.20873347e-02, 1.36036828e-01, 1.00949474e-01, 5.28925769e-02,
          2.51123697e-01, 0., 0., 1.50190238e-02, 9.23921261e-03, 0.,
          2.91021354e-02, 2.52108693e-01, 2.19322726e-01, 1.97824314e-01,
          8.76885802e-02, 3.65217365e-02, 0., 0., 8.30824599e-02,
          1.78243831e-01 ]
      - [ 2.90206015e-01, 1.46915734e-01, 6.33262396e-02, 1.10641532e-01,
          1.33884743e-01, 1.68454632e-01, 6.72767758e-02, 6.64191321e-03,
          9.59557295e-02, 4.56563756e-02, 1.59863085e-01, 6.75878078e-02,
          1.14373788e-01, 8.97287428e-02, 1.14155158e-01, 1.63246110e-01,
          3.01894426e-01, 1.21231429e-01, 0., 0., 1.10056037e-02, 0.,
          7.82154128e-03, 1.42375812e-01, 1.18686542e-01, 1.98232993e-01,
          1.31467551e-01, 1.11362115e-01, 3.86573114e-02, 5.12903854e-02,
          1.72804177e-01, 1.43963113e-01, 8.69572014e-02, 9.14975852e-02,
          7.35918656e-02, 4.99098040e-02, 6.66084588e-02, 1.60526246e-01,
          2.60002345e-01, 6.68304414e-02, 1.77010506e-01, 1.11013599e-01,
          1.38350070e-01, 8.54376704e-02, 7.28390738e-02, 1.10020258e-01,
          9.59026739e-02, 0., 1.57614663e-01, 0., 3.64407375e-02, 0.,
          8.48653447e-03, 4.09440473e-02, 1.93601727e-01, 8.45422875e-03,
          2.33291283e-01, 2.50900954e-01, 3.42759974e-02, 0.,
          3.73505801e-02, 0., 1.28478929e-01, 1.89815491e-01 ]
      - [ 1.79575384e-01, 7.23926127e-02, 1.44677371e-01, 1.87164873e-01,
          5.05814254e-02, 0., 1.12104006e-02, 7.14796316e-03,
          9.44018587e-02, 5.68678714e-02, 1.24553390e-01, 8.57994035e-02,
          2.11472780e-01, 1.81570679e-01, 1.67091921e-01, 6.64839894e-02,
          1.95299894e-01, 2.54594386e-01, 9.36589167e-02, 1.26731426e-01,
          1.13691315e-02, 6.49522468e-02, 5.67119531e-02, 6.49967268e-02,
          2.07252979e-01, 1.31706864e-01, 9.27561596e-02, 7.08558038e-02,
          8.01723450e-02, 1.00457318e-01, 1.09265365e-01, 1.11396633e-01,
          9.62113664e-02, 3.38006299e-03, 0., 0., 1.22876689e-01,
          1.93511695e-01, 1.19080082e-01, 1.52342871e-01, 1.83016062e-01,
          1.07043259e-01, 2.00266972e-01, 4.32124883e-02, 1.59736022e-01,
          1.47596002e-01, 4.78013093e-03, 2.75694206e-02, 1.84569567e-01,
          1.34438172e-01, 0., 0., 0., 1.65477738e-01, 1.32180244e-01,
          1.82760298e-01, 2.30037361e-01, 1.75292134e-01, 7.46446252e-02,
          1.06692784e-01, 8.15194249e-02, 4.90069538e-02, 6.36963844e-02,
          1.61490336e-01 ]
      - [ 2.80851513e-01, 1.53571710e-01, 8.45975429e-02, 1.06069334e-01,
          1.27391294e-01, 1.16412841e-01, 1.27135381e-01, 8.04556459e-02,
          6.60711676e-02, 9.39604416e-02, 6.08643033e-02, 5.78469746e-02,
          9.61118042e-02, 7.77901933e-02, 1.98985070e-01, 1.49775267e-01,
          1.75309151e-01, 2.12985948e-01, 1.06953181e-01, 9.36767086e-03,
          1.06240064e-02, 0., 4.94575314e-02, 5.20742219e-03,
          2.21378267e-01, 9.63793248e-02, 9.48675349e-02, 5.20742219e-03,
          1.28878996e-01, 1.12933159e-01, 1.64099753e-01, 2.75966316e-01,
          5.38370349e-02, 0., 4.18392494e-02, 9.05554220e-02,
          8.83947164e-02, 2.19628662e-01, 1.75034210e-01, 1.53451562e-01,
          1.27587616e-01, 1.32503808e-01, 1.70533687e-01, 1.21413790e-01,
          1.18104942e-01, 3.90924513e-02, 0., 0., 1.09937623e-01,
          3.48241301e-03, 6.19270373e-03, 0., 4.14131023e-03,
          8.25689286e-02, 1.82499841e-01, 1.44021094e-01, 2.43636057e-01,
          2.09753245e-01, 1.26946777e-01, 5.20742219e-03, 7.69817010e-02,
          5.07461093e-02, 0., 1.48089707e-01 ]
      - [ 1.87288865e-01, 1.94787920e-01, 1.28826588e-01, 2.57367250e-02,
          5.57931326e-02, 5.14104255e-02, 7.91270658e-02, 6.58160821e-02,
          8.39801803e-02, 7.26903751e-02, 4.64258790e-02, 0.,
          1.05959950e-02, 1.53021842e-01, 1.94478482e-01, 1.91298515e-01,
          1.97707027e-01, 1.38676226e-01, 6.83828909e-03, 1.36919156e-01,
          1.20147299e-02, 1.49486260e-02, 8.24918132e-03, 6.85866177e-02,
          1.84558362e-01, 1.33437246e-01, 8.79861340e-02, 6.39471319e-03,
          1.61813013e-02, 1.61105439e-01, 1.56316236e-01, 1.79472581e-01,
          9.21999514e-02, 4.76266723e-03, 1.07780069e-01, 5.90302721e-02,
          1.03095107e-01, 1.60406247e-01, 2.17693731e-01, 2.16801673e-01,
          1.80875406e-01, 1.30666614e-01, 1.31210938e-01, 7.09791481e-02,
          1.07474849e-01, 1.34686679e-01, 0., 0., 2.42520913e-01, 0., 0.,
          0., 0., 0., 1.91872329e-01, 2.02820554e-01, 2.28591487e-01,
          1.80312514e-01, 1.53292447e-01, 7.84014314e-02, 7.12296143e-02,
          8.10761750e-02, 1.11072488e-01, 1.57783329e-01 ]
      - [ 1.92982197e-01, 1.55764729e-01, 1.69173330e-01, 1.83471575e-01,
          2.04390109e-01, 5.40558100e-02, 1.03705741e-01, 3.02413441e-02,
          9.65337902e-02, 3.89525853e-02, 4.31429371e-02, 2.10202664e-01,
          1.25465512e-01, 1.92475721e-01, 1.53783053e-01, 9.07333121e-02,
          3.33817720e-01, 1.51534289e-01, 4.75139879e-02, 5.22355996e-02,
          6.72654063e-02, 8.06644000e-03, 5.85709885e-02, 1.07861266e-01,
          1.91978127e-01, 2.15005636e-01, 3.96854468e-02, 1.35678217e-01,
          1.11120623e-02, 1.17785081e-01, 1.64151371e-01, 1.89653888e-01,
          5.11866473e-02, 5.81609504e-03, 0., 6.82971701e-02,
          7.57778063e-02, 1.18658349e-01, 1.94600150e-01, 1.24623410e-01,
          1.49890751e-01, 1.07751824e-01, 9.60978493e-02, 1.26205772e-01,
          1.23007327e-01, 0., 1.13297962e-02, 0., 1.12507194e-01, 0., 0.,
          0., 4.55647036e-02, 4.46081348e-02, 1.71001390e-01,
          1.78997040e-01, 1.89935535e-01, 2.13281825e-01, 5.73837459e-02,
          4.89073340e-03, 4.15795222e-02, 0., 6.06168993e-02,
          1.26288310e-01 ]
      - [ 1.28808811e-01, 1.92762524e-01, 2.15340644e-01, 9.96349007e-03,
          1.11724876e-01, 1.37304738e-01, 8.07777494e-02, 9.08569340e-03,
          1.12481117e-01, 8.59271735e-03, 1.06543235e-01, 1.20512560e-01,
          9.25587714e-02, 2.44113564e-01, 1.58473000e-01, 1.08778052e-01,
          2.69339353e-01, 1.12712793e-01, 1.19593792e-01, 6.20721504e-02,
          8.05904940e-02, 9.93140414e-02, 7.01592444e-03, 1.14514634e-01,
          1.88912332e-01, 8.34696293e-02, 8.63067955e-02, 3.32104191e-02,
          7.18857199e-02, 1.36059493e-01, 1.28908142e-01, 1.62902340e-01,
          9.84555110e-02, 9.52348411e-02, 7.31752813e-02, 8.20078924e-02,
          8.36747959e-02, 1.71008572e-01, 1.89182386e-01, 1.69211790e-01,
          1.36671111e-01, 1.83059007e-01, 1.00035980e-01, 0.,
          1.43860206e-01, 1.20335639e-01, 0., 0., 1.31346822e-01,
          1.14911884e-01, 0., 0., 1.03557855e-02, 5.32031469e-02,
          2.17206448e-01, 1.64785877e-01, 2.38055959e-01, 1.13433540e-01,
          9.45732594e-02, 6.47201091e-02, 1.26500934e-01, 5.21712191e-02,
          0., 1.70761317e-01 ]
      - [ 1.42645940e-01, 1.63896948e-01, 1.46519482e-01, 1.30277053e-01,
          9.68020130e-03, 8.78738612e-02, 1.26213327e-01, 3.04429848e-02,
          9.22403336e-02, 1.04968250e-01, 4.99194823e-02, 6.90600425e-02,
          7.42724091e-02, 2.67381042e-01, 1.00736134e-01, 1.45605341e-01,
          2.14645118e-01, 1.76756993e-01, 1.22720391e-01, 1.25048921e-01,
          1.44422539e-02, 6.94738235e-03, 3.24394852e-02, 5.03314286e-02,
          2.02270612e-01, 2.17290506e-01, 8.36350545e-02, 2.66581718e-02,
          7.57512525e-02, 1.03839286e-01, 1.30136445e-01, 1.87938437e-01,
          9.81177911e-02, 7.39048421e-02, 0., 1.03326157e-01,
          7.85570666e-02, 1.43689662e-01, 1.71098396e-01, 2.00295806e-01,
          1.32113665e-01, 1.35465443e-01, 1.64850861e-01, 0.,
          1.48830250e-01, 8.92771110e-02, 9.65618566e-02, 0.,
          2.27473259e-01, 7.23139122e-02, 0., 0., 1.21347746e-02,
          8.44994411e-02, 1.95667759e-01, 1.27748176e-01, 2.04800144e-01,
          1.77199244e-01, 1.33491039e-01, 1.06783122e-01, 7.17205852e-02,
          4.61950116e-02, 7.51399994e-02, 1.38952956e-01 ]
      - [ 1.22059777e-01, 1.52820870e-01, 1.89546674e-01, 1.92176923e-01,
          8.95506293e-02, 1.87679991e-01, 6.38505220e-02, 2.78949793e-02,
          1.20350197e-01, 8.96972865e-02, 1.37914047e-01, 1.34549156e-01,
          6.22033030e-02, 2.15399563e-01, 1.41816229e-01, 1.00272879e-01,
          2.32019052e-01, 1.95379436e-01, 9.18990076e-02, 8.11688788e-03,
          6.71469197e-02, 6.69955462e-02, 1.01302508e-02, 1.34598225e-01,
          2.09712341e-01, 1.73375711e-01, 0., 7.10199587e-03,
          1.24641210e-01, 1.21039987e-01, 1.12789467e-01, 1.08974531e-01,
          9.51819420e-02, 8.86678770e-02, 1.04960635e-01, 0.,
          1.31349802e-01, 1.82594270e-01, 1.14715889e-01, 1.42166033e-01,
          1.03574477e-01, 8.90138522e-02, 1.86412528e-01, 0.,
          1.20672613e-01, 1.42810240e-01, 3.35832639e-03, 5.02186920e-03,
          1.87068895e-01, 1.11551866e-01, 0., 4.58189994e-02,
          6.41632080e-03, 1.08316638e-01, 1.59957528e-01, 1.95305184e-01,
          2.08063498e-01, 9.90658328e-02, 9.63546485e-02, 1.02593191e-01,
          7.49100968e-02, 8.30130056e-02, 6.96114004e-02, 1.68807402e-01 ]
      - [ 1.68552727e-01, 2.16342375e-01, 1.23295411e-01, 0.,
          1.61672413e-01, 1.40245408e-01, 1.00015759e-01, 6.19833451e-03,
          8.44194368e-02, 8.01284537e-02, 9.62952822e-02, 8.11370984e-02,
          6.41580224e-02, 1.60116687e-01, 1.20319828e-01, 1.76696107e-01,
          2.42619604e-01, 1.58181444e-01, 4.38241512e-02, 4.61924821e-02,
          4.70087044e-02, 5.57228811e-02, 9.94410645e-03, 7.37455562e-02,
          2.08443955e-01, 2.15677798e-01, 1.01460434e-01, 7.65437111e-02,
          1.58326011e-02, 5.40995002e-02, 1.80196270e-01, 2.11754665e-01,
          7.90807381e-02, 3.66467945e-02, 1.11080676e-01, 8.44760686e-02,
          8.46846625e-02, 1.70631394e-01, 1.54855192e-01, 1.70481473e-01,
          1.54438406e-01, 1.24950968e-01, 9.06205848e-02, 1.15004800e-01,
          1.64210930e-01, 3.91511954e-02, 2.82708667e-02, 0.,
          1.14004672e-01, 1.27008364e-01, 0., 0., 0., 1.42637104e-01,
          1.69096768e-01, 8.80240276e-02, 2.51014888e-01, 1.83476046e-01,
          1.00531988e-01, 6.90313987e-03, 6.39375225e-02, 7.29872957e-02,
          0., 2.34141916e-01 ]
      - [ 1.72952160e-01, 1.94245532e-01, 1.58751681e-01, 5.20788990e-02,
          8.76768157e-02, 1.12385437e-01, 6.73814937e-02, 0.,
          9.30537954e-02, 8.15197527e-02, 4.04765047e-02, 8.79307538e-02,
          8.78819823e-03, 1.94830313e-01, 1.83602646e-01, 1.46438152e-01,
          2.23830611e-01, 1.41344681e-01, 6.81652799e-02, 8.45709592e-02,
          1.55136669e-02, 7.66932033e-03, 8.09530076e-03, 8.61645043e-02,
          1.93070590e-01, 1.89209849e-01, 8.45956132e-02, 0.,
          1.44552877e-02, 1.15029804e-01, 1.65939197e-01, 2.22906247e-01,
          8.80575776e-02, 0., 8.46884176e-02, 9.87494215e-02,
          1.51084885e-01, 1.55326203e-01, 2.32614905e-01, 1.70295194e-01,
          1.61849350e-01, 8.67004320e-02, 1.00595795e-01, 2.00223237e-01,
          1.13438770e-01, 6.63503930e-02, 0., 0., 1.63682863e-01,
          1.05086923e-01, 1.62534788e-02, 0., 0., 6.11214489e-02,
          1.22554637e-01, 1.31290346e-01, 2.97177374e-01, 1.59884825e-01,
          7.97258839e-02, 7.64111727e-02, 6.14163689e-02, 2.97519639e-02,
          7.31355250e-02, 1.87223107e-01 ]
      - [ 2.33191639e-01, 1.23207644e-01, 1.62234128e-01, 1.74106508e-01,
          1.09194733e-01, 1.87159196e-01, 9.23235416e-02, 6.32280409e-02,
          1.00956380e-01, 9.71705560e-03, 1.24533489e-01, 1.11975566e-01,
          1.86312973e-01, 1.85315579e-01, 1.89132720e-01, 1.34616956e-01,
          2.93239683e-01, 2.04304546e-01, 9.78560895e-02, 0.,
          1.06235249e-02, 4.82456423e-02, 7.29399594e-03, 1.82326078e-01,
          1.58199325e-01, 1.42398447e-01, 7.77915269e-02, 5.79916723e-02,
          9.23713818e-02, 0., 1.63668454e-01, 2.12077990e-01,
          3.68262678e-02, 0., 0., 8.39321688e-02, 4.33703605e-03,
          1.56459391e-01, 1.83346868e-01, 1.41929939e-01, 1.36848345e-01,
          1.05258748e-01, 1.81797460e-01, 0., 1.37027517e-01, 0.,
          6.48538163e-03, 7.71246199e-03, 6.13349490e-03, 8.33836570e-02,
          0., 3.40886153e-02, 6.13349490e-03, 5.03140315e-02,
          2.19692811e-01, 1.44631490e-01, 2.32601449e-01, 1.06911309e-01,
          5.47965877e-02, 1.12545185e-01, 7.43078664e-02, 5.09359241e-02,
          3.64699797e-03, 8.58166367e-02 ]
      - [ 1.87427834e-01, 2.11843029e-01, 9.17254165e-02, 9.68081132e-02,
          1.23074554e-01, 1.58931032e-01, 5.91173358e-02, 3.42612937e-02,
          7.80446306e-02, 1.00705922e-02, 1.12614304e-01, 1.44022375e-01,
          1.33797809e-01, 1.33735269e-01, 2.16221064e-01, 1.34916738e-01,
          3.20378035e-01, 1.65710822e-01, 8.53672177e-02, 0.,
          1.43809095e-02, 0., 5.03529608e-03, 7.39166662e-02,
          2.68773347e-01, 1.58721060e-01, 9.45164040e-02, 9.22174565e-03,
          8.63313973e-02, 0., 1.58470303e-01, 1.85501277e-01,
          8.15738589e-02, 0., 7.51226917e-02, 1.09580671e-02, 0.,
          7.69996643e-02, 2.58429855e-01, 2.33541783e-02, 1.94297984e-01,
          1.68639839e-01, 1.09248169e-01, 7.69340619e-02, 7.34212250e-02,
          1.17922463e-01, 7.96150230e-03, 0., 1.97455168e-01,
          5.03529608e-03, 0., 4.73904163e-02, 8.46832432e-03,
          7.22973235e-03, 1.24449551e-01, 1.89010039e-01, 2.64468998e-01,
          1.62715435e-01, 0., 2.91698165e-02, 1.19760195e-02,
          7.08460733e-02, 5.24135903e-02, 1.15769699e-01 ]
      - [ 1.87366337e-01, 2.10075706e-01, 1.42107069e-01, 0.,
          1.45769283e-01, 1.50211304e-01, 9.17798430e-02, 0.,
          7.53110349e-02, 8.95242244e-02, 6.72852248e-02, 0.,
          1.44902663e-02, 4.42364365e-02, 2.04384342e-01, 1.77534744e-01,
          2.97259063e-01, 5.16645722e-02, 7.63115939e-03, 6.41701464e-03,
          1.51241589e-02, 0., 1.23904021e-02, 0., 2.07559332e-01,
          1.79406375e-01, 1.19969226e-01, 1.16424605e-01, 5.14866896e-02,
          8.08074325e-02, 1.38372913e-01, 2.41262004e-01, 7.58280158e-02,
          1.90514270e-02, 1.36862338e-01, 1.18371315e-01, 9.15057361e-02,
          1.40344605e-01, 1.78502619e-01, 2.26057768e-01, 1.64110780e-01,
          1.46943539e-01, 9.28181335e-02, 5.05346991e-03, 9.74066556e-02,
          9.51090381e-02, 0., 0., 1.98696405e-01, 4.30466421e-02, 0., 0.,
          0., 0., 1.95997760e-01, 1.29866377e-01, 2.47366950e-01,
          1.68222159e-01, 1.73084244e-01, 2.41179112e-02, 4.61501740e-02,
          5.55623323e-02, 1.23971254e-01, 1.02844745e-01 ]
      - [ 2.12448478e-01, 1.28495559e-01, 9.17484984e-02, 0.,
          1.70125924e-02, 9.29740146e-02, 1.09041512e-01, 6.72323303e-03,
          1.64100334e-01, 9.49601904e-02, 0., 7.58179128e-02,
          6.03617355e-02, 1.32910490e-01, 2.18833879e-01, 2.25105420e-01,
          2.73832500e-01, 9.85784382e-02, 1.10290535e-01, 9.55582261e-02,
          7.94197097e-02, 0., 1.11967586e-02, 1.21452481e-01,
          2.32772470e-01, 1.69195071e-01, 6.64320514e-02, 7.91695118e-02,
          5.48712052e-02, 5.54230139e-02, 6.25965148e-02, 2.66712189e-01,
          5.39227128e-02, 7.08145183e-03, 0., 0., 6.72323303e-03,
          1.21605851e-01, 1.79744214e-01, 2.26064861e-01, 1.59169599e-01,
          1.53251231e-01, 8.15362260e-02, 1.25529692e-01, 7.68509358e-02,
          1.08173378e-01, 8.17562118e-02, 5.68181090e-02, 2.03639135e-01,
          7.08145183e-03, 0., 5.29462053e-03, 1.04137575e-02, 0.,
          1.23636551e-01, 2.38451883e-01, 2.25365981e-01, 1.70579836e-01,
          7.41008520e-02, 5.29462053e-03, 4.91069257e-02, 0.,
          1.09713055e-01, 1.79133534e-01 ]
      - [ 1.45398781e-01, 1.01238646e-01, 2.21585125e-01, 1.02371514e-01,
          1.23452656e-02, 8.19956958e-02, 9.02654883e-03, 5.09801023e-02,
          7.02021271e-02, 7.20642833e-03, 1.15643069e-01, 8.05918276e-02,
          9.34105143e-02, 2.10703701e-01, 1.54517561e-01, 9.80016738e-02,
          1.67016566e-01, 2.28814691e-01, 1.20553464e-01, 1.00646913e-01,
          1.34371025e-02, 9.33028292e-03, 5.52760949e-03, 7.13611301e-03,
          1.65218785e-01, 1.15076035e-01, 1.30355939e-01, 9.86898243e-02,
          1.07233532e-01, 6.57396242e-02, 8.72140080e-02, 1.37926668e-01,
          9.35036540e-02, 1.00032903e-01, 7.97189325e-02, 5.09477742e-02,
          1.71896473e-01, 1.97131529e-01, 1.47743955e-01, 1.61615416e-01,
          1.51516259e-01, 1.47419959e-01, 1.38701960e-01, 1.66109189e-01,
          6.23919144e-02, 1.56633392e-01, 7.32099637e-02, 0.,
          2.40884244e-01, 1.29187569e-01, 7.20642833e-03, 0.,
          9.29629430e-03, 1.03137940e-01, 1.44479111e-01, 1.45667553e-01,
          2.91287750e-01, 1.68116435e-01, 1.43304437e-01, 1.04188144e-01,
          4.23633642e-02, 0., 3.19136679e-03, 1.72575131e-01 ]
      - [ 1.97868675e-01, 9.74881798e-02, 1.75695106e-01, 4.94524688e-02,
          1.52425645e-02, 0., 8.95057060e-03, 0., 1.11668175e-02,
          1.22320624e-02, 9.56579298e-03, 0., 1.36416838e-01,
          1.91166729e-01, 1.03091113e-01, 4.63683344e-02, 1.77996427e-01,
          1.43408775e-01, 1.41098589e-01, 1.22050710e-01, 1.38035789e-02,
          0., 5.37317293e-03, 8.03476758e-03, 5.87470643e-02,
          6.34282529e-02, 1.09873131e-01, 5.86854890e-02, 1.04622044e-01,
          7.56655186e-02, 1.50739357e-01, 1.06555924e-01, 1.10325404e-01,
          8.14441592e-02, 1.27034292e-01, 8.20801333e-02, 1.60245627e-01,
          2.21713558e-01, 1.58299148e-01, 1.79279834e-01, 1.48015007e-01,
          1.25886321e-01, 2.18710303e-01, 1.01020649e-01, 1.50412500e-01,
          1.48212418e-01, 6.68234974e-02, 4.10543568e-02, 2.48181522e-01,
          1.18859053e-01, 9.13683474e-02, 0., 3.63340303e-02, 0.,
          2.16739058e-01, 1.51041195e-01, 2.78220654e-01, 2.61461556e-01,
          8.90871584e-02, 1.24280274e-01, 3.72587070e-02, 5.88215776e-02,
          9.77121592e-02, 1.71362787e-01 ]
      - [ 1.03873163e-01, 6.79559186e-02, 2.34705687e-01, 1.89281359e-01,
          7.08622038e-02, 1.25636160e-01, 6.74030557e-03, 4.34332760e-03,
          7.72041380e-02, 4.54642847e-02, 1.25921965e-01, 1.46883294e-01,
          1.20517991e-01, 1.41468748e-01, 1.13840856e-01, 1.12373605e-01,
          1.87875316e-01, 2.28190243e-01, 4.57417704e-02, 5.56636639e-02,
          8.93016681e-02, 8.74044467e-03, 6.57425774e-03, 1.33248553e-01,
          1.40840739e-01, 1.85350254e-01, 7.89816976e-02, 8.25512409e-03,
          1.25689074e-01, 9.43821296e-02, 1.30481035e-01, 1.28148094e-01,
          7.80938715e-02, 4.51860912e-02, 1.16356798e-01, 1.69472203e-01,
          1.43051803e-01, 1.75572544e-01, 1.41069323e-01, 9.71590653e-02,
          1.51125118e-01, 1.39761329e-01, 9.44760367e-02, 1.40629455e-01,
          1.46796286e-01, 1.33343905e-01, 4.73726019e-02, 0.,
          2.05745041e-01, 1.54729307e-01, 4.35737483e-02, 0.,
          1.00996932e-02, 1.38526440e-01, 1.33793369e-01, 2.23949209e-01,
          2.03232154e-01, 1.24765597e-01, 1.21888198e-01, 1.03671111e-01,
          8.89796764e-02, 9.12295356e-02, 1.31930426e-01, 1.21862814e-01 ]
      - [ 1.88607335e-01, 1.77957982e-01, 7.95382634e-02, 7.93196633e-02,
          1.49794757e-01, 8.89740512e-02, 6.98267249e-03, 4.78466563e-02,
          9.03183743e-02, 1.14026563e-02, 0., 1.80181473e-01,
          2.03607045e-02, 1.65542364e-01, 1.82200789e-01, 2.01229006e-01,
          1.75768346e-01, 2.16026962e-01, 1.16771474e-01, 2.63302624e-02,
          9.54777151e-02, 5.65592088e-02, 8.04397911e-02, 9.39908400e-02,
          1.36792704e-01, 1.32410571e-01, 7.16904085e-03, 1.03889301e-01,
          1.17358811e-01, 8.31677392e-02, 1.31980136e-01, 1.55292362e-01,
          8.33147764e-02, 1.83045175e-02, 9.63061079e-02, 6.02842076e-03,
          8.39742571e-02, 2.00922325e-01, 1.77971438e-01, 2.18415916e-01,
          1.43117562e-01, 1.46320894e-01, 1.45411715e-01, 7.71122053e-02,
          1.44101769e-01, 1.35367259e-01, 8.06289632e-03, 6.42865300e-02,
          2.25968376e-01, 9.04088467e-02, 0., 4.82303090e-02,
          6.02842076e-03, 5.23904637e-02, 1.47701815e-01, 2.63850778e-01,
          1.97080836e-01, 1.77690282e-01, 7.16904085e-03, 6.02842076e-03,
          7.16223866e-02, 6.83736727e-02, 9.02746990e-02, 1.28332883e-01 ]
      - [ 1.01558968e-01, 1.27881989e-01, 2.61929005e-01, 1.71907648e-01,
          1.44309895e-02, 1.94404244e-01, 1.40999751e-02, 5.57846762e-03,
          7.09241778e-02, 0., 1.42730996e-01, 6.20030612e-02,
          1.74988180e-01, 1.57712162e-01, 1.03224240e-01, 1.88928202e-01,
          2.12057427e-01, 1.73831359e-01, 1.00606367e-01, 7.21965954e-02,
          1.04200587e-01, 7.57503463e-03, 3.72905694e-02, 9.29745883e-02,
          1.95334494e-01, 4.29415479e-02, 3.67034860e-02, 7.38088638e-02,
          7.92523324e-02, 1.96100026e-01, 1.62320778e-01, 1.59315780e-01,
          7.26268664e-02, 7.07004368e-02, 9.74625275e-02, 0.,
          4.43639187e-03, 1.95666850e-01, 2.14121923e-01, 1.22654878e-01,
          1.37231201e-01, 1.67098850e-01, 1.21723138e-01, 9.05574113e-02,
          1.25480108e-02, 1.33229733e-01, 5.78979366e-02, 0.,
          1.43968001e-01, 0., 0., 0., 6.21285886e-02, 5.68314828e-02,
          1.89958036e-01, 2.72285819e-01, 1.28225580e-01, 1.59166142e-01,
          1.29278824e-01, 6.83656782e-02, 4.43639187e-03, 0.,
          7.37060234e-02, 1.85649440e-01 ]
      - [ 2.12448478e-01, 1.28495559e-01, 9.17484984e-02, 0.,
          1.70125924e-02, 9.29740146e-02, 1.09041512e-01, 6.72323303e-03,
          1.64100334e-01, 9.49601904e-02, 0., 7.58179128e-02,
          6.03617355e-02, 1.32910490e-01, 2.18833879e-01, 2.25105420e-01,
          2.73832500e-01, 9.85784382e-02, 1.10290535e-01, 9.55582261e-02,
          7.94197097e-02, 0., 1.11967586e-02, 1.21452481e-01,
          2.32772470e-01, 1.69195071e-01, 6.64320514e-02, 7.91695118e-02,
          5.48712052e-02, 5.54230139e-02, 6.25965148e-02, 2.66712189e-01,
          5.39227128e-02, 7.08145183e-03, 0., 0., 6.72323303e-03,
          1.21605851e-01, 1.79744214e-01, 2.26064861e-01, 1.59169599e-01,
          1.53251231e-01, 8.15362260e-02, 1.25529692e-01, 7.68509358e-02,
          1.08173378e-01, 8.17562118e-02, 5.68181090e-02, 2.03639135e-01,
          7.08145183e-03, 0., 5.29462053e-03, 1.04137575e-02, 0.,
          1.23636551e-01, 2.38451883e-01, 2.25365981e-01, 1.70579836e-01,
          7.41008520e-02, 5.29462053e-03, 4.91069257e-02, 0.,
          1.09713055e-01, 1.79133534e-01 ]
      - [ 1.68431118e-01, 1.83822289e-01, 1.74005657e-01, 8.77413899e-03,
          5.21359928e-02, 8.60063508e-02, 7.98966922e-03, 7.29353679e-03,
          7.34655112e-02, 8.62982962e-03, 7.85941109e-02, 0.,
          8.26614425e-02, 1.94313213e-01, 1.54507279e-01, 1.55031905e-01,
          2.11688742e-01, 1.13952234e-01, 1.04839846e-01, 8.07417110e-02,
          1.47845801e-02, 5.80033660e-03, 5.64954942e-03, 6.62036315e-02,
          1.66582078e-01, 1.04475044e-01, 1.02442466e-01, 0.,
          7.66514316e-02, 4.76795770e-02, 1.95223987e-01, 1.92898318e-01,
          8.95517915e-02, 3.34239416e-02, 1.09261535e-01, 5.15342653e-02,
          1.83378652e-01, 1.68563679e-01, 2.31553420e-01, 1.71473593e-01,
          1.66447014e-01, 8.80927071e-02, 1.51397437e-01, 1.64035693e-01,
          1.53722122e-01, 6.32264838e-02, 0., 0., 1.90080389e-01,
          1.00396931e-01, 0., 2.50971951e-02, 0., 7.52145946e-02,
          1.19922183e-01, 1.72599614e-01, 3.19761962e-01, 1.84861794e-01,
          9.12613422e-02, 5.72119541e-02, 6.00374490e-02, 0.,
          8.76778737e-02, 2.06888258e-01 ]
      - [ 2.26653829e-01, 2.36268550e-01, 5.28907850e-02, 7.22997785e-02,
          1.01592891e-01, 1.13948911e-01, 6.34202138e-02, 0.,
          1.11687064e-01, 6.05835356e-02, 0., 7.79001936e-02,
          1.05565973e-02, 7.63549283e-02, 1.96355671e-01, 1.77985728e-01,
          2.23468944e-01, 1.74660057e-01, 8.65413472e-02, 8.78662150e-03,
          6.89066723e-02, 7.05079595e-03, 8.77874717e-02, 1.13733977e-01,
          1.97851121e-01, 1.49873957e-01, 8.34849849e-02, 6.35113791e-02,
          8.32164213e-02, 1.73987255e-01, 1.64276227e-01, 1.55171260e-01,
          9.40734595e-02, 0., 1.17819034e-01, 0., 4.17265855e-02,
          7.86393657e-02, 2.24145129e-01, 1.44597426e-01, 2.22650126e-01,
